tree
version=v4
num_class=1
num_tree_per_iteration=1
label_index=0
max_feature_idx=184
objective=regression
feature_names=precipitation temperature irradiance_surface irradiance_toa snowfall snow_mass cloud_cover air_density year cos_month cos_week cos_weekday cos_day cos_hour is_holiday weekends_change_july_2017 unique_id lag1 lag2 lag3 lag4 lag5 lag6 lag7 lag8 lag9 lag10 lag11 lag12 lag13 lag14 lag15 lag16 lag17 lag18 lag19 lag20 lag21 lag22 lag23 lag24 lag25 lag26 lag27 lag28 lag29 lag30 lag31 lag32 lag33 lag34 lag35 lag36 lag37 lag38 lag39 lag40 lag41 lag42 lag43 lag44 lag45 lag46 lag47 lag48 lag49 lag50 lag51 lag52 lag53 lag54 lag55 lag56 lag57 lag58 lag59 lag60 lag61 lag62 lag63 lag64 lag65 lag66 lag67 lag68 lag69 lag70 lag71 lag72 lag73 lag74 lag75 lag76 lag77 lag78 lag79 lag80 lag81 lag82 lag83 lag84 lag85 lag86 lag87 lag88 lag89 lag90 lag91 lag92 lag93 lag94 lag95 lag96 lag97 lag98 lag99 lag100 lag101 lag102 lag103 lag104 lag105 lag106 lag107 lag108 lag109 lag110 lag111 lag112 lag113 lag114 lag115 lag116 lag117 lag118 lag119 lag120 lag121 lag122 lag123 lag124 lag125 lag126 lag127 lag128 lag129 lag130 lag131 lag132 lag133 lag134 lag135 lag136 lag137 lag138 lag139 lag140 lag141 lag142 lag143 lag144 lag145 lag146 lag147 lag148 lag149 lag150 lag151 lag152 lag153 lag154 lag155 lag156 lag157 lag158 lag159 lag160 lag161 lag162 lag163 lag164 lag165 lag166 lag167 lag168
feature_infos=[0:1.0327] [-12.856:35.953000000000003] [0:1024.5274999999999] [0:1262.9212] [0:0.44919999999999999] [0:35.391199999999998] [0:0.98599999999999999] [1.0024:1.1938] [2014:2017] [-1:1] [-1:1] [-0.90096886790241903:1] [-0.99996295911626554:1] [-1:1] [0:1] [0:1] none [0:45455.650000000001] [0:45455.650000000001] [0:45455.650000000001] [0:45455.650000000001] [0:45455.650000000001] [0:45455.650000000001] [0:45455.650000000001] [0:45455.650000000001] [0:45455.650000000001] [0:45455.650000000001] [0:45455.650000000001] [0:45455.650000000001] [0:45455.650000000001] [0:45455.650000000001] [0:45455.650000000001] [0:45455.650000000001] [0:45455.650000000001] [0:45455.650000000001] [0:45455.650000000001] [0:45455.650000000001] [0:45455.650000000001] [0:45455.650000000001] [0:45455.650000000001] [0:45455.650000000001] [0:45455.650000000001] [0:45455.650000000001] [0:45455.650000000001] [0:45455.650000000001] [0:45455.650000000001] [0:45455.650000000001] [0:45455.650000000001] [0:45455.650000000001] [0:45455.650000000001] [0:45455.650000000001] [0:45455.650000000001] [0:45455.650000000001] [0:45455.650000000001] [0:45455.650000000001] [0:45455.650000000001] [0:45455.650000000001] [0:45455.650000000001] [0:45455.650000000001] [0:45455.650000000001] [0:45455.650000000001] [0:45455.650000000001] [0:45455.650000000001] [0:45455.650000000001] [0:45455.650000000001] [0:45455.650000000001] [0:45455.650000000001] [0:45455.650000000001] [0:45455.650000000001] [0:45455.650000000001] [0:45455.650000000001] [0:45455.650000000001] [0:45455.650000000001] [0:45455.650000000001] [0:45455.650000000001] [0:45455.650000000001] [0:45455.650000000001] [0:45455.650000000001] [0:45455.650000000001] [0:45455.650000000001] [0:45455.650000000001] [0:45455.650000000001] [0:45455.650000000001] [0:45455.650000000001] [0:45455.650000000001] [0:45455.650000000001] [0:45455.650000000001] [0:45455.650000000001] [0:45455.650000000001] [0:45455.650000000001] [0:45455.650000000001] [0:45455.650000000001] [0:45455.650000000001] [0:45455.650000000001] [0:45455.650000000001] [0:45455.650000000001] [0:45455.650000000001] [0:45455.650000000001] [0:45455.650000000001] [0:45455.650000000001] [0:45455.650000000001] [0:45455.650000000001] [0:45455.650000000001] [0:45455.650000000001] [0:45455.650000000001] [0:45455.650000000001] [0:45455.650000000001] [0:45455.650000000001] [0:45455.650000000001] [0:45455.650000000001] [0:45455.650000000001] [0:45455.650000000001] [0:45455.650000000001] [0:45455.650000000001] [0:45455.650000000001] [0:45455.650000000001] [0:45455.650000000001] [0:45455.650000000001] [0:45455.650000000001] [0:45455.650000000001] [0:45455.650000000001] [0:45455.650000000001] [0:45455.650000000001] [0:45455.650000000001] [0:45455.650000000001] [0:45455.650000000001] [0:45455.650000000001] [0:45455.650000000001] [0:45455.650000000001] [0:45455.650000000001] [0:45455.650000000001] [0:45455.650000000001] [0:45455.650000000001] [0:45455.650000000001] [0:45455.650000000001] [0:45455.650000000001] [0:45455.650000000001] [0:45455.650000000001] [0:45455.650000000001] [0:45455.650000000001] [0:45455.650000000001] [0:45455.650000000001] [0:45455.650000000001] [0:45455.650000000001] [0:45455.650000000001] [0:45455.650000000001] [0:45455.650000000001] [0:45455.650000000001] [0:45455.650000000001] [0:45455.650000000001] [0:45455.650000000001] [0:45455.650000000001] [0:45455.650000000001] [0:45455.650000000001] [0:45455.650000000001] [0:45455.650000000001] [0:45455.650000000001] [0:45455.650000000001] [0:45455.650000000001] [0:45455.650000000001] [0:45455.650000000001] [0:45455.650000000001] [0:45455.650000000001] [0:45455.650000000001] [0:45455.650000000001] [0:45455.650000000001] [0:45455.650000000001] [0:45455.650000000001] [0:45455.650000000001] [0:45455.650000000001] [0:45455.650000000001] [0:45455.650000000001] [0:45455.650000000001] [0:45455.650000000001] [0:45455.650000000001] [0:45455.650000000001] [0:45455.650000000001] [0:45455.650000000001] [0:45455.650000000001] [0:45455.650000000001] [0:45455.650000000001] [0:45455.650000000001] [0:45455.650000000001] [0:45455.650000000001] [0:45455.650000000001]
tree_sizes=19962 20188 20231 20212 20239 20215 20176 20199 20194 20173 20185 20182 20169 20218 20233 20178 20220 20241 20226 20171 20248 20213 20159 20139 20293 20145 20185 20008 19951 20014 19829 19842 19806 19790 19731 19571 19776 19723 19698 19664 19628 19506 19564 19488 19542 19431 19465 19396 19544 19510 19449 19408 19430 19353 19311 19357 19329 19396 19327 19416 19378 19432 19366 19334 19308 19380 19310 19338 19267 10995 16390 19315 16906 19302 19321 19310 10781 17679 15847 19271 8897 16053 13912 10174 19315 17412 19187 19244 17266 19256 10081 9104 19155 19300 11273 12577 19299 19304 19304 13814

Tree=0
num_leaves=233
num_cat=0
split_feature=17 17 17 184 17 184 17 183 17 17 40 3 40 40 17 184 13 13 138 17 17 17 40 184 177 17 13 184 184 184 17 40 39 17 34 184 183 180 183 43 17 112 17 153 39 183 184 40 17 17 40 17 17 40 139 17 135 19 163 158 17 66 17 17 138 114 40 3 90 13 17 13 44 183 40 40 17 28 37 11 39 184 40 159 183 152 37 17 39 22 19 40 23 166 13 40 40 32 17 140 175 40 13 1 39 17 138 122 17 160 65 26 17 17 184 17 88 88 17 17 13 42 41 17 41 40 13 91 17 183 17 17 160 40 29 170 88 11 40 25 17 47 88 40 17 114 161 17 44 17 38 40 176 17 74 113 58 40 30 13 40 90 17 40 164 17 46 183 26 17 17 17 40 182 17 18 17 42 13 89 13 38 42 152 159 20 113 29 39 41 30 160 6 46 42 42 17 17 17 44 145 43 40 62 41 42 39 17 38 42 40 160 180 43 17 83 21 40 39 18 41 13 17 40 19 40 17 39 89 27 184 62
split_gain=1.91639e+11 4.01136e+10 2.77578e+10 9.63728e+09 7.63457e+09 6.39546e+09 4.26143e+09 1.74614e+09 1.45965e+09 1.37557e+09 1.35469e+09 1.32613e+09 1.25447e+09 1.13004e+09 7.46333e+08 7.39571e+08 6.46289e+08 4.62739e+08 4.50863e+08 4.12648e+08 3.84041e+08 3.77954e+08 3.46592e+08 3.42594e+08 3.19058e+08 2.72833e+08 2.42365e+08 2.40432e+08 2.29374e+08 2.23279e+08 2.20622e+08 2.14698e+08 2.1262e+08 2.08094e+08 2.07456e+08 2.04055e+08 2.02906e+08 1.88516e+08 1.86446e+08 1.84062e+08 1.53985e+08 1.53535e+08 1.50684e+08 1.38452e+08 1.31286e+08 1.28077e+08 1.27951e+08 1.19662e+08 1.1688e+08 1.16494e+08 1.02072e+08 1.0017e+08 9.59202e+07 9.57192e+07 9.54609e+07 8.78426e+07 8.6013e+07 7.87436e+07 7.50242e+07 7.4376e+07 7.32991e+07 7.11853e+07 7.06564e+07 7.03182e+07 6.96037e+07 6.73045e+07 6.59564e+07 6.58217e+07 6.31143e+07 6.23584e+07 5.96881e+07 5.57733e+07 5.56197e+07 5.28847e+07 5.27529e+07 5.18646e+07 5.08376e+07 4.82302e+07 4.70847e+07 4.68332e+07 4.65104e+07 4.60921e+07 4.52637e+07 4.52045e+07 4.41954e+07 4.41663e+07 4.21152e+07 4.23117e+07 4.03203e+07 3.99252e+07 3.93297e+07 3.87745e+07 3.87052e+07 3.83903e+07 3.82135e+07 3.77772e+07 3.73711e+07 3.64941e+07 3.63414e+07 3.60827e+07 3.59922e+07 3.52335e+07 3.48549e+07 3.41165e+07 3.37839e+07 3.37106e+07 3.32168e+07 3.27071e+07 3.22161e+07 3.21974e+07 3.19996e+07 3.16008e+07 3.15062e+07 3.11406e+07 3.07067e+07 3.04828e+07 3.04151e+07 3.01816e+07 2.96199e+07 2.93895e+07 3.17556e+07 2.87854e+07 2.81391e+07 2.80655e+07 2.77386e+07 2.78873e+07 2.75706e+07 2.74583e+07 2.69377e+07 2.6834e+07 2.57062e+07 2.55526e+07 2.52766e+07 2.52468e+07 2.47184e+07 2.4435e+07 2.38096e+07 2.29358e+07 2.26249e+07 2.22789e+07 2.18989e+07 2.1455e+07 2.12677e+07 2.11766e+07 2.11205e+07 2.10366e+07 2.10228e+07 2.05125e+07 2.0474e+07 2.04058e+07 2.033e+07 1.9867e+07 1.97581e+07 1.96468e+07 1.9047e+07 1.86145e+07 1.85333e+07 1.84222e+07 1.83898e+07 1.77729e+07 1.73234e+07 1.72492e+07 1.68772e+07 1.68744e+07 1.66067e+07 1.59324e+07 1.58152e+07 1.52387e+07 1.50999e+07 1.50971e+07 1.50893e+07 1.4982e+07 1.49699e+07 1.4936e+07 1.65154e+07 1.49219e+07 1.48848e+07 1.48171e+07 1.47934e+07 1.43676e+07 1.42836e+07 1.41944e+07 1.38861e+07 1.36302e+07 1.35603e+07 1.33807e+07 1.31311e+07 1.31164e+07 1.28826e+07 1.28584e+07 1.25822e+07 1.24219e+07 1.23656e+07 1.22991e+07 1.18766e+07 1.17299e+07 1.16187e+07 1.15072e+07 1.13595e+07 1.13054e+07 1.12562e+07 1.1188e+07 1.0985e+07 1.0971e+07 1.0968e+07 1.08722e+07 1.08257e+07 1.08073e+07 1.08042e+07 1.05805e+07 1.05364e+07 1.05278e+07 1.04266e+07 1.03486e+07 1.03393e+07 1.02101e+07 1.01773e+07 1.01147e+07 1.00787e+07 9.92156e+06 9.90341e+06 9.45464e+06 9.43951e+06 9.29663e+06 9.1842e+06 9.05206e+06 8.90856e+06 8.7693e+06 8.7347e+06 8.70061e+06 8.50823e+06 8.35114e+06
threshold=28514.340000000004 33270.780000000006 23862.860000000004 26469.620000000006 36704.405000000006 30480.985000000004 21280.945000000003 24316.085000000003 30379.145000000004 39385.420000000006 32173.495000000006 597.47260000000017 25244.690000000006 34902.280000000006 19032.490000000005 28619.300000000003 0.91597561503675351 -0.37940952255126015 23952.690000000006 26769.375000000004 25496.095000000005 30998.575000000001 31041.630000000005 34173.135000000002 33878.510000000002 27077.430000000004 -0.70710678118654757 28991.050000000007 27872.905000000002 39099.380000000005 22021.085000000003 37717.905000000006 29671.165000000005 31862.120000000003 36690.405000000006 30198.560000000001 22711.920000000002 35251.92500000001 23994.700000000001 27467.105000000003 35199.56500000001 36029.585000000006 22483.310000000001 30586.810000000001 28070.095000000005 22658.900000000005 24726.090000000004 33580.970000000008 25924.575000000004 26948.305000000004 28887.395 18059.970000000005 34635.620000000003 30563.145000000004 25531.950000000004 31576.085000000003 34005.92500000001 24510.405000000002 23948.875000000004 30448.200000000004 27200.375000000004 23962.375000000004 19901.570000000003 29575.825000000001 30355.500000000004 32616.525000000005 32430.540000000005 500.33800000000002 35484.205000000009 0.91597561503675351 22677.130000000005 0.91597561503675351 29619.905000000002 26014.165000000005 34037.670000000006 31336.135000000006 29533.890000000003 20705.725000000002 23917.435000000001 1.0000000180025095e-35 24382.615000000002 41067.715000000004 29302.595000000005 31478.915000000005 24316.085000000003 33448.870000000003 22847.830000000005 22731.750000000004 25491.645 29987.015000000003 22848.755000000001 35878.455000000009 25794.530000000002 24209.030000000002 -0.98296291314453399 29486.250000000004 29439.660000000003 28846.170000000002 25737.445000000003 28297.665000000005 25584.630000000001 28220.930000000004 0.98296291314453421 25.728500000000004 25128.550000000003 37753.615000000005 29552.375000000004 28257.670000000002 35199.56500000001 21270.205000000005 31617.365000000002 26708.775000000005 25682.900000000005 31283.470000000005 25945.315000000006 23352.190000000006 31503.635000000006 31558.285000000003 27469.500000000004 20362.300000000003 1.0000000180025095e-35 24818.470000000005 33414.415000000008 29624.550000000003 28319.650000000005 29713.015000000003 -0.37940952255126015 37996.810000000005 30616.810000000001 33193.950000000004 29252.940000000006 25016.290000000005 30778.655000000002 33173.785000000011 28369.370000000003 24611.760000000006 29932.130000000001 0.81174490092936691 35878.455000000009 28024.305000000004 25614.855000000003 27467.105000000003 31224.600000000002 26562.855000000003 20533.230000000007 33720.890000000007 26977.665000000005 24952.375000000004 27467.105000000003 24339.800000000003 33581.725000000006 29942.495000000006 26475.715000000004 27912.965000000004 27191.505000000005 24496.535000000003 32648.110000000004 32936.900000000001 34502.140000000007 0.91597561503675351 30946.235000000004 30646.555000000004 29675.490000000002 27410.505000000005 28724.720000000005 23154.325000000004 27970.795000000002 20979.790000000005 23675.935000000001 27856.045000000002 38374.450000000004 32114.125000000004 27576.290000000005 35410.30000000001 34635.620000000003 24760.660000000003 27309.690000000006 27135.025000000005 0.98296291314453421 30848.740000000002 0.98296291314453421 27136.185000000001 28366.740000000005 31418.415000000005 25172.735000000004 29304.385000000006 27561.210000000003 34902.280000000006 30759.270000000004 31737.555000000004 29987.560000000001 29325.495000000006 0.074250000000000024 25791.690000000006 29670.135000000006 21762.670000000002 30998.575000000001 31801.990000000002 23091.590000000004 31513.695000000003 26229.550000000003 26505.055000000004 31336.135000000006 28273.520000000004 27006.230000000007 29485.595000000005 25731.250000000004 33587.545000000006 29204.755000000005 36686.910000000011 36905.125000000007 30109.865000000002 27988.865000000002 28843.055000000004 29989.120000000006 33075.375000000007 31914.655000000002 33088.94000000001 23153.150000000005 28122.070000000003 35508.365000000013 0.98296291314453421 27688.475000000002 34369.150000000009 25131.040000000005 34250.740000000005 29122.140000000003 31738.865000000002 30646.555000000004 29397.850000000002 22084.865000000002 31512.240000000002
decision_type=2 2 2 2 2 2 2 2 2 2 2 2 2 2 2 2 2 2 2 2 2 2 2 2 2 2 2 2 2 2 2 2 2 2 2 2 2 2 2 2 2 2 2 2 2 2 2 2 2 2 2 2 2 2 2 2 2 2 2 2 2 2 2 2 2 2 2 2 2 2 2 2 2 2 2 2 2 2 2 2 2 2 2 2 2 2 2 2 2 2 2 2 2 2 2 2 2 2 2 2 2 2 2 2 2 2 2 2 2 2 2 2 2 2 2 2 2 2 2 2 2 2 2 2 2 2 2 2 2 2 2 2 2 2 2 2 2 2 2 2 2 2 2 2 2 2 2 2 2 2 2 2 2 2 2 2 2 2 2 2 2 2 2 2 2 2 2 2 2 2 2 2 2 2 2 2 2 2 2 2 2 2 2 2 2 2 2 2 2 2 2 2 2 2 2 2 2 2 2 2 2 2 2 2 2 2 2 2 2 2 2 2 2 2 2 2 2 2 2 2 2 2 2 2 2 2 2 2 2 2 2 2
left_child=2 5 6 12 13 8 14 30 16 31 21 19 20 23 51 58 27 18 70 37 38 43 55 47 33 32 60 50 69 103 90 72 46 65 40 82 62 48 89 56 68 108 78 53 88 86 79 52 80 84 130 77 83 76 119 71 116 176 149 104 -17 -34 109 180 66 129 -24 96 173 118 -9 94 156 187 -26 117 -7 -1 -19 -14 -5 -31 191 168 185 127 87 121 221 147 92 220 -8 -88 -10 183 166 213 -60 133 181 137 -51 -11 190 138 151 224 164 -16 202 162 227 -66 140 203 179 160 219 -38 195 -32 -54 208 142 -126 -96 192 -67 228 -2 -81 -101 -35 -70 -64 -109 172 -74 169 155 -93 -78 -133 -137 223 -59 175 -85 -13 212 -52 -151 -71 -114 -48 -6 -134 -73 -142 216 -98 205 -120 -25 -95 -29 -92 -3 -103 -87 -118 -30 174 -15 -4 -37 -82 -65 -23 226 -50 -76 -20 -80 -22 -84 -40 194 -77 -44 -28 -33 -75 -141 -121 -128 -191 -106 -110 -72 -86 -55 -47 -132 -69 -116 -170 -108 -107 -211 -130 -100 -57 -163 -143 -41 -150 -117 -21 -42 -27 -90 -49 -45 -166 -18 -63 -12 -61 -94 -115
right_child=1 4 3 11 9 10 7 17 22 29 24 15 25 34 36 26 63 42 95 28 49 39 64 41 74 44 35 67 101 81 45 85 61 99 -36 57 54 -39 73 75 91 -43 59 107 -46 115 114 145 100 102 106 -53 122 110 -56 97 -58 146 98 229 -62 112 135 178 113 128 -68 111 134 153 200 158 105 193 182 189 124 -79 184 131 177 -83 186 148 201 170 93 -89 222 -91 167 141 230 165 126 -97 161 -99 150 132 -102 139 -104 -105 198 209 123 136 199 -111 -112 -113 154 231 206 218 171 -119 163 120 -122 -123 -124 -125 125 -127 196 -129 211 -131 204 143 157 -135 -136 144 -138 -139 -140 188 159 215 -144 -145 -146 -147 -148 -149 217 152 -152 -153 -154 -155 -156 -157 -158 -159 -160 -161 -162 214 -164 -165 225 -167 -168 -169 207 -171 -172 -173 -174 -175 -176 -177 -178 -179 -180 -181 -182 -183 -184 -185 -186 -187 -188 -189 -190 197 -192 -193 -194 -195 -196 -197 -198 -199 -200 -201 -202 -203 -204 -205 -206 -207 -208 -209 -210 210 -212 -213 -214 -215 -216 -217 -218 -219 -220 -221 -222 -223 -224 -225 -226 -227 -228 -229 -230 -231 -232 -233
leaf_value=27140.372343040242 28357.108834074177 28852.674861078951 27926.392328164671 27971.25843801878 29269.469424857991 28470.902909748434 27820.529036403677 28103.138331142083 28470.631226189234 29418.490283191903 28757.540302120698 28309.073989748504 28090.709590145161 29007.284830321627 27386.283043486303 28230.977535043923 28278.892426733182 27709.242582361923 27840.726601570288 28250.632190886972 27974.411944378411 28745.090270097367 28682.026281164293 28997.294384070989 28884.547687524962 28148.728566588525 28407.594876747564 28483.208895139262 28240.509035280626 29633.910523148494 27718.205200402052 29421.649002454269 28317.136034569769 28817.274031815326 29271.914013990645 28523.138098887772 27653.699333220873 28359.068061319122 27956.112121344238 28585.558154268499 29125.349001946772 29158.572607552211 27814.983794331831 28668.24442588969 28332.766710301439 27808.722888968627 28111.580915724815 28944.760379211864 28185.226342250236 28191.305506570516 28467.85013633611 27416.589926420897 28991.796499878219 28619.699096966739 27554.906644158607 28698.723486815259 28922.67827050879 28653.399817282145 28196.129663928787 27987.676634657473 28422.631206865928 28094.48516366291 27490.485207514201 28392.193918967776 28583.146718275621 28578.09389609248 28831.458480348447 28528.219649318165 28907.198633595348 28142.498752209929 28190.72454473413 28492.839696401184 29130.452847819201 28105.092414911567 29058.053312836331 28733.107002325498 28572.044687908019 27318.938823992354 27800.221914888709 27958.722752072845 28160.40944032355 29764.447191936884 28546.256106929097 28924.371340577116 28120.825393224899 29397.084803536487 27896.163699375851 27764.628380411385 28176.856408974512 27932.789605690476 27625.943440149196 29205.590163901183 27690.25177170083 27761.558256877484 28621.213575607046 27991.490771843732 28533.874924737538 28553.741644201033 28298.73796112858 28756.994056433192 28117.570411734505 28302.773014805283 28072.473603852617 29549.78688928971 27907.284596896126 29307.52773177969 28368.209153302279 28676.468369103179 29078.070988244777 27519.942555197878 28537.573494822267 28630.53531152751 28150.206453459072 28648.2413089783 28083.043794627985 27838.253764861754 28745.783124587189 28715.15098165919 28256.939068977979 27835.90474989338 27671.47473586263 27601.091850550405 28883.84955030393 28485.388091052795 28458.958401328055 28562.266549440075 28524.620546242157 29267.717849459787 28641.766584085202 28809.699688965433 28456.622360098761 27994.219901414985 28787.110423695547 28894.56875292764 29007.582840691026 27548.507558142552 28794.055348262482 28367.20975730841 29217.160420539396 28394.770871981393 28114.724438105655 29155.095899606356 28669.450134382889 28088.302429307587 27608.975925030471 28892.22957174552 28766.127660734142 27915.752107915901 28825.725303647789 28316.056113876049 28354.451771684217 28544.464060685623 28409.6157005309 28222.740431519112 28259.333403542914 28026.140120084372 29378.837209323108 28848.267454430388 28411.450754233625 28047.473823736727 28659.286646198387 28466.061738076067 28571.964086051707 28316.596160631652 28913.860884743546 27825.339703360001 28425.072313700886 27689.024194641897 28749.495255079408 28368.951591432975 29490.95648962741 28813.818418244868 28314.439961802826 29116.842475728943 29091.598973823882 27851.25064125457 28597.264916381595 28075.84264985218 28327.626672036742 28673.625817937271 28241.922245416627 28256.519309069128 28966.647629699393 27929.213447218073 27874.215360291277 28027.234259757839 28470.388040422698 28016.295918766111 28450.073814670213 28645.792802282969 27890.948283489237 28473.090328739527 29342.317240810102 28024.517314645313 28330.001265535269 27751.400568559297 28571.690521754226 28702.398099929786 27966.898417011525 28990.768023347435 28262.076684497977 28049.365006277767 28665.716600999283 27857.348513949564 28395.872141245822 28456.096475842729 28147.630271988655 28801.178565562677 28428.956070236796 29197.62126315627 29277.193460044586 28718.345359661798 28222.960052213828 28626.913189202187 28525.193949262029 29084.819481305138 28633.701721086461 28888.99193594695 27897.237580183515 28188.239735915562 29058.409383728645 28100.666270058871 28233.933476808234 29002.194153586257 28598.437771329609 28972.076423971444 28328.084885594326 28156.753741011929 28703.653084349531 28050.714394709346 27745.256615216662 28715.497227971799
leaf_weight=30 190 35 30 36 33 79 41 57 58 40 55 53 55 61 30 31 104 32 42 102 145 54 90 53 53 99 73 82 45 51 71 30 30 73 59 46 48 45 189 90 33 53 31 51 52 242 33 99 49 58 97 56 47 139 47 30 31 37 52 45 56 68 30 94 70 32 44 69 53 53 37 86 53 37 38 83 75 31 39 132 32 59 74 41 32 42 31 177 58 172 58 61 85 163 58 49 131 68 42 81 42 67 43 40 52 31 52 34 30 46 38 41 32 46 35 45 67 47 74 30 35 30 50 62 37 89 130 39 30 60 41 76 84 101 46 93 35 49 71 111 145 55 32 35 156 65 30 88 93 31 40 52 83 72 32 113 30 120 41 54 113 100 65 132 93 52 109 116 68 71 30 63 70 34 38 232 66 59 57 59 69 65 30 30 69 72 33 45 30 52 75 48 61 39 38 37 88 117 84 30 55 70 83 58 108 30 101 101 67 35 33 45 32 61 42 34 86 35 83 34 70 70 58 40 30 38 57 34 67 43 43 31
leaf_count=30 190 35 30 36 33 79 41 57 58 40 55 53 55 61 30 31 104 32 42 102 145 54 90 53 53 99 73 82 45 51 71 30 30 73 59 46 48 45 189 90 33 53 31 51 52 242 33 99 49 58 97 56 47 139 47 30 31 37 52 45 56 68 30 94 70 32 44 69 53 53 37 86 53 37 38 83 75 31 39 132 32 59 74 41 32 42 31 177 58 172 58 61 85 163 58 49 131 68 42 81 42 67 43 40 52 31 52 34 30 46 38 41 32 46 35 45 67 47 74 30 35 30 50 62 37 89 130 39 30 60 41 76 84 101 46 93 35 49 71 111 145 55 32 35 156 65 30 88 93 31 40 52 83 72 32 113 30 120 41 54 113 100 65 132 93 52 109 116 68 71 30 63 70 34 38 232 66 59 57 59 69 65 30 30 69 72 33 45 30 52 75 48 61 39 38 37 88 117 84 30 55 70 83 58 108 30 101 101 67 35 33 45 32 61 42 34 86 35 83 34 70 70 58 40 30 38 57 34 67 43 43 31
internal_value=28375.6 28746.9 28023.2 28170.9 29104.2 28592.4 27768.2 27840.2 28483.7 29383.1 28708.4 28329.6 28040.7 28979.4 27549.3 28428.2 28429.7 27962.8 28067.1 28265.6 27969.1 28653.4 28586.8 28914.8 28808.8 28109.1 28505.8 28462.4 28299.1 29611.4 27770.2 29294.3 28082.3 28784.4 29094.8 28538.2 27597.9 28168.9 27929.8 28698.1 29073.3 29004.3 27902.8 28600 28186.6 27795 28058.8 28875.3 28138.7 28047.1 28420 27319.8 28847.6 28577.6 27679.3 28545.1 28765.8 28618.1 28313 27939.7 28354.3 28175.4 27552.7 28314.8 28679 28717.9 28731.1 28504.8 29014.4 28249.2 28183.5 28523 29238.5 27991.2 28959.4 28666.5 28540.2 27231.1 27815.9 28007.3 28067.5 29704 28475.5 28824.5 28017.5 29373.2 27761.8 27735.1 28160 27893.3 27701.4 29127.2 27735.8 27792 28544.4 27923.7 28484 28609.2 28265.4 28826.2 28196.7 28347.5 28140.7 29484.2 27911.1 29215 28459.6 28685.5 28970.7 27467.1 28622.4 28552 28149.7 28631.4 28090.7 27835.6 28745.8 28640.8 28271.3 27718.3 27748.8 27683.4 28936.2 28430.8 28563.7 28531.9 28559.9 29338.3 28654.9 28754.9 28381.5 27988.5 28804.3 28862.1 28953.9 27576.1 28736.1 28309.9 29180.1 28367 28074.9 29159.7 28601.2 28023.9 27586.4 28939.3 28703.9 27873.9 28862.8 28360.3 28297 28494.6 28384.2 28188.7 28204.8 28045.4 29321.6 28823.1 28466.6 28096.5 28628.7 28507.7 28532.4 28295.2 28949.9 27777 28450 27668 28792.8 28336.8 29436.2 28778.8 28285.5 29059.4 29039.7 27859.8 28566.8 28105.6 28367.8 28707.8 28280 28225.9 29017.8 27877.6 27847.5 27991.9 28522.9 27967.7 28390.3 28700.8 27868.7 28433.6 29368.5 28063.7 28378.3 27789.2 28543.6 28685 27944.1 29034.5 28233.4 28071.8 28636.9 27818.1 28412.6 28506.4 28131 28780.4 28402.4 29258.6 29236.3 28687.7 28266 28650.6 28483.6 29128.3 28609.1 28843 27876.5 28235 29079.9 28128.8 28205.4 28961.3 28642.4 28930.8 28296.3 28115.2 28728 28018.5 27708.7 28675.3
internal_weight=0 7266 7371 4667 2193 5073 2704 2035 2620 678 2453 2103 2564 1515 669 827 1719 740 270 1276 1252 1584 901 971 869 1312 494 1338 948 190 1295 488 975 748 544 407 552 328 832 862 485 297 470 722 337 952 779 674 283 420 669 117 470 572 197 620 274 179 333 330 87 196 355 381 281 289 134 669 232 467 149 461 286 310 121 588 312 61 140 298 127 110 228 373 319 202 524 278 285 522 343 253 169 246 334 121 464 159 166 459 156 481 101 80 242 223 330 150 244 76 260 205 166 147 481 428 243 336 342 150 102 101 97 181 233 126 276 130 107 182 339 243 285 174 99 279 69 164 124 317 345 150 107 111 249 204 67 350 169 167 114 149 114 125 64 146 63 204 127 199 289 273 164 206 184 215 191 174 204 138 72 130 115 133 99 262 112 91 151 113 230 114 68 72 108 217 107 234 179 252 106 121 91 76 149 67 218 169 136 60 92 102 222 300 149 99 136 169 119 99 68 75 74 91 142 89 176 128 128 136 103 169 116 139 81 131 161 102 122 88 128 77
internal_count=14637 7266 7371 4667 2193 5073 2704 2035 2620 678 2453 2103 2564 1515 669 827 1719 740 270 1276 1252 1584 901 971 869 1312 494 1338 948 190 1295 488 975 748 544 407 552 328 832 862 485 297 470 722 337 952 779 674 283 420 669 117 470 572 197 620 274 179 333 330 87 196 355 381 281 289 134 669 232 467 149 461 286 310 121 588 312 61 140 298 127 110 228 373 319 202 524 278 285 522 343 253 169 246 334 121 464 159 166 459 156 481 101 80 242 223 330 150 244 76 260 205 166 147 481 428 243 336 342 150 102 101 97 181 233 126 276 130 107 182 339 243 285 174 99 279 69 164 124 317 345 150 107 111 249 204 67 350 169 167 114 149 114 125 64 146 63 204 127 199 289 273 164 206 184 215 191 174 204 138 72 130 115 133 99 262 112 91 151 113 230 114 68 72 108 217 107 234 179 252 106 121 91 76 149 67 218 169 136 60 92 102 222 300 149 99 136 169 119 99 68 75 74 91 142 89 176 128 128 136 103 169 116 139 81 131 161 102 122 88 128 77
is_linear=0
shrinkage=1


Tree=1
num_leaves=233
num_cat=0
split_feature=17 17 17 184 17 184 17 183 17 17 3 40 40 40 17 13 184 13 161 184 40 184 17 184 17 176 184 17 13 13 184 40 182 184 139 43 17 17 34 17 111 17 184 17 18 40 17 161 39 17 17 40 181 17 13 87 17 90 39 17 29 184 37 3 17 42 163 17 110 31 39 183 17 17 17 90 43 17 17 17 183 182 37 1 28 40 3 40 17 32 40 40 40 40 17 17 19 39 40 88 17 184 64 26 17 17 17 17 178 115 17 87 176 20 116 17 165 17 17 88 17 142 39 117 17 13 114 40 39 39 94 139 169 58 39 17 17 17 39 17 37 40 42 17 66 87 39 40 22 40 40 40 40 22 17 23 66 183 160 40 17 17 17 88 17 17 17 39 88 31 13 40 184 17 25 40 113 40 40 89 136 46 13 182 30 42 181 38 160 64 17 113 40 137 61 183 160 40 40 17 66 40 39 22 21 38 22 28 104 17 148 160 42 12 13 40 17 139 89 17 17 33 23 5 153 40 40 38 184 17 40 136
split_gain=1.55229e+11 3.24925e+10 2.24952e+10 7.30197e+09 6.18413e+09 5.18727e+09 3.78121e+09 1.64952e+09 1.30838e+09 1.11422e+09 1.02741e+09 1.02571e+09 9.68916e+08 9.15743e+08 6.04549e+08 5.54727e+08 5.27884e+08 4.11099e+08 3.87041e+08 3.63304e+08 3.10086e+08 3.06828e+08 3.03595e+08 2.55104e+08 2.54914e+08 2.53326e+08 2.20155e+08 1.99399e+08 1.96319e+08 1.91759e+08 1.81238e+08 1.73908e+08 1.67549e+08 1.65332e+08 1.55276e+08 1.50062e+08 1.46854e+08 1.45612e+08 1.43814e+08 1.35276e+08 1.3065e+08 1.28736e+08 1.12748e+08 1.12198e+08 1.04003e+08 1.02785e+08 1.00286e+08 8.95786e+07 8.75206e+07 8.11436e+07 8.03387e+07 7.95981e+07 7.77081e+07 7.70924e+07 7.29808e+07 7.19021e+07 7.09479e+07 6.99957e+07 6.78301e+07 6.7645e+07 6.70603e+07 6.69841e+07 6.31867e+07 6.25525e+07 6.16809e+07 6.13308e+07 6.06067e+07 5.93734e+07 5.85999e+07 5.67736e+07 5.36003e+07 5.33867e+07 5.26321e+07 4.98758e+07 4.92429e+07 4.85949e+07 4.55543e+07 4.46333e+07 4.35723e+07 4.33166e+07 4.25772e+07 4.11178e+07 3.96487e+07 3.92571e+07 3.90675e+07 3.76718e+07 3.66537e+07 3.51264e+07 3.47981e+07 3.46981e+07 3.41967e+07 3.37689e+07 3.30604e+07 3.27905e+07 3.25635e+07 3.18684e+07 3.13765e+07 3.03961e+07 2.98882e+07 2.98219e+07 2.88579e+07 2.87265e+07 2.85105e+07 2.80579e+07 2.79367e+07 2.76596e+07 2.75759e+07 2.74324e+07 2.89214e+07 2.71783e+07 2.71728e+07 2.70517e+07 2.70251e+07 2.68531e+07 2.61496e+07 2.5844e+07 2.56406e+07 2.52827e+07 2.49945e+07 2.48022e+07 2.46177e+07 2.4054e+07 2.36824e+07 2.34556e+07 2.26754e+07 2.23879e+07 2.12492e+07 2.11519e+07 2.07504e+07 2.06186e+07 2.04387e+07 2.01292e+07 1.99902e+07 1.97733e+07 1.90796e+07 1.89761e+07 1.87116e+07 1.86366e+07 1.85309e+07 1.85241e+07 1.83857e+07 1.741e+07 1.68618e+07 1.67233e+07 1.66184e+07 1.64096e+07 1.64021e+07 1.63553e+07 1.62925e+07 1.61193e+07 1.61104e+07 1.59268e+07 1.55792e+07 1.55308e+07 1.53518e+07 1.51051e+07 1.50955e+07 1.48682e+07 1.4833e+07 1.46613e+07 1.46583e+07 1.46492e+07 1.42257e+07 1.406e+07 1.38144e+07 1.37639e+07 1.36939e+07 1.36617e+07 1.36352e+07 1.35861e+07 1.35564e+07 1.33378e+07 1.32796e+07 1.31341e+07 1.30117e+07 1.27559e+07 1.2559e+07 1.25446e+07 1.25227e+07 1.23197e+07 1.20316e+07 1.20154e+07 1.19616e+07 1.17643e+07 1.16284e+07 1.15478e+07 1.1486e+07 1.1445e+07 1.11404e+07 1.10612e+07 1.09402e+07 1.08307e+07 1.07038e+07 1.13915e+07 1.0583e+07 1.05772e+07 1.05526e+07 1.04721e+07 1.02626e+07 1.16207e+07 1.0128e+07 1.01047e+07 9.89665e+06 9.81553e+06 9.80276e+06 9.74556e+06 9.62008e+06 9.52957e+06 9.43766e+06 9.40781e+06 9.36987e+06 9.07622e+06 8.91527e+06 8.8694e+06 8.90485e+06 8.84158e+06 8.797e+06 8.69508e+06 8.65156e+06 8.42657e+06 8.2824e+06 8.24993e+06 8.23777e+06 8.204e+06 8.09344e+06 8.02946e+06 7.94673e+06 7.82443e+06 7.74513e+06 7.72154e+06 7.66942e+06 9.23182e+06
threshold=28514.340000000004 33270.780000000006 24018.470000000005 26586.070000000003 36704.405000000006 30673.765000000003 21280.945000000003 24663.660000000003 30334.520000000004 39385.420000000006 597.47260000000017 25677.470000000005 32173.495000000006 35189.340000000004 19032.490000000005 0.91597561503675351 28619.300000000003 -0.37940952255126015 25524.890000000003 24477.855000000003 30809.005000000001 33598.975000000006 25496.095000000005 22580.805000000004 30860.830000000005 33878.510000000002 28991.050000000007 27077.430000000004 -0.70710678118654757 0.91597561503675351 39916.020000000011 37717.905000000006 23644.050000000007 30150.930000000004 24367.600000000002 27575.690000000006 22908.020000000004 27355.495000000006 36690.405000000006 32246.180000000004 36432.855000000003 26319.800000000007 25337.490000000002 34923.990000000013 26568.565000000006 33337.170000000006 21948.320000000003 20170.580000000005 28070.095000000005 18059.970000000005 31518.360000000004 28795.295000000002 34955.390000000007 29575.825000000001 -0.37940952255126015 33934.310000000005 26454.935000000001 32283.705000000005 33498.210000000006 19901.570000000003 32174.680000000004 28037.570000000003 23091.010000000006 500.33800000000002 22677.130000000005 32104.825000000004 23948.875000000004 27200.375000000004 27727.235000000004 27529.620000000006 23283.965000000004 23068.140000000003 29398.505000000001 35363.520000000011 31092.955000000005 35169.630000000012 33335.99500000001 25496.095000000005 24952.375000000004 27529.620000000006 25043.310000000005 30300.275000000005 22847.830000000005 10.956000000000001 20705.725000000002 31336.135000000006 454.20190000000008 39356.400000000009 31092.955000000005 28664.380000000005 29204.475000000002 30709.115000000002 29439.660000000003 37139.605000000003 30812.055000000004 29533.890000000003 29162.240000000002 32937.99500000001 32793.390000000007 25974.690000000006 20170.685000000001 41067.715000000004 34363.685000000005 26568.565000000006 26568.565000000006 23091.590000000004 32801.760000000009 22731.750000000004 24363.065000000006 29015.370000000003 34635.620000000003 30368.670000000002 24045.690000000006 28514.340000000004 27509.300000000003 37446.485000000008 31008.840000000004 29575.825000000001 30038.095000000005 28918.090000000004 32049.015000000003 28142.380000000005 25244.690000000006 35462.94000000001 38046.465000000004 0.60355339059327384 31166.120000000003 31798.040000000005 25677.815000000006 30376.405000000002 22838.255000000005 25351.910000000003 26917.100000000002 28569.475000000002 19901.570000000003 26638.960000000003 22606.265000000003 20705.725000000002 25921.250000000004 29084.405000000002 30288.935000000005 29486.250000000004 27575.690000000006 35521.485000000008 33644.625000000007 30220.010000000006 29987.015000000003 28513.145000000004 27200.375000000004 27910.785000000003 29349.300000000007 34369.150000000009 39356.400000000009 31516.955000000005 37753.615000000005 29083.635000000006 32422.315000000006 26526.690000000006 30731.275000000005 33173.785000000011 28981.160000000003 34153.770000000011 26895.635000000006 32221.875000000004 25924.575000000004 24952.375000000004 29675.490000000002 30564.535000000003 34239.180000000008 26255.765000000003 0.91597561503675351 29204.475000000002 31989.370000000006 25016.290000000005 28170.305000000004 36271.30000000001 27561.210000000003 27410.505000000005 28069.790000000005 34025.995000000003 29230.700000000001 27073.515000000003 0.98296291314453421 33780.470000000008 27797.570000000003 21414.090000000004 27988.865000000002 25554.475000000002 26603.645000000004 29710.295000000002 30761.100000000002 31773.590000000004 29622.030000000002 30013.580000000005 33750.835000000014 35086.92500000001 31537.995000000003 31979.885000000002 30858.215000000004 31744.990000000002 31564.615000000005 35878.455000000009 25858.545000000002 30287.830000000005 27579.300000000003 27688.060000000001 35698.920000000006 33498.360000000008 24499.060000000001 22176.840000000004 28681.785000000003 25709.140000000003 29573.005000000005 -0.79354221435844496 0.98296291314453421 28274.750000000004 31188.560000000005 27613.680000000004 30848.740000000002 33962.035000000011 26708.775000000005 26708.345000000005 25991.525000000005 0.043350000000000007 30539.365000000002 29670.845000000005 29942.495000000006 31798.510000000002 24662.650000000005 22021.085000000003 29942.495000000006 30588.985000000004
decision_type=2 2 2 2 2 2 2 2 2 2 2 2 2 2 2 2 2 2 2 2 2 2 2 2 2 2 2 2 2 2 2 2 2 2 2 2 2 2 2 2 2 2 2 2 2 2 2 2 2 2 2 2 2 2 2 2 2 2 2 2 2 2 2 2 2 2 2 2 2 2 2 2 2 2 2 2 2 2 2 2 2 2 2 2 2 2 2 2 2 2 2 2 2 2 2 2 2 2 2 2 2 2 2 2 2 2 2 2 2 2 2 2 2 2 2 2 2 2 2 2 2 2 2 2 2 2 2 2 2 2 2 2 2 2 2 2 2 2 2 2 2 2 2 2 2 2 2 2 2 2 2 2 2 2 2 2 2 2 2 2 2 2 2 2 2 2 2 2 2 2 2 2 2 2 2 2 2 2 2 2 2 2 2 2 2 2 2 2 2 2 2 2 2 2 2 2 2 2 2 2 2 2 2 2 2 2 2 2 2 2 2 2 2 2 2 2 2 2 2 2 2 2 2 2 2 2 2 2 2 2 2 2
left_child=2 5 6 11 13 8 14 23 15 31 22 19 24 21 49 26 66 18 64 41 50 45 83 46 44 39 51 34 67 37 87 76 59 90 54 55 62 52 43 57 73 71 77 75 139 65 125 -48 128 84 69 119 112 116 -13 120 80 97 74 133 135 177 -19 95 -9 110 167 -18 134 145 155 78 182 113 156 195 102 171 203 -31 153 122 107 -5 -1 106 124 -11 -27 132 180 111 186 154 -59 150 -41 216 197 -58 -70 -32 -6 166 194 205 198 108 -49 146 163 230 148 -23 -47 -88 217 -111 -99 160 169 -50 223 143 -33 222 127 -76 -29 164 -102 137 -52 -16 -34 -35 -84 -61 -79 -7 220 213 -113 -45 -75 190 -53 181 189 -74 -28 168 -117 -21 201 229 -22 -64 -98 -160 215 -77 -43 -3 -44 207 212 188 219 -26 -80 -36 -96 -56 -149 -145 225 -39 -150 -116 -30 -63 -17 -120 -136 -66 -20 -138 -12 -24 -10 -87 -97 -194 -68 -15 -122 -67 199 -37 -93 -78 -166 -4 -109 -72 -181 -73 -152 -159 -137 -82 -65 -71 -215 -2 -14 -46 -143 -115 -114 -201 -8 -38 -83 -92 -91 -106 -124 -25 231 -55
right_child=1 4 3 10 9 12 7 17 20 30 16 27 25 38 32 72 28 36 92 56 58 40 29 70 35 88 63 48 33 79 101 86 68 60 42 85 81 61 -40 96 -42 162 129 123 53 114 47 82 121 -51 89 109 -54 91 173 -57 99 94 -60 131 -62 147 157 103 185 98 104 -69 100 141 105 165 149 144 126 161 93 138 170 -81 211 224 136 -85 -86 191 115 -89 -90 226 176 200 -94 -95 172 192 158 118 -100 -101 130 -103 -104 -105 227 -107 -108 204 -110 117 -112 142 140 151 179 152 -118 -119 183 -121 196 -123 228 -125 -126 -127 -128 -129 -130 -131 -132 -133 -134 -135 184 210 187 -139 -140 -141 -142 218 -144 175 -146 -147 -148 174 178 -151 208 -153 -154 -155 -156 -157 -158 209 159 -161 -162 -163 -164 -165 202 -167 -168 -169 -170 -171 -172 -173 -174 -175 -176 -177 -178 -179 -180 206 -182 -183 -184 -185 -186 -187 -188 -189 -190 -191 -192 -193 193 -195 -196 -197 -198 -199 -200 221 -202 -203 -204 -205 -206 -207 -208 -209 -210 -211 -212 -213 -214 214 -216 -217 -218 -219 -220 -221 -222 -223 -224 -225 -226 -227 -228 -229 -230 -231 -232 -233
leaf_value=-1111.7024254947075 -48.96293658769801 399.00007194916134 -467.15698672789836 -201.76095172098911 772.22326068685652 253.1924111515093 -560.55070367077394 -245.9028725906837 128.91776013139483 961.43789655539115 -73.634632701751741 -18.538317869131973 288.33325267850586 586.75035780170629 -894.70722129316891 -75.901135754398865 -130.1469998835511 -610.66604642444247 -404.21979643473298 -361.62146642025345 225.23842805542259 565.58214552455217 -191.03888167906319 -581.2725288330048 274.12490009638066 483.74288946316119 42.207372520542151 -203.1012222341239 20.173254106390942 -265.91771785260056 1140.201450845422 794.13744361136116 -757.08402479389019 106.71482067695933 -353.40973883413608 187.71651744045153 -474.39088042846453 -102.38685589384266 806.70172437232736 485.78742701243164 714.6389815458823 -301.42521412582977 -260.12885473795689 650.29026046351237 181.30074963449692 561.00091413820917 -405.76377685392958 -708.29173668899853 16.002084180357393 -863.0995030104325 316.50809040749778 86.353869359971355 33.837522767827828 84.836671739900339 -236.1572456388522 492.0110994738717 -261.96877947133964 197.54342345257854 381.85753053439265 -741.38985747098309 303.7121032558681 11.283414957341023 -488.23310183587728 138.73035131242656 -79.660409149188652 321.08635459309056 -171.54281499963272 42.342935231012625 -665.29590511994638 110.42032788867579 -506.73856097954234 -403.06896762598689 -53.675652722169758 648.35393644854992 268.66860298242545 462.52392135585126 659.99826159326255 -299.28370987294193 -348.97040397224322 -148.6598296209346 -295.15845132975068 -355.95904833251893 -556.0275050276249 -335.5137841725259 -950.99049271126262 305.44455876580429 866.86368610899194 1091.6291868163003 601.88997502166728 117.60866419193526 109.73893870166678 252.27013899784316 -338.136851872546 821.37447791002728 265.68438344409776 98.065713157196484 366.27689343210915 316.92103307772112 425.13877407937883 -168.01453048749133 -495.4036207224824 1249.9840519584623 883.39303003834584 227.44405836691703 -77.310002179236903 -428.27283728601117 321.68954232016551 -582.84431460792257 -593.12834060900104 27.307490618910322 545.939196745917 256.05462217457847 -224.28701520280038 435.09003188305491 501.43410281426679 929.33544312905724 34.541508767666606 96.870526979796026 397.82464609548367 85.525048048682507 324.5892718787303 -105.78927629952068 -381.17540159308834 633.17255070719591 893.21068859542288 -671.6239561200357 243.04161617938649 353.38581546639108 -145.08014660371973 -164.83948683634759 -594.94289711938711 -797.309226620809 218.47172764222697 -786.53223404115499 -618.73583340456355 162.47193839040068 -524.54823509402263 -682.26996699928668 -229.81572219444629 342.64317553996392 -101.72678932280522 150.83309868103521 162.19847321572939 682.18438962218784 564.24057226928016 222.21530006434591 167.03998057970702 -13.01870279658297 -112.47558157133747 8.6616578854040593 122.51891520017419 543.35760651426915 1024.0917380420349 -308.32334195815895 764.4861077916471 -488.56038386552376 154.08637353090953 -458.02730088370117 390.84098571184978 442.34662698681808 14.039783701623415 551.79015028901188 -207.52221026654968 481.48700461324381 -250.71771863338932 -348.46235824135999 175.76919116001093 29.299013177739127 535.54110452749308 335.10229506496972 -409.4839812246463 -287.3031209348548 336.065734540118 -158.78496013057591 37.370866640327584 745.88103854231395 74.473184266225743 -54.380442382927185 -56.237187874983583 403.58409608157916 85.870406500194164 -53.30665586935956 -129.74633744576607 471.17579837719427 -703.30603535745308 -144.52866623022155 -489.84401698549573 -461.0497739736544 1.7648211212884157 -109.30899874650859 170.8523671530715 261.92563845441583 172.81395567408089 116.10376579006561 -102.10178760987679 666.87545404334855 392.78432056378301 376.12023971577338 249.03486436531139 280.6864725733696 189.32118910522001 729.33929478280152 -194.77113061652534 -411.30881030515252 -528.03198735495505 -458.00388008196882 482.06038210629231 -345.3711415054596 68.61829794870647 -393.18290790101975 224.93736768728991 -249.9829336254038 76.374379717022066 73.248078705883799 6.901745612655465 8.2358476729684575 346.60357182528719 105.75848499805328 89.122086479190784 487.17148704483128 -160.69557078890927 208.77156996008955 -613.93257519492079 -406.22876754304946 -294.86476568125096 176.2619478657794 187.64170390782229 -6.7474513039829107 -322.43145364720522 -525.70449732180168 178.84348295122777 157.48379540471353
leaf_weight=30 88 41 190 42 42 44 36 56 124 57 36 34 39 31 31 143 31 30 31 151 74 82 30 31 69 51 103 142 63 44 41 39 33 31 142 89 32 81 59 56 45 35 110 52 30 52 42 30 31 56 30 79 34 30 37 32 158 38 42 108 59 45 66 81 47 55 37 56 40 32 97 143 69 39 72 33 39 80 52 111 126 31 168 46 31 168 34 33 49 31 30 128 49 47 48 98 77 30 107 43 30 59 52 50 33 164 36 69 81 144 35 53 37 48 99 38 34 82 70 33 34 34 67 80 58 66 112 50 109 53 67 32 68 38 31 44 100 107 74 49 34 51 30 57 60 36 37 90 88 104 64 61 33 86 59 113 50 45 108 114 161 42 30 42 47 128 77 65 40 78 130 39 61 54 119 72 31 166 72 30 50 80 58 32 35 66 32 40 43 37 125 87 63 81 54 36 69 94 134 31 32 47 97 38 63 72 33 36 66 45 53 69 32 55 32 39 78 31 41 90 46 33 157 40 73 46 34 30 34 137 48 42
leaf_count=30 88 41 190 42 42 44 36 56 124 57 36 34 39 31 31 143 31 30 31 151 74 82 30 31 69 51 103 142 63 44 41 39 33 31 142 89 32 81 59 56 45 35 110 52 30 52 42 30 31 56 30 79 34 30 37 32 158 38 42 108 59 45 66 81 47 55 37 56 40 32 97 143 69 39 72 33 39 80 52 111 126 31 168 46 31 168 34 33 49 31 30 128 49 47 48 98 77 30 107 43 30 59 52 50 33 164 36 69 81 144 35 53 37 48 99 38 34 82 70 33 34 34 67 80 58 66 112 50 109 53 67 32 68 38 31 44 100 107 74 49 34 51 30 57 60 36 37 90 88 104 64 61 33 86 59 113 50 45 108 114 161 42 30 42 47 128 77 65 40 78 130 39 61 54 119 72 31 166 72 30 50 80 58 32 35 66 32 40 43 37 125 87 63 81 54 36 69 94 134 31 32 47 97 38 63 72 33 36 66 45 53 69 32 55 32 39 78 31 41 90 46 33 157 40 73 46 34 30 34 137 48 42
internal_value=0 334.16 -317.17 -177.314 655.79 195.123 -535.383 -472.328 104.413 906.813 -34.6105 -291.225 307.848 543.45 -743.679 51.3713 53.8194 -351.053 -255.631 -347.285 192.164 491.949 -92.877 -533.875 257.019 392.123 80.6858 -217.978 117.228 -78.7514 1112.28 826.81 -699.904 146.374 -245.521 291.042 -408.963 -62.0712 660.828 372.21 552.655 -392.875 -265.375 639.466 203.916 443.938 -569.292 -546.606 -151.126 -950.181 150.005 39.1772 -110.38 184.336 -143.546 350.849 -290.962 332.019 261.62 -747.533 215.505 -30.6407 -477.7 119.175 -160.085 412.301 -51.2946 -19.1213 -636.122 129.988 -484.727 -405.092 -56.6378 535.295 247.511 567.889 776.606 -305.494 -428.713 -181.95 -313.801 -362.803 -557.339 -271.686 -1030.08 261.861 897.878 1009.21 541.651 210.913 87.6111 205.325 -399.795 748.618 277.286 98.1496 417.041 364.327 384.793 -241.872 -593.712 1205.01 833.747 160.787 -94.9027 -457.566 239.17 -587.571 -624.272 72.7456 471.967 178.24 -124.635 516.137 499.223 938.94 104.133 52.5481 397.237 3.41232 332.775 -47.7061 -392.686 678.402 853.403 -621.228 274.512 303.397 -177.907 -221.593 -564.174 -723.042 248.492 -835.169 -694.792 174.84 -533.482 -711.977 -265.908 300.332 -163.678 90.6656 222.138 698.382 597.395 159.099 112.094 -1.44125 -104.509 -16.2017 71.7505 499.166 973.418 -342.285 725.019 -516.909 196.552 -452.118 404.161 417.295 -5.99721 512.533 -258.097 440.756 -233.433 -373.542 143.243 -4.65719 484.013 306.486 -392.2 -339.171 305.08 -190.251 15.6721 717.752 128.127 -70.1245 -87.1698 479.384 49.2443 -30.0545 -91.4402 420.85 -663.613 -117.551 -447.732 -506.416 -32.5959 -145.911 149.971 290.6 123.566 140.918 -130.341 629.83 370.283 355.812 228.816 211.104 239.684 697.918 -213.036 -457.854 -556.696 -485.984 444.711 -391.471 95.1562 -425.619 196.608 -279.177 121.074 65.4061 48.8459 -31.3982 327.188 142.917 123.335 469.066 -189.051 243.617 -603.984 -436.541 -313.085 150.008 154.248 -43.7107 -361.41 -535.968 147.873 127.219
internal_weight=0 7266 7371 4492 2193 5073 2879 2210 2811 678 1994 2498 2262 1515 669 1752 792 744 281 1415 1059 1053 1202 1466 1411 851 1378 1083 494 1114 190 488 552 407 767 860 463 959 462 751 465 782 642 403 551 588 852 593 316 117 659 663 378 458 125 282 633 396 400 316 187 581 186 715 169 374 298 87 236 496 614 717 374 420 358 142 286 335 410 155 432 277 551 88 61 578 202 90 100 163 220 363 112 192 147 475 355 249 256 201 137 100 94 240 154 333 323 243 111 342 118 203 344 321 214 105 95 226 132 321 250 65 173 261 97 259 234 122 251 307 97 247 98 69 99 128 308 215 154 93 117 211 83 181 99 285 116 334 227 173 233 239 71 237 145 281 124 156 299 222 288 75 65 83 254 307 190 144 178 147 182 181 109 91 209 129 107 247 160 162 113 125 201 102 66 113 63 140 79 67 249 255 242 144 91 67 103 149 287 153 160 86 144 228 132 169 63 179 130 90 97 195 113 119 87 127 117 61 92 138 83 64 193 72 104 76 65 63 101 168 120 72
internal_count=14637 7266 7371 4492 2193 5073 2879 2210 2811 678 1994 2498 2262 1515 669 1752 792 744 281 1415 1059 1053 1202 1466 1411 851 1378 1083 494 1114 190 488 552 407 767 860 463 959 462 751 465 782 642 403 551 588 852 593 316 117 659 663 378 458 125 282 633 396 400 316 187 581 186 715 169 374 298 87 236 496 614 717 374 420 358 142 286 335 410 155 432 277 551 88 61 578 202 90 100 163 220 363 112 192 147 475 355 249 256 201 137 100 94 240 154 333 323 243 111 342 118 203 344 321 214 105 95 226 132 321 250 65 173 261 97 259 234 122 251 307 97 247 98 69 99 128 308 215 154 93 117 211 83 181 99 285 116 334 227 173 233 239 71 237 145 281 124 156 299 222 288 75 65 83 254 307 190 144 178 147 182 181 109 91 209 129 107 247 160 162 113 125 201 102 66 113 63 140 79 67 249 255 242 144 91 67 103 149 287 153 160 86 144 228 132 169 63 179 130 90 97 195 113 119 87 127 117 61 92 138 83 64 193 72 104 76 65 63 101 168 120 72
is_linear=0
shrinkage=0.1


Tree=2
num_leaves=233
num_cat=0
split_feature=17 17 17 184 17 184 17 17 183 40 17 40 139 40 17 184 17 13 17 13 138 17 183 184 17 40 17 184 43 17 17 184 182 114 183 34 39 39 19 40 17 17 157 39 39 159 183 40 38 17 139 33 136 34 43 147 87 17 110 40 40 20 141 183 17 158 17 90 40 161 38 110 1 17 167 40 42 160 17 19 169 13 115 176 88 90 40 31 42 88 39 17 40 17 17 17 17 129 17 17 176 17 183 140 17 159 41 38 40 183 19 38 183 144 169 17 17 163 17 175 17 183 183 182 178 93 88 26 184 139 39 17 41 17 13 158 12 35 17 39 41 39 39 29 17 17 13 40 113 40 88 40 17 40 41 135 41 32 25 65 64 17 55 39 113 17 90 118 17 40 17 17 25 159 183 173 45 40 40 177 110 17 13 115 17 17 159 51 38 39 40 180 13 11 40 22 89 160 88 17 17 135 40 17 42 183 35 89 29 22 17 17 33 146 13 90 32 13 29 183 160 64 109 40 184 136 29 160 5 12 61 20
split_gain=1.25759e+11 2.77396e+10 1.68564e+10 5.72419e+09 5.22221e+09 4.66182e+09 2.79052e+09 1.21788e+09 1.14992e+09 1.08808e+09 8.47266e+08 8.33959e+08 7.5463e+08 5.60484e+08 4.89699e+08 4.2479e+08 3.53877e+08 3.37952e+08 3.12931e+08 3.0211e+08 2.99089e+08 2.84306e+08 2.5155e+08 2.32035e+08 2.2039e+08 1.82316e+08 1.75331e+08 1.63063e+08 1.56497e+08 1.49227e+08 1.48397e+08 1.38855e+08 1.387e+08 1.35801e+08 1.33054e+08 1.2644e+08 1.15882e+08 1.09948e+08 1.09345e+08 1.07201e+08 1.02907e+08 1.0118e+08 9.02927e+07 8.52561e+07 8.36979e+07 8.23919e+07 8.11917e+07 7.90508e+07 7.87784e+07 7.53326e+07 7.35391e+07 7.04056e+07 6.77716e+07 6.74946e+07 6.55019e+07 6.2936e+07 6.11459e+07 6.0094e+07 5.40565e+07 5.27666e+07 5.22213e+07 5.21152e+07 5.03969e+07 5.02687e+07 4.97771e+07 4.95754e+07 4.72641e+07 4.61078e+07 4.59233e+07 4.49764e+07 4.42846e+07 4.39706e+07 4.24608e+07 4.1559e+07 4.03031e+07 3.93175e+07 3.86163e+07 3.85712e+07 3.7913e+07 3.77541e+07 3.86168e+07 3.72613e+07 3.40622e+07 3.32102e+07 3.10652e+07 3.1041e+07 3.10344e+07 3.07609e+07 3.07167e+07 2.98599e+07 2.95763e+07 2.90138e+07 2.84927e+07 2.84378e+07 2.84377e+07 2.73077e+07 2.69041e+07 2.65479e+07 2.57345e+07 2.56378e+07 2.53208e+07 2.51493e+07 2.48839e+07 2.48439e+07 2.48348e+07 2.46358e+07 2.38856e+07 2.37818e+07 2.36811e+07 2.36137e+07 2.35807e+07 2.31392e+07 2.282e+07 2.49024e+07 2.22716e+07 2.21301e+07 2.18684e+07 2.10898e+07 2.07312e+07 2.07046e+07 2.04986e+07 2.0334e+07 2.01798e+07 1.97283e+07 1.97247e+07 1.95649e+07 1.95004e+07 1.9243e+07 1.87769e+07 1.76974e+07 1.71777e+07 1.70457e+07 1.70124e+07 1.61875e+07 1.59761e+07 1.5713e+07 1.52854e+07 1.52801e+07 1.52395e+07 1.50215e+07 1.48088e+07 1.47469e+07 1.46847e+07 1.44722e+07 1.43233e+07 1.42323e+07 1.41183e+07 1.40419e+07 1.39555e+07 1.36714e+07 1.35494e+07 1.84104e+07 1.34445e+07 1.34263e+07 1.4605e+07 1.3329e+07 1.32923e+07 1.32731e+07 1.42032e+07 1.31688e+07 1.31679e+07 1.31239e+07 1.29548e+07 1.28098e+07 1.52287e+07 1.27673e+07 1.24943e+07 1.24519e+07 1.22444e+07 1.21396e+07 1.21281e+07 1.2119e+07 1.20816e+07 1.20701e+07 1.20667e+07 1.20544e+07 1.18857e+07 1.17331e+07 1.17178e+07 1.16912e+07 2.14498e+07 1.15959e+07 1.15743e+07 1.15299e+07 1.15103e+07 1.1172e+07 1.08717e+07 1.07166e+07 1.06737e+07 1.05401e+07 1.0531e+07 1.04875e+07 1.04043e+07 1.03525e+07 1.02942e+07 1.03974e+07 1.01944e+07 1.0092e+07 1.00117e+07 9.83396e+06 9.79276e+06 9.5213e+06 9.49206e+06 9.37346e+06 9.21955e+06 9.15204e+06 9.12153e+06 9.11419e+06 9.03986e+06 8.79058e+06 8.76117e+06 8.62776e+06 8.40864e+06 8.39144e+06 8.36896e+06 8.35967e+06 8.29387e+06 9.90617e+06 8.14913e+06 8.0579e+06 7.95865e+06 7.95686e+06 7.88002e+06 7.74261e+06 7.65608e+06 7.32014e+06 7.31157e+06 7.11579e+06 6.86582e+06 6.79579e+06 7.62747e+06 6.72594e+06
threshold=28320.895000000004 33184.345000000008 23862.860000000004 26586.070000000003 36100.955000000009 29953.305000000004 21280.945000000003 38770.620000000003 24316.085000000003 31979.885000000002 29989.120000000006 25304.785000000003 26289.040000000005 34369.150000000009 19032.490000000005 28476.670000000002 30761.100000000002 0.91597561503675351 25991.525000000005 -0.37940952255126015 23952.690000000006 25682.900000000005 34059.710000000006 39916.020000000011 31398.550000000003 37414.360000000008 26195.530000000002 34292.975000000013 27467.105000000003 22342.135000000006 31801.990000000002 28236.740000000002 23068.275000000005 24273.680000000004 23438.960000000003 36470.310000000005 33755.680000000008 27308.235000000004 25131.040000000005 28887.395 29533.890000000003 22483.310000000001 37623.070000000014 30228.280000000002 32431.670000000002 34968.265000000007 24792.325000000001 27195.620000000006 23405.010000000006 34635.620000000003 31541.720000000005 35696.040000000008 33049.80000000001 22731.750000000004 28168.710000000003 27289.390000000003 24499.445000000003 34514.745000000003 27240.160000000003 30995.355000000003 27910.785000000003 27742.950000000001 24559.315000000006 26014.165000000005 19901.570000000003 30352.200000000004 26255.765000000003 29611.545000000002 27741.705000000005 23843.495000000006 27254.645000000004 33390.680000000008 24.475500000000004 22176.840000000004 29726.470000000005 33088.94000000001 27254.010000000006 27883.570000000003 27469.500000000004 22848.755000000001 24926.915000000005 0.91597561503675351 29741.130000000005 27767.125000000004 28785.615000000002 36885.665000000008 30758.520000000004 28321.165000000005 34498.950000000004 31558.285000000003 25191.810000000001 22541.460000000003 30086.705000000005 20362.300000000003 30903.750000000004 29122.140000000003 24952.375000000004 34085.255000000012 26769.375000000004 29350.975000000002 23513.575000000004 41463.010000000002 33026.015000000007 28297.665000000005 34769.685000000005 32000.240000000002 30186.335000000003 24818.645000000004 28274.750000000004 36163.890000000007 39385.420000000006 38347.335000000006 21939.035000000007 31015.515000000003 31470.525000000005 26319.800000000007 30903.750000000004 25587.960000000003 23154.325000000004 34060.820000000007 21673.215000000004 33876.180000000008 21488.340000000004 33282.235000000008 30868.660000000007 22331.945000000003 31266.920000000002 24232.265000000003 25817.480000000007 25288.680000000004 30471.830000000005 24575.845000000005 33754.835000000006 24822.715000000004 -0.98296291314453399 29730.795000000002 0.030119189164198128 25990.835000000003 30659.630000000005 30995.565000000002 31336.135000000006 22176.840000000004 30135.765000000003 29397.850000000002 20362.300000000003 25016.290000000005 0.98296291314453421 33255.710000000006 31432.720000000005 36905.125000000007 30275.920000000002 29713.015000000003 27139.240000000002 30228.000000000004 30613.925000000007 31253.830000000005 23673.810000000001 30472.975000000002 26895.635000000006 35351.630000000012 27351.045000000002 32377.635000000006 27971.315000000006 30995.565000000002 29146.000000000004 28929.735000000004 35855.660000000011 27450.015000000003 27469.500000000004 32730.810000000005 24886.650000000005 27257.150000000005 22784.515000000003 26672.865000000002 28237.805000000004 28188.220000000005 26313.475000000002 33007.805000000008 29670.845000000005 23135.125000000004 31314.635000000006 26895.635000000006 0.98296291314453421 27726.725000000002 27469.500000000004 29762.445000000003 32259.825000000001 28220.765000000003 23153.150000000005 25244.690000000006 35507.210000000006 28287.640000000003 0.98296291314453421 -0.22252093395631442 30135.280000000002 29623.900000000005 31172.745000000006 37300.825000000004 33835.210000000014 23154.325000000004 26568.565000000006 27886.260000000006 35353.935000000005 31518.360000000004 25920.645000000004 22658.900000000005 23285.775000000005 32708.970000000005 34375.05000000001 25131.040000000005 30903.750000000004 22971.670000000002 31235.875000000004 23952.690000000006 -0.12940952255126037 35169.630000000012 30088.395000000004 -0.37940952255126015 28514.340000000004 26792.745000000006 30109.865000000002 31180.205000000005 33390.680000000008 31625.290000000005 28619.300000000003 28543.510000000006 34623.615000000013 27170.970000000005 1.0000000180025095e-35 -0.26781430516217447 29080.715000000004 27257.150000000005
decision_type=2 2 2 2 2 2 2 2 2 2 2 2 2 2 2 2 2 2 2 2 2 2 2 2 2 2 2 2 2 2 2 2 2 2 2 2 2 2 2 2 2 2 2 2 2 2 2 2 2 2 2 2 2 2 2 2 2 2 2 2 2 2 2 2 2 2 2 2 2 2 2 2 2 2 2 2 2 2 2 2 2 2 2 2 2 2 2 2 2 2 2 2 2 2 2 2 2 2 2 2 2 2 2 2 2 2 2 2 2 2 2 2 2 2 2 2 2 2 2 2 2 2 2 2 2 2 2 2 2 2 2 2 2 2 2 2 2 2 2 2 2 2 2 2 2 2 2 2 2 2 2 2 2 2 2 2 2 2 2 2 2 2 2 2 2 2 2 2 2 2 2 2 2 2 2 2 2 2 2 2 2 2 2 2 2 2 2 2 2 2 2 2 2 2 2 2 2 2 2 2 2 2 2 2 2 2 2 2 2 2 2 2 2 2 2 2 2 2 2 2 2 2 2 2 2 2 2 2 2 2 2 2
left_child=2 5 6 11 13 10 14 25 29 16 17 21 15 27 53 68 38 39 70 20 73 34 30 72 43 45 33 57 52 79 50 60 64 47 96 49 55 90 71 76 130 74 78 81 83 114 133 -13 112 82 102 147 126 69 104 87 115 61 117 89 100 -3 -39 131 136 107 145 92 77 -1 188 124 197 -10 173 105 84 -5 179 80 -8 134 209 161 225 111 106 152 143 153 181 -22 -41 -60 -53 192 137 -25 -58 139 227 -99 185 177 -29 216 155 -43 -78 -87 -74 -27 113 141 193 182 187 205 176 -38 -82 166 -81 -54 204 -95 196 -72 142 144 165 191 -77 -35 -12 -105 -16 231 226 224 213 -31 170 -47 -66 -57 -97 -24 223 -90 151 -68 -17 154 -30 -42 211 158 -59 -84 -135 -26 194 164 -62 -40 -51 -136 -92 -137 -48 -64 -93 -21 -70 -107 -50 -32 -108 -33 -181 -28 -23 -45 -102 -11 -147 -52 -14 -109 -116 -36 -19 -6 195 -80 -18 -9 207 -114 -176 -85 -123 -128 -7 -34 -98 -56 -133 -15 -169 -75 -187 -88 -65 -204 217 -63 -161 -130 -118 -101 -149 -61 -69 -2 -83 -20 -67 -120 -231 -4
right_child=1 4 3 12 7 9 8 23 19 22 24 26 18 35 32 36 28 95 31 41 91 56 51 97 44 85 37 54 59 48 103 42 58 46 63 -37 119 62 40 67 86 65 -44 183 -46 88 128 -49 118 121 116 94 123 -55 198 66 98 157 93 148 163 75 171 214 129 228 150 99 174 -71 127 -73 110 156 -76 132 108 -79 162 122 120 138 159 201 -86 109 140 -89 149 -91 168 172 -94 125 -96 146 206 101 -100 221 184 -103 -104 135 -106 175 178 189 -110 -111 -112 -113 199 -115 190 -117 220 -119 229 -121 -122 202 -124 -125 -126 -127 203 -129 219 -131 -132 208 -134 160 167 169 -138 -139 -140 -141 -142 -143 -144 -145 -146 186 -148 222 -150 -151 -152 -153 -154 -155 -156 -157 -158 -159 -160 218 -162 -163 -164 -165 -166 -167 -168 210 -170 -171 -172 -173 -174 -175 200 -177 -178 -179 -180 180 -182 -183 -184 -185 -186 212 -188 -189 -190 -191 -192 -193 -194 -195 -196 -197 -198 -199 -200 -201 -202 -203 215 -205 -206 -207 -208 -209 -210 -211 -212 -213 -214 -215 -216 -217 -218 -219 -220 -221 -222 -223 -224 -225 -226 -227 -228 -229 -230 230 -232 -233
leaf_value=-1001.7647478238171 -10.842636859973727 483.21896903674883 -451.88092019894196 -118.63973495216975 615.23268385895699 206.48132466738136 -399.53459397589495 782.06876464306174 -260.47163929310136 221.96354606575994 52.112931887916957 -204.36681547384995 -330.77612250695182 513.29000474240581 -806.25287901704223 -80.025248642747314 271.45689611061181 -82.625685067445005 -133.31935300581509 -456.40104242997842 -431.74167019447998 -290.03604576029988 350.75369640744304 1000.0395438610585 205.37938950273812 781.34742460494738 -259.65794757375909 521.65854663769971 196.8548028052719 -523.40299637663873 349.21652414654221 -38.360240991690247 -633.73950997567829 -341.26025612642343 -399.64594305634921 696.44153944310176 165.2885431139008 -4.0889131379772969 15.479181759401541 81.640156086700671 152.14851059242594 -446.82796099818006 141.67158758734715 224.12720328665947 365.10988925289757 715.1023562756335 -303.84184207606802 -30.847766019328159 -429.85975165862311 559.45786775249269 125.71719918986366 440.71536598960677 336.78817708490044 -767.08959375126699 457.80061696561273 5.2488043870749355 -237.97586609960041 516.14851779375033 -596.55738725484741 247.34051518049762 -51.495532763234692 383.16356544689381 -157.11104945496996 -211.90209864170944 -685.44406581404587 -326.56523865565492 78.634351652701326 -12.852269099005817 -60.890857276092234 -837.43273461491754 -224.91255937794995 327.20950859937602 890.34714092978538 -145.38383110753159 -550.79275362901524 450.17066293974943 -35.993212766438504 -7.9831378393173908 -40.432702220852491 -587.56603917413929 -555.67991774750851 47.543137422760552 492.28402725838436 105.33319032120424 110.68521151946129 663.65460194948025 186.22427793488396 74.411441756997803 649.47915279208837 270.33736329979467 -192.42170216473798 -376.90090724929712 157.34127449566725 -442.27835432811929 569.94780833493098 -19.3643167843592 -383.44643462348256 1049.6669342046082 -143.17171934728862 58.652203709432968 -198.89740137572102 1166.5762402244061 354.45070605256365 297.13806279564045 639.34081428304853 414.48463054912577 56.62221543170763 -389.31092299997835 15.452226189915979 770.69369173804159 1003.5286414658478 875.43782938071365 -490.74085670417719 -602.22077260439414 542.18091454131672 -253.1526425748068 206.2064009404981 -703.84158478370546 -433.29938184994273 278.53451108642503 -490.67018299696133 537.23488881727064 -532.96049155050366 440.8824617972063 236.36346066529569 -538.10006458162673 271.13730368362678 -123.14140862418731 -221.12882238392262 -728.13937385855195 122.58295854702865 -330.25965981011234 378.76040334053005 -315.39461780506349 153.27453282769096 315.21370140121923 -706.34985302016105 -375.49556369165248 84.444874269455738 68.158297636484789 135.63074019332075 -457.64643171313531 -206.91526051129199 798.17980443451688 -626.52958485945885 52.756880532798746 -78.387407602288405 443.44135410009335 219.77583222993576 722.67995236378601 179.58112335178481 158.11892247915381 8.7128924963113299 194.36672270180443 118.23284467679078 216.74687663491193 -182.7213643233884 388.8273112345978 439.1947420274247 404.42496024725767 -255.30821538921361 275.94074794502711 -73.933655934772588 -36.886403268950303 -107.58528455450674 80.544092287231635 486.74845885367608 92.578083259059198 -143.11288888503591 368.72381169795204 -245.35022983215208 -94.448399225736168 -296.42118011481818 -389.00837678936477 -17.433186492430803 347.50324332226455 -477.88895840412846 405.34493962919328 127.99274639893545 -153.59264792559128 -48.690841263321204 -210.92115383417914 -354.56022814735007 155.9177418459453 -140.25404154368076 273.06589709732174 125.53655194139492 206.66920083131191 -252.46301630670206 -342.71372932905973 617.93306224491334 -342.37528102511823 -134.91690117309452 678.75100058714088 38.326737023276053 19.401449744671353 211.6531783392945 862.30942958290655 485.96852435462455 -450.48641495932571 47.19015094152676 178.65816563892349 623.16454843582403 330.23023085864793 133.50187484434252 -564.63004794496442 -334.52119149006069 388.72691383314077 -285.2858597251971 586.29816274440861 142.10517557240709 -81.16930264845503 327.97492356149246 233.88765324846727 -275.30469887604357 572.96932528933769 287.96827985784688 320.72096076124672 468.79480930876036 -163.3909287684337 270.34830924161975 107.80425484870032 385.62836386946145 286.28354148236429 33.812038775232956 48.29426821361195 -6.1245036259046799 -81.032270360035298 -268.76313264873733 -403.06235298417891 -342.49366996675207 -414.1617956851353
leaf_weight=34 50 40 69 126 58 30 31 31 30 30 46 97 33 36 32 31 85 135 46 56 44 87 57 30 92 86 76 45 39 109 68 36 47 106 49 51 35 37 50 185 177 40 30 30 34 48 60 36 135 61 36 31 37 50 46 41 61 31 58 166 74 33 90 34 61 32 62 87 43 33 41 35 49 36 33 57 182 42 76 128 88 60 73 37 54 32 75 46 80 41 158 32 68 31 38 105 83 35 54 80 66 40 56 97 30 56 33 84 176 59 30 38 133 30 46 140 36 30 41 30 109 30 145 36 82 69 43 34 70 30 53 162 81 87 67 71 30 83 73 53 33 50 51 38 131 65 66 46 142 38 47 55 38 197 60 39 33 37 108 44 63 37 30 63 140 76 39 160 74 106 87 47 45 51 81 52 84 83 76 44 35 137 41 143 68 93 30 30 37 116 31 93 53 47 45 47 43 33 51 113 33 34 72 72 41 33 71 33 62 31 46 50 40 73 54 63 51 112 36 37 42 56 49 74 59 36 44 60 58 69 30 154
leaf_count=34 50 40 69 126 58 30 31 31 30 30 46 97 33 36 32 31 85 135 46 56 44 87 57 30 92 86 76 45 39 109 68 36 47 106 49 51 35 37 50 185 177 40 30 30 34 48 60 36 135 61 36 31 37 50 46 41 61 31 58 166 74 33 90 34 61 32 62 87 43 33 41 35 49 36 33 57 182 42 76 128 88 60 73 37 54 32 75 46 80 41 158 32 68 31 38 105 83 35 54 80 66 40 56 97 30 56 33 84 176 59 30 38 133 30 46 140 36 30 41 30 109 30 145 36 82 69 43 34 70 30 53 162 81 87 67 71 30 83 73 53 33 50 51 38 131 65 66 46 142 38 47 55 38 197 60 39 33 37 108 44 63 37 30 63 140 76 39 160 74 106 87 47 45 51 81 52 84 83 76 44 35 137 41 143 68 93 30 30 37 116 31 93 53 47 45 47 43 33 51 113 33 34 72 72 41 33 71 33 62 31 46 50 40 73 54 63 51 112 36 37 42 56 49 74 59 36 44 60 58 69 30 154
internal_value=0 290.972 -295.472 -175.159 585.037 165.415 -492.137 780.69 -433.889 249.837 60.5332 -269.927 -38.5031 466.302 -669.316 33.6429 205.423 13.0466 -96.2916 -334.444 -250.138 -326.802 333.823 967.149 136.522 703.744 -213.745 416.415 244.976 -490.714 307.378 -73.3784 -629.918 -248.257 -357.11 546.62 93.4164 -175.05 158.53 40.8518 139.988 -382.874 -24.046 107.303 220.055 662.619 -269.796 -157.401 -463.742 530.861 260.417 428.111 303.633 -855.17 494.302 73.9698 -254.471 392.147 -578.292 219.195 -106.107 373.877 -107.648 -318.698 -678.629 -352.644 98.0805 69.7657 -54.6379 -920.866 -232.186 226.086 884.203 -155.287 -454.12 363.979 6.71214 -90.9762 -39.9307 -533.457 -503.383 86.2196 487.58 195.391 51.2411 777.569 163.041 11.0714 706.286 190.348 -201.404 -366.931 101.988 -540.778 511.908 -71.0658 -395.019 1080.08 -193.464 45.4298 -140.251 1112.06 296.917 347.486 568.755 343.872 144.556 -376.385 -10.7017 733.076 933.363 810.202 -492.366 -518.535 613.662 -280.647 204.901 -632.16 -429.053 217.566 -519.718 566.787 -558.569 388.138 202.947 -508.409 278.242 -178.783 -234.937 -656.467 74.8192 -335.017 408.265 -311.325 106.636 329.523 -757.949 -412.187 49.4227 22.5595 196.229 -502.734 -253.183 751.837 -645.257 54.4917 -42.1461 390.062 244.642 673.07 134.226 116.002 -31.1567 179.265 149.21 163.815 -128.764 442.176 456.368 461.508 -290.164 225.624 -13.4063 -76.5228 -88.1907 54.7257 531.116 115.822 -176.696 347.265 -269.23 -135.616 -329.88 -424.291 -15.7526 382.245 -448.288 380.076 106.387 -85.5972 -107.121 -228.314 -310.712 167.75 -169.142 277.145 75.7431 162.521 -289.394 -362.29 572.701 -362.146 -97.3692 643.683 -2.59676 -17.5693 251.372 823.481 451.337 -472.256 1.27431 140.453 588.396 308.142 164.346 -605.254 -360.897 428.963 -317.815 547.094 103.639 -108.054 289.587 209.738 -250.816 599.753 322.722 334.94 433.408 -201.168 240.753 78.8932 413.635 259.351 6.00553 13.9132 24.8381 -103.726 -289.325 -398.955 -384.719 -425.839
internal_weight=0 7513 7124 4420 2248 5265 2704 849 2035 2917 2348 2610 1810 1399 669 805 1908 1445 1005 740 270 1297 1009 248 903 601 1313 863 1035 1295 788 860 552 694 914 536 480 619 873 1086 685 470 343 669 234 386 561 133 794 485 363 221 316 117 205 415 383 658 268 719 517 482 174 454 284 330 300 588 325 67 145 188 143 149 140 442 498 168 313 501 228 496 220 200 140 215 506 115 204 337 445 121 253 158 69 359 460 105 115 335 240 75 219 425 75 304 325 240 358 91 79 124 435 189 182 268 144 110 359 65 197 265 273 73 153 100 243 75 305 222 179 366 138 256 319 274 62 306 177 199 181 159 198 86 192 136 171 152 382 118 164 117 69 296 99 216 119 176 139 153 150 129 198 277 214 126 100 273 232 177 147 137 77 107 157 108 219 151 109 115 79 213 128 173 134 163 95 66 70 200 77 142 188 105 168 123 128 64 130 246 114 71 165 115 71 80 154 79 224 67 206 86 133 148 88 135 196 145 80 107 78 136 95 240 146 86 104 106 90 140 99 223
internal_count=14637 7513 7124 4420 2248 5265 2704 849 2035 2917 2348 2610 1810 1399 669 805 1908 1445 1005 740 270 1297 1009 248 903 601 1313 863 1035 1295 788 860 552 694 914 536 480 619 873 1086 685 470 343 669 234 386 561 133 794 485 363 221 316 117 205 415 383 658 268 719 517 482 174 454 284 330 300 588 325 67 145 188 143 149 140 442 498 168 313 501 228 496 220 200 140 215 506 115 204 337 445 121 253 158 69 359 460 105 115 335 240 75 219 425 75 304 325 240 358 91 79 124 435 189 182 268 144 110 359 65 197 265 273 73 153 100 243 75 305 222 179 366 138 256 319 274 62 306 177 199 181 159 198 86 192 136 171 152 382 118 164 117 69 296 99 216 119 176 139 153 150 129 198 277 214 126 100 273 232 177 147 137 77 107 157 108 219 151 109 115 79 213 128 173 134 163 95 66 70 200 77 142 188 105 168 123 128 64 130 246 114 71 165 115 71 80 154 79 224 67 206 86 133 148 88 135 196 145 80 107 78 136 95 240 146 86 104 106 90 140 99 223
is_linear=0
shrinkage=0.1


Tree=3
num_leaves=233
num_cat=0
split_feature=17 17 17 184 184 17 17 183 17 40 17 40 3 17 40 13 13 137 184 17 17 17 40 183 177 34 40 17 17 17 13 184 40 13 139 183 17 17 33 19 88 20 183 112 17 139 163 114 17 161 17 159 184 37 163 17 160 63 17 180 88 173 17 40 90 40 183 62 40 17 30 40 66 17 183 135 40 13 23 156 139 184 178 92 153 17 13 53 17 17 43 49 184 2 160 17 172 41 12 3 65 17 17 29 17 55 13 25 17 13 13 140 17 17 17 164 54 40 37 40 40 25 17 17 17 40 17 65 88 40 17 88 72 17 40 32 145 40 151 165 114 161 13 40 40 17 166 43 36 135 43 42 40 138 42 42 90 13 40 160 40 178 141 63 17 17 41 24 36 167 40 42 17 17 176 184 17 81 177 23 41 41 40 40 44 184 38 142 13 135 54 184 140 17 135 181 17 184 101 65 42 40 22 179 40 138 17 17 90 152 13 17 53 136 1 159 17 25 17 161 29 41 184 161 177 48 49 7 160 41 17 33
split_gain=1.01894e+11 2.0228e+10 1.60791e+10 4.02941e+09 3.53094e+09 3.44724e+09 3.27466e+09 1.38837e+09 8.87018e+08 7.55697e+08 7.27861e+08 7.1157e+08 6.49686e+08 6.37769e+08 4.5859e+08 3.5815e+08 3.50785e+08 3.32616e+08 2.42084e+08 2.30618e+08 2.24075e+08 1.98672e+08 1.91325e+08 1.85914e+08 1.72474e+08 1.61923e+08 1.60019e+08 1.55041e+08 1.40709e+08 1.3731e+08 1.20786e+08 1.20505e+08 1.13481e+08 1.05996e+08 1.02845e+08 1.02449e+08 9.75181e+07 9.65551e+07 9.61372e+07 8.74756e+07 8.65774e+07 8.44035e+07 7.62265e+07 7.53823e+07 7.30678e+07 6.97335e+07 6.93067e+07 6.84683e+07 6.77099e+07 6.49898e+07 6.43566e+07 6.3805e+07 6.09255e+07 6.06986e+07 5.85897e+07 5.85308e+07 5.59111e+07 5.52834e+07 5.22407e+07 4.93101e+07 4.88426e+07 4.5956e+07 4.56711e+07 4.56408e+07 4.16537e+07 4.03184e+07 4.00482e+07 3.91816e+07 3.85475e+07 3.73659e+07 3.66561e+07 3.6224e+07 3.53108e+07 3.49197e+07 3.37695e+07 3.29181e+07 3.27564e+07 3.14061e+07 4.39871e+07 3.05004e+07 2.9949e+07 2.95872e+07 2.90661e+07 2.85502e+07 2.84376e+07 2.7547e+07 2.73697e+07 2.70244e+07 2.6652e+07 2.62918e+07 2.52093e+07 2.51693e+07 2.51419e+07 2.38203e+07 2.35443e+07 2.32834e+07 2.26131e+07 2.23897e+07 2.23403e+07 2.23337e+07 2.20592e+07 2.15327e+07 2.12385e+07 2.11233e+07 2.10557e+07 2.10349e+07 2.03191e+07 2.18001e+07 1.97439e+07 1.96494e+07 1.94836e+07 1.94627e+07 1.91716e+07 1.87786e+07 1.77908e+07 1.76306e+07 1.75464e+07 1.68077e+07 1.66531e+07 1.63362e+07 1.62637e+07 1.61307e+07 1.60597e+07 1.56941e+07 1.55564e+07 1.54831e+07 1.51771e+07 1.5153e+07 1.49592e+07 1.4503e+07 1.43868e+07 1.43609e+07 1.42999e+07 1.42822e+07 1.42656e+07 1.42338e+07 1.41033e+07 1.3939e+07 1.32401e+07 1.29921e+07 1.28436e+07 1.2817e+07 1.25203e+07 1.21798e+07 1.21286e+07 1.20876e+07 1.20036e+07 1.19475e+07 1.19156e+07 1.14764e+07 1.10513e+07 1.09042e+07 1.58801e+07 1.08104e+07 1.06962e+07 1.05901e+07 1.04144e+07 1.0397e+07 1.03899e+07 1.03471e+07 1.03214e+07 9.95604e+06 9.78237e+06 9.66568e+06 9.61801e+06 9.53114e+06 9.49143e+06 9.48413e+06 9.45144e+06 9.22026e+06 9.20697e+06 9.18405e+06 9.06453e+06 9.01797e+06 9.01418e+06 8.86372e+06 8.76077e+06 8.67188e+06 8.6331e+06 8.60497e+06 8.53971e+06 8.50544e+06 8.45755e+06 8.37532e+06 8.39106e+06 8.37024e+06 8.3563e+06 8.17804e+06 8.13031e+06 8.03387e+06 7.77554e+06 7.77237e+06 7.74164e+06 7.65673e+06 7.57897e+06 7.48913e+06 7.33232e+06 7.33132e+06 7.30377e+06 7.07236e+06 7.03634e+06 7.01647e+06 6.94583e+06 6.89994e+06 6.81804e+06 7.78652e+06 6.79366e+06 6.77622e+06 6.72699e+06 6.64778e+06 6.58398e+06 6.57321e+06 6.48359e+06 6.45571e+06 6.43099e+06 6.41101e+06 6.23069e+06 6.20913e+06 6.10824e+06 6.02016e+06 5.99041e+06 5.98189e+06 5.94249e+06 5.94098e+06 5.81869e+06 6.15077e+06 5.81332e+06 5.68736e+06 5.616e+06 5.59295e+06 5.53757e+06 5.51214e+06
threshold=28706.000000000004 33587.545000000006 24575.845000000005 27154.445000000003 30820.605000000007 36704.405000000006 21869.630000000005 24792.325000000001 30616.810000000001 26055.175000000003 39385.420000000006 32567.610000000004 586.77305000000013 19901.570000000003 35189.340000000004 0.91597561503675351 -0.37940952255126015 25899.005000000001 29682.560000000001 26319.800000000007 31460.140000000003 23352.190000000006 30995.355000000003 22889.375000000004 34174.240000000013 22541.460000000003 29810.135000000006 25557.280000000002 35199.56500000001 27469.500000000004 -0.70710678118654757 39099.380000000005 37717.905000000006 0.91597561503675351 25227.475000000002 23994.700000000001 31862.120000000003 23286.405000000002 36907.780000000006 25737.445000000003 33074.085000000006 27742.950000000001 23006.865000000002 35464.145000000011 27469.500000000004 24424.270000000004 27284.570000000003 29606.015000000003 29533.890000000003 23331.130000000001 20999.445000000003 34187.760000000002 25760.455000000005 24574.055000000004 22772.350000000002 35363.520000000011 28486.325000000001 29759.520000000004 23029.300000000003 35577.695000000007 26297.570000000003 23900.795000000002 31919.650000000005 33848.490000000013 28693.070000000003 34622.665000000008 27033.545000000002 29759.770000000004 31185.485000000004 29989.120000000006 32503.595000000005 28121.415000000005 36467.56500000001 32439.165000000005 26014.165000000005 36225.500000000007 31798.040000000005 -0.98296291314453399 26568.565000000006 26802.650000000005 29875.365000000002 28083.955000000005 24100.770000000004 31610.865000000002 35275.250000000007 26392.260000000006 -0.37940952255126015 29941.375000000004 29533.890000000003 27742.950000000001 26636.145000000004 22342.135000000006 28331.380000000001 347.03465000000006 32753.225000000002 25496.095000000005 31995.095000000005 34623.615000000013 -0.97502841500522164 396.86220000000009 31850.755000000005 37753.615000000005 30812.055000000004 35189.340000000004 41463.010000000002 29849.085000000003 -0.98296291314453399 25557.280000000002 27856.045000000002 0.98296291314453421 0.91597561503675351 26860.100000000002 19032.490000000005 23352.190000000006 32946.615000000005 23071.950000000004 28513.145000000004 32173.495000000006 33501.215000000004 37139.605000000003 33658.745000000003 31516.955000000005 27139.240000000002 26319.800000000007 32114.125000000004 27851.170000000002 29897.100000000002 33943.350000000013 30647.745000000006 29204.475000000002 22253.265000000003 29070.225000000002 29031.035000000003 25247.720000000005 30613.925000000007 28981.345000000005 33040.250000000007 29037.125000000004 28198.350000000002 22163.815000000006 31604.980000000003 34069.705000000009 0.91597561503675351 28220.930000000004 28421.330000000005 38374.450000000004 24105.210000000003 27633.665000000005 30760.095000000005 26676.420000000002 30227.650000000005 35693.525000000001 35878.455000000009 31597.655000000002 30332.110000000004 24443.050000000003 32021.475000000002 -0.37940952255126015 28319.935000000001 33696.945000000007 31798.040000000005 30958.710000000003 29058.265000000003 33946.400000000001 37753.615000000005 25496.095000000005 29895.855000000003 22253.265000000003 22414.905000000002 30156.245000000003 33173.785000000011 20999.445000000003 29715.185000000005 20866.635000000006 26528.300000000007 23006.670000000002 22606.265000000003 28063.000000000004 23583.200000000004 32881.075000000004 26562.855000000003 28366.740000000005 32105.825000000004 30333.280000000002 24229.310000000001 20513.925000000007 27074.230000000007 31651.320000000003 -0.9159756150367534 26804.865000000002 29712.470000000005 24985.140000000003 31307.970000000005 32377.635000000006 30355.760000000002 25275.655000000002 27412.340000000004 29773.050000000003 28550.490000000002 28467.490000000002 31624.165000000005 31910.27 28796.470000000005 26912.780000000002 30709.115000000002 30877.340000000004 34635.620000000003 31862.120000000003 23788.675000000003 23141.250000000004 0.98296291314453421 24232.265000000003 32723.205000000005 28445.115000000002 24.192500000000006 26857.980000000003 28276.975000000002 32796.140000000007 21280.945000000003 29501.810000000001 34623.615000000013 29531.620000000006 32810.870000000003 32388.165000000005 23775.155000000002 30512.120000000003 28319.650000000005 1.1006500000000001 34187.760000000002 25612.340000000004 25737.445000000003 36272.265000000007
decision_type=2 2 2 2 2 2 2 2 2 2 2 2 2 2 2 2 2 2 2 2 2 2 2 2 2 2 2 2 2 2 2 2 2 2 2 2 2 2 2 2 2 2 2 2 2 2 2 2 2 2 2 2 2 2 2 2 2 2 2 2 2 2 2 2 2 2 2 2 2 2 2 2 2 2 2 2 2 2 2 2 2 2 2 2 2 2 2 2 2 2 2 2 2 2 2 2 2 2 2 2 2 2 2 2 2 2 2 2 2 2 2 2 2 2 2 2 2 2 2 2 2 2 2 2 2 2 2 2 2 2 2 2 2 2 2 2 2 2 2 2 2 2 2 2 2 2 2 2 2 2 2 2 2 2 2 2 2 2 2 2 2 2 2 2 2 2 2 2 2 2 2 2 2 2 2 2 2 2 2 2 2 2 2 2 2 2 2 2 2 2 2 2 2 2 2 2 2 2 2 2 2 2 2 2 2 2 2 2 2 2 2 2 2 2 2 2 2 2 2 2 2 2 2 2 2 2 2 2 2 2 2 2
left_child=2 4 6 9 8 14 13 21 15 19 32 20 27 25 28 26 17 58 45 35 39 42 62 50 36 49 56 -5 41 34 -20 98 75 44 71 110 64 79 55 87 77 154 61 157 59 92 66 76 -41 -1 111 85 95 142 -24 72 126 116 171 123 109 -8 70 94 -13 -26 146 136 128 125 106 202 150 100 103 119 172 -22 124 -18 -42 224 105 145 -33 -32 -27 161 197 -35 131 -19 198 127 140 -36 191 -65 -12 159 201 -85 -66 230 -86 -63 -10 -108 118 196 165 185 -88 -93 160 -55 -31 -75 -47 151 -95 158 -111 -29 -79 212 144 170 183 -94 227 219 -62 -112 180 193 149 181 -60 -44 -43 -96 211 192 -2 -34 173 -130 -131 -39 -16 -7 -153 -104 -3 -76 -70 -30 229 -57 200 -6 -90 -129 -77 -4 -146 -145 -52 215 -38 -9 221 -25 -159 -117 -141 204 186 -165 -87 -92 -164 184 -50 -15 -125 -74 -122 -97 228 -69 -54 -64 -133 -114 231 -49 -14 -136 223 -56 208 -132 205 -160 -152 -102 -11 -128 -72 -23 -17 -140 -103 -81 -118 -109 -170 -58 -71 -28 -99 -80 225 -46 -116 -84 -143 -83 -37 -21
right_child=1 5 3 12 11 10 7 16 22 29 31 24 18 23 38 69 37 91 30 60 40 53 54 46 65 86 47 33 43 57 51 84 83 89 52 74 93 67 -40 48 80 63 139 -45 81 108 -48 88 68 -51 168 -53 143 115 73 99 90 -59 138 -61 132 82 135 97 102 -67 -68 96 156 220 210 -73 187 117 155 164 -78 78 114 169 -82 121 130 101 104 134 112 -89 162 -91 137 113 129 120 141 189 -98 222 -100 -101 207 214 153 -105 -106 -107 107 217 -110 122 133 -113 195 -115 226 175 216 -119 -120 -121 188 -123 -124 178 -126 -127 209 163 147 148 203 194 -134 -135 199 -137 -138 -139 213 176 -142 190 -144 167 166 -147 -148 -149 -150 -151 206 152 -154 -155 -156 -157 -158 174 177 -161 -162 -163 182 179 -166 -167 -168 -169 218 -171 -172 -173 -174 -175 -176 -177 -178 -179 -180 -181 -182 -183 -184 -185 -186 -187 -188 -189 -190 -191 -192 -193 -194 -195 -196 -197 -198 -199 -200 -201 -202 -203 -204 -205 -206 -207 -208 -209 -210 -211 -212 -213 -214 -215 -216 -217 -218 -219 -220 -221 -222 -223 -224 -225 -226 -227 -228 -229 -230 -231 -232 -233
leaf_value=-919.25561813046215 -10.794635556337688 527.44735380914335 -306.45679382625138 -218.79146193223801 175.47506384929656 632.7471140178518 -353.11195024677568 -132.01696760100529 90.355712090756839 -103.71103405694089 876.23445485595732 351.90893045019311 -26.236486040733901 -601.64401646670547 572.19098164570119 -50.723139454267297 -421.76171782408011 -372.3538678418854 1.35252055232793 -203.34491081170319 183.75703769886877 -386.72785565416268 366.48131100170116 -464.23032175811915 397.62987730661462 -571.7307692395666 147.58373908354039 -132.08739456652776 490.79662540601095 -67.223929600131257 69.756499663522462 887.62675578880487 744.06597918858563 -212.71485616665973 -251.24426666968986 -289.28450381470691 320.79867010997299 -305.7162547242844 713.10913752906492 68.127146572995471 438.08064550423779 365.66859036820279 -332.7961928913719 609.36017829090031 -43.604902032467407 -97.155167094683378 -554.78736486183948 39.82432732082053 170.86001708731928 -741.32449639585593 -556.52683076188919 271.15114774274662 -154.66363269783162 -256.83781108993156 216.94904346986314 503.97238659065619 98.466541298306055 10.99155870247322 -92.52458925531991 44.010205704410438 -67.066128485213298 -582.48707867070527 193.23495551893217 458.56144805592959 181.52545796738838 512.1284323903534 -355.24363486836228 -275.68603122372576 225.30587588899485 41.846688451688614 99.575128814439495 -10.417244326636188 466.28594034470871 233.96835008679037 -155.73018322186033 648.22969265922995 252.6755460475664 284.47817183206183 260.40884690384519 -341.38853315952548 316.25189042423261 8.0354567331007161 -502.57170658304159 641.62350737897202 948.50504885935084 173.613139995757 -730.24769292740393 310.03202625597896 136.97875151051284 -104.65373179586248 77.930884131629412 -317.09996460513889 43.770785350787172 346.23499725876673 424.39243407583308 -211.63925414619422 -149.71069008007845 349.43046016176754 766.61336412086166 607.28888253376215 158.40530899266443 704.30815155633445 305.30807216086686 -223.15980692362925 1052.4867060130766 -478.94927632094891 209.6053484500838 128.78299343149573 20.79034512204332 -277.68943543254602 -361.60682048965646 -669.21964470100545 -666.73862775350096 -229.94768420722696 318.78826325120122 -369.06522101921422 -134.86256234779188 316.61014910537415 -14.786363278935992 665.69791931225836 372.36202315827882 58.242725184557415 -209.75631780339234 -82.758827688276426 355.92353491448546 -19.158682804699509 96.94056514629213 261.61059200068809 216.12201505963381 54.951458352988539 -458.40811729286429 108.94961655931034 -159.48211497452459 -313.65912135641753 217.89917166265218 151.19278051015471 -355.83658097057963 75.22760467445265 -53.828331861389245 -421.23337492576451 314.40412039059026 353.75031732276119 -418.40889350253184 -175.32641311320879 49.378266781177047 825.5722820302849 -478.60167304734955 158.80004455651132 126.69128458748131 -251.67460641913112 464.69292948593579 524.27819741116582 603.74991185551926 235.00662563243816 454.97610367858965 -221.35473791474053 163.24935504932157 466.38507843044101 21.729427965503337 560.83764040363928 265.45213847064059 239.88019259862554 80.621950447679538 288.69015699837479 715.20368047462728 -260.16130210982095 -6.2540712588799598 -115.92144764986809 -539.97677310371807 -379.60882239781142 364.37309120398822 -207.44865479747273 162.41261913133314 -400.45704696072085 407.60033217911939 -327.63430842623376 -384.605550510147 -31.671887157654353 -96.77110493835265 360.69033187374748 108.17458480289025 18.119536962159966 131.17192508426783 169.01475723724434 111.98240795489357 -558.90153305290062 -30.811163144019577 398.63150040764106 434.50694420154673 -169.95904974992527 321.36193866189871 -224.00635168294093 -199.44255762552694 255.93224259812439 167.55094061785917 -601.42129557504404 -142.55516835415105 89.674624991356609 37.753368641580259 157.91955198372074 207.15837640538962 272.83098904777904 -79.027472650278895 -428.67003446785304 61.444366083529943 -33.020684304032194 524.15785112019807 208.8813921120761 -165.83528582390636 35.890768051057329 53.187789383551205 -347.10156369795624 -90.117436113765564 4.0274867927810574 762.35711135582801 -295.95409688478793 -96.054004537352697 166.93643368228544 -501.29853364294127 35.623792597953909 -7.4062531128067395 97.31085822088717 402.70870700316982 216.50720123695348 -60.367565254989728 11.096965253679951 265.78622475626781 -460.90907740312463 405.10745043468876 -42.956037866942772 -252.08384531746603 -159.28410006044632
leaf_weight=35 142 32 126 53 31 49 41 35 60 33 30 38 42 102 31 90 47 31 53 152 59 180 30 38 67 41 45 57 56 93 41 31 48 32 104 157 90 90 30 58 31 79 32 40 61 54 54 94 33 50 60 48 130 30 76 52 31 51 68 33 33 31 50 77 50 57 56 50 176 58 69 44 35 56 40 44 32 81 69 60 58 30 63 44 39 32 34 52 89 76 31 45 105 104 54 99 31 30 50 75 95 46 36 96 40 54 57 148 44 55 100 30 42 55 31 68 114 44 45 39 40 50 95 60 49 99 30 44 69 39 138 63 34 165 45 53 31 171 54 115 129 41 110 35 92 30 88 77 57 70 31 39 72 56 57 64 32 53 122 85 79 107 112 36 43 69 46 116 56 30 106 30 121 54 52 218 153 42 89 31 53 102 47 81 91 85 64 37 45 87 30 70 55 32 34 31 31 43 31 35 125 32 30 183 31 33 52 37 37 44 55 55 78 30 34 65 65 60 158 30 43 50 71 56 96 31 63 70 45 76 54 35
leaf_count=35 142 32 126 53 31 49 41 35 60 33 30 38 42 102 31 90 47 31 53 152 59 180 30 38 67 41 45 57 56 93 41 31 48 32 104 157 90 90 30 58 31 79 32 40 61 54 54 94 33 50 60 48 130 30 76 52 31 51 68 33 33 31 50 77 50 57 56 50 176 58 69 44 35 56 40 44 32 81 69 60 58 30 63 44 39 32 34 52 89 76 31 45 105 104 54 99 31 30 50 75 95 46 36 96 40 54 57 148 44 55 100 30 42 55 31 68 114 44 45 39 40 50 95 60 49 99 30 44 69 39 138 63 34 165 45 53 31 171 54 115 129 41 110 35 92 30 88 77 57 70 31 39 72 56 57 64 32 53 122 85 79 107 112 36 43 69 46 116 56 30 106 30 121 54 52 218 153 42 89 31 53 102 47 81 91 85 64 37 45 87 30 70 55 32 34 31 31 43 31 35 125 32 30 183 31 33 52 37 37 44 55 55 78 30 34 65 65 60 158 30 43 50 71 56 96 31 63 70 45 76 54 35
internal_value=0 279.411 -248.687 -116.32 174.258 553.011 -408.395 -345.471 98.1631 -200.628 735.177 265.618 -1.40277 -559.374 456.064 57.1667 -246.181 -167.773 71.2756 -251.973 225.175 -402.944 176.245 -516.051 341.853 -704.58 79.5407 -52.1935 413.386 -139.276 138.668 901.242 670.516 -43.2105 -162.232 -281.67 321.963 -296.338 540.419 189.247 266.535 390.614 -434.066 486.453 -31.6736 21.6601 -452.551 117.271 170.975 -814.62 -553.554 167.32 -179.761 -361.509 232.508 527.397 50.2714 -84.5501 -91.8101 -71.3775 -192.508 -455.239 140.598 376.135 258.904 450.273 -429.152 -263.954 181.646 -30.931 125.262 -86.0303 486.423 220.684 -245.382 629.961 158.249 253.131 260.531 -351.161 358.7 -10.6414 -463.006 727.925 969.212 143.123 -641.366 248.579 90.874 -136.677 73.1844 -293.599 51.2022 344.846 356.463 -213.343 -225.874 417.903 807.752 563.338 199.991 698.016 234.008 -262.068 1001.19 -516.729 142.912 154.81 -34.9452 -206.806 -314.091 -594.261 -668.032 -269.174 244.891 -329.834 -102.464 270.339 -59.7164 607.483 372.794 5.27217 -234.67 -85.4808 311.415 -50.5291 20.3676 327.636 161.427 69.4572 -452.944 105.586 -113.969 -331.756 161.351 191.6 -294.055 56.3431 -59.7225 -393.127 333.88 384.088 -390.518 -150.775 9.72265 775.445 -452.139 185.894 97.5496 -282.078 521.076 593.281 575.842 262.525 481.05 -196.12 215.761 455.906 -2.658 539.265 233.922 225.416 110.43 298.08 681.355 -290.08 30.8344 -129.694 -521.309 -329.746 344.37 -166.839 144.257 -426.812 437.285 -337.489 -400.327 9.36794 -73.0069 322.018 132.815 32.062 95.5666 143.999 127.655 -582.225 -55.9485 431.537 405.276 -192.147 365.315 -245.546 -167.979 217.711 129.495 -639.027 -187.631 55.4724 0.937717 191.665 223.955 233.514 -119.299 -441.459 18.6354 10.0725 501.965 172.558 -136.554 60.6436 79.0019 -377.458 -69.0146 -33.1661 729.006 -317.77 -120.772 139.791 -511.427 67.5635 20.878 121.128 386.894 240.747 -43.1454 -25.173 283.275 -480.655 380.636 -28.5247 -279.768 -195.101
internal_weight=0 7031 7606 4159 5079 1952 3447 2433 2771 2399 678 2308 1760 1014 1274 1817 892 348 724 1306 1508 1541 954 781 800 233 1449 1036 846 1093 307 190 488 983 770 871 676 544 428 807 701 645 880 201 875 417 290 633 617 85 491 254 626 661 370 398 816 323 217 303 435 580 584 556 180 124 236 342 559 368 449 144 186 340 411 286 248 612 553 202 89 572 539 202 110 206 148 190 385 108 462 131 274 496 378 290 151 178 80 212 240 124 142 307 79 85 325 265 143 368 460 217 107 100 423 316 272 100 99 199 189 384 150 270 130 267 354 307 351 201 454 158 67 265 165 135 191 304 152 300 208 170 345 336 280 78 180 146 96 160 114 160 111 92 89 104 208 161 334 137 329 138 248 111 87 195 138 151 274 155 196 65 216 92 105 286 268 228 213 67 85 133 159 205 124 187 124 72 85 186 116 120 185 82 97 73 218 137 73 80 250 108 100 321 186 155 83 132 70 74 124 235 168 84 80 125 179 208 214 61 101 95 101 125 188 92 94 133 86 106 211 187
internal_count=14637 7031 7606 4159 5079 1952 3447 2433 2771 2399 678 2308 1760 1014 1274 1817 892 348 724 1306 1508 1541 954 781 800 233 1449 1036 846 1093 307 190 488 983 770 871 676 544 428 807 701 645 880 201 875 417 290 633 617 85 491 254 626 661 370 398 816 323 217 303 435 580 584 556 180 124 236 342 559 368 449 144 186 340 411 286 248 612 553 202 89 572 539 202 110 206 148 190 385 108 462 131 274 496 378 290 151 178 80 212 240 124 142 307 79 85 325 265 143 368 460 217 107 100 423 316 272 100 99 199 189 384 150 270 130 267 354 307 351 201 454 158 67 265 165 135 191 304 152 300 208 170 345 336 280 78 180 146 96 160 114 160 111 92 89 104 208 161 334 137 329 138 248 111 87 195 138 151 274 155 196 65 216 92 105 286 268 228 213 67 85 133 159 205 124 187 124 72 85 186 116 120 185 82 97 73 218 137 73 80 250 108 100 321 186 155 83 132 70 74 124 235 168 84 80 125 179 208 214 61 101 95 101 125 188 92 94 133 86 106 211 187
is_linear=0
shrinkage=0.1


Tree=4
num_leaves=233
num_cat=0
split_feature=17 17 17 184 17 184 17 17 183 40 17 40 3 40 17 184 13 17 13 113 17 177 17 184 40 17 40 160 115 17 43 13 183 13 3 183 34 17 40 40 37 19 17 184 17 183 17 159 43 17 17 183 159 39 17 40 175 133 17 183 17 90 17 184 163 17 163 87 40 40 42 40 39 25 180 136 86 17 65 17 29 17 183 13 92 115 123 116 40 90 17 17 19 40 17 17 17 136 115 32 40 159 162 88 87 183 114 139 17 36 13 17 40 22 158 17 2 159 102 39 177 161 17 38 42 37 40 183 17 163 87 64 17 13 67 40 11 17 17 39 17 167 159 40 17 17 152 13 167 40 40 36 39 41 17 28 17 39 42 25 41 111 17 13 28 17 10 17 17 89 17 39 113 66 40 36 115 160 105 28 140 115 33 39 164 161 160 40 11 39 41 17 180 159 180 29 42 40 38 164 126 161 36 17 129 40 40 10 43 40 116 172 19 20 29 13 11 184 52 173 183 12 17 23 160 104 41 152 66 92 150 39
split_gain=8.25787e+10 1.84699e+10 1.08688e+10 3.64318e+09 3.57796e+09 3.0674e+09 1.83334e+09 8.00432e+08 7.58633e+08 6.8342e+08 5.59448e+08 5.44063e+08 5.12819e+08 3.89847e+08 3.24974e+08 2.61299e+08 2.28032e+08 2.18969e+08 1.97806e+08 2.01087e+08 1.85726e+08 1.79162e+08 1.65448e+08 1.52834e+08 1.47594e+08 1.19412e+08 1.18736e+08 1.18565e+08 1.17069e+08 1.25975e+08 1.12496e+08 1.09374e+08 1.00908e+08 9.95869e+07 9.84897e+07 9.82784e+07 8.7282e+07 8.3148e+07 8.07358e+07 7.48419e+07 6.92059e+07 6.75362e+07 6.66777e+07 6.45593e+07 5.96095e+07 5.79373e+07 5.69748e+07 5.59323e+07 5.5218e+07 5.11353e+07 5.1095e+07 4.80909e+07 4.73891e+07 4.70164e+07 4.70006e+07 4.63969e+07 4.47146e+07 5.17472e+07 4.60705e+07 4.41632e+07 4.00436e+07 3.87423e+07 3.82787e+07 3.81563e+07 3.64252e+07 3.57183e+07 3.55474e+07 3.46184e+07 3.30181e+07 3.18104e+07 3.17201e+07 3.09988e+07 3.05501e+07 2.82123e+07 2.752e+07 2.7297e+07 2.66968e+07 2.65675e+07 2.61327e+07 2.56881e+07 2.56513e+07 2.52833e+07 2.48409e+07 2.46246e+07 2.36826e+07 2.35468e+07 2.32907e+07 2.31311e+07 2.27337e+07 2.24739e+07 2.24228e+07 2.23669e+07 2.21894e+07 2.21268e+07 2.10346e+07 1.97846e+07 1.84084e+07 1.84043e+07 1.8258e+07 1.78824e+07 1.7816e+07 1.76045e+07 1.89054e+07 1.75527e+07 1.73492e+07 1.73126e+07 1.71119e+07 1.70597e+07 1.70011e+07 1.69614e+07 1.65887e+07 1.65795e+07 1.63756e+07 1.6153e+07 1.57713e+07 1.55279e+07 1.50896e+07 1.50461e+07 1.48995e+07 1.47917e+07 1.46195e+07 1.46097e+07 1.43967e+07 1.69697e+07 1.4381e+07 1.40325e+07 1.39451e+07 1.36953e+07 1.35983e+07 1.34186e+07 1.33836e+07 1.33148e+07 1.32188e+07 1.3005e+07 1.29976e+07 1.26261e+07 1.25447e+07 1.21792e+07 1.21556e+07 1.20442e+07 1.15363e+07 1.19118e+07 1.11289e+07 1.0981e+07 1.09711e+07 1.0963e+07 1.07725e+07 1.0755e+07 1.33739e+07 1.06219e+07 1.05582e+07 1.84936e+07 1.05297e+07 1.47939e+07 1.04487e+07 1.01425e+07 1.01229e+07 1.00903e+07 1.00593e+07 1.00384e+07 9.94064e+06 9.92976e+06 9.83609e+06 9.79766e+06 9.78752e+06 9.59425e+06 9.54614e+06 9.47373e+06 9.35567e+06 9.32645e+06 8.96761e+06 8.93994e+06 8.60123e+06 8.3726e+06 8.37803e+06 8.33598e+06 8.18578e+06 8.12722e+06 8.09219e+06 7.86271e+06 7.77144e+06 7.73586e+06 7.67468e+06 7.64219e+06 7.5938e+06 7.5462e+06 7.62912e+06 7.52882e+06 7.52038e+06 7.49977e+06 7.47925e+06 7.43213e+06 7.38862e+06 7.34458e+06 7.2157e+06 7.1033e+06 6.80376e+06 7.01334e+06 6.79938e+06 6.59794e+06 6.58905e+06 6.58818e+06 6.45896e+06 6.37151e+06 6.35867e+06 6.19977e+06 6.19298e+06 6.15811e+06 6.1096e+06 6.09735e+06 6.07853e+06 5.74258e+06 7.85869e+06 5.71447e+06 5.69253e+06 5.65243e+06 5.62379e+06 5.59442e+06 5.45858e+06 5.43208e+06 5.19838e+06 5.17802e+06 5.3752e+06 5.16405e+06 5.15305e+06 5.10754e+06 5.07518e+06 5.00007e+06 4.98236e+06 4.97571e+06 5.35561e+06 4.93192e+06
threshold=28276.975000000002 33100.045000000006 23862.860000000004 26586.070000000003 36100.955000000009 29953.305000000004 21280.945000000003 38770.620000000003 24316.085000000003 31856.780000000002 29989.120000000006 25304.785000000003 597.47260000000017 34369.150000000009 19032.490000000005 28619.300000000003 0.91597561503675351 30713.135000000006 -0.37940952255126015 25353.965 26126.300000000003 33878.510000000002 25496.095000000005 39916.020000000011 30563.145000000004 31801.990000000002 37414.360000000008 33892.560000000005 23658.195000000003 26126.300000000003 27467.105000000003 -0.70710678118654757 22309.700000000001 0.91597561503675351 973.33220000000017 23994.700000000001 36272.265000000007 26508.355000000007 27195.620000000006 29204.475000000002 23091.010000000006 25433.600000000002 20170.685000000001 27872.905000000002 29533.890000000003 24792.325000000001 31237.425000000007 34968.265000000007 27910.740000000002 34635.620000000003 18059.970000000005 32116.525000000005 33696.945000000007 25677.815000000006 23091.590000000004 33255.710000000006 23584.640000000003 21497.530000000002 22731.750000000004 32954.040000000001 30949.690000000006 29518.065000000006 22606.265000000003 28236.740000000002 23718.540000000005 24952.375000000004 28045.310000000001 25115.385000000006 34037.670000000006 39356.400000000009 32104.825000000004 30995.355000000003 32431.670000000002 29121.680000000004 20840.870000000006 34840.56500000001 32712.170000000002 26948.305000000004 35351.630000000012 29762.445000000003 20705.725000000002 27200.375000000004 26014.165000000005 0.91597561503675351 26545.105000000003 25969.275000000005 30117.930000000004 25837.100000000002 32105.825000000004 36885.665000000008 22908.020000000004 22541.460000000003 33347.825000000004 41384.545000000006 29205.830000000005 20705.725000000002 29305.060000000005 27777.350000000002 31952.710000000003 26508.355000000007 38737.505000000012 29369.090000000004 30484.930000000004 31266.920000000002 29802.545000000002 36163.890000000007 32911.705000000009 30255.925000000003 27412.340000000004 34503.955000000009 0.78656609248549303 27355.495000000006 35878.455000000009 34259.770000000011 29915.115000000005 25195.400000000005 840.15865000000008 26857.980000000003 26752.780000000002 29622.605000000003 23646.945000000003 30830.950000000001 24631.695000000003 31278.940000000006 34250.330000000009 25680.085000000003 30333.280000000002 33876.180000000008 21869.630000000005 22772.350000000002 40162.810000000005 31130.705000000005 25016.290000000005 0.91597561503675351 29805.905000000002 28513.145000000004 1.0000000180025095e-35 37446.485000000008 25016.290000000005 33091.055000000008 24760.660000000003 22006.495000000003 26167.865000000002 29573.405000000002 22176.840000000004 28929.735000000004 34822.685000000005 -0.98296291314453399 25224.510000000006 30186.335000000003 30424.840000000004 27744.625000000004 32794.210000000006 33173.785000000011 24385.885000000002 30471.830000000005 27257.150000000005 30995.565000000002 28420.660000000003 33180.455000000009 30613.925000000007 29421.610000000004 20866.635000000006 0.98296291314453421 29672.300000000003 31518.360000000004 -0.85421994577343296 34769.685000000005 27257.150000000005 31172.745000000006 30812.055000000004 35878.755000000012 31369.500000000004 26447.640000000003 27687.325000000001 34503.955000000009 35148.345000000008 21662.295000000002 30842.450000000004 25794.530000000002 25833.725000000002 32076.675000000007 31394.330000000005 28221.115000000002 31301.465000000004 30919.280000000002 30964.000000000004 25791.690000000006 1.0000000180025095e-35 31455.900000000005 36905.460000000014 31576.085000000003 28992.380000000005 23137.745000000006 31638.210000000003 34623.615000000013 29120.030000000002 28569.115000000002 28752.780000000002 24365.400000000005 30162.780000000002 35267.620000000003 26254.350000000002 25016.290000000005 27724.090000000004 32793.390000000007 29486.250000000004 -0.88545602565320969 26765.810000000001 35353.935000000005 26096.715000000004 30244.715000000004 35363.110000000008 27257.150000000005 35189.340000000004 0.98296291314453421 1.0000000180025095e-35 28619.300000000003 25920.645000000004 25222.585000000003 25946.125000000004 -0.34155811708470757 23467.460000000003 26126.300000000003 22588.565000000006 27120.005000000001 30858.215000000004 34969.130000000005 32094.600000000002 32282.970000000005 28297.665000000005 31572.120000000006
decision_type=2 2 2 2 2 2 2 2 2 2 2 2 2 2 2 2 2 2 2 2 2 2 2 2 2 2 2 2 2 2 2 2 2 2 2 2 2 2 2 2 2 2 2 2 2 2 2 2 2 2 2 2 2 2 2 2 2 2 2 2 2 2 2 2 2 2 2 2 2 2 2 2 2 2 2 2 2 2 2 2 2 2 2 2 2 2 2 2 2 2 2 2 2 2 2 2 2 2 2 2 2 2 2 2 2 2 2 2 2 2 2 2 2 2 2 2 2 2 2 2 2 2 2 2 2 2 2 2 2 2 2 2 2 2 2 2 2 2 2 2 2 2 2 2 2 2 2 2 2 2 2 2 2 2 2 2 2 2 2 2 2 2 2 2 2 2 2 2 2 2 2 2 2 2 2 2 2 2 2 2 2 2 2 2 2 2 2 2 2 2 2 2 2 2 2 2 2 2 2 2 2 2 2 2 2 2 2 2 2 2 2 2 2 2 2 2 2 2 2 2 2 2 2 2 2 2 2 2 2 2 2 2
left_child=2 5 6 11 13 10 14 26 32 17 16 20 22 27 50 64 39 41 19 91 35 25 66 69 60 51 47 55 38 45 52 81 56 43 42 65 49 129 -13 63 -20 76 87 108 121 154 134 112 75 78 80 79 103 136 128 70 57 -8 85 156 83 126 199 145 140 110 -5 164 227 109 107 113 225 77 -44 -29 150 -45 175 -11 -1 -17 132 147 155 144 -87 177 -72 100 135 -10 -49 130 163 -36 157 162 -57 191 -28 180 159 169 196 -91 219 -3 173 -9 207 -35 124 149 120 -66 -61 -56 -40 168 -75 143 210 220 -6 -64 -41 176 -42 -33 -25 -109 202 -67 -26 -21 187 229 -131 -117 -14 -142 -130 -43 -58 -2 -70 -12 -149 160 151 -7 153 -86 -30 -27 -39 217 -53 -103 -32 -68 -76 -18 -22 -105 -96 201 -55 -19 -160 -80 -73 -24 -175 -15 -51 -16 194 -108 -46 -114 -60 -79 -100 -104 -187 -31 -84 228 -139 -62 -164 -138 -154 -85 -65 -198 -110 224 203 -50 -37 -156 -185 -90 -101 -4 -166 -129 -47 212 -211 -112 -134 -168 -93 -63 -167 -81 -124 -127 -223 -119 -34 -48 -151 -23 -136 -94 -231 -98
right_child=1 4 3 12 7 9 8 23 18 21 24 28 15 36 34 31 94 30 40 90 67 68 33 93 46 84 89 48 29 53 71 37 62 111 95 82 -38 59 118 61 54 44 74 73 101 122 72 92 167 127 -52 158 -54 119 117 98 58 -59 182 116 99 96 125 104 115 133 161 -69 146 -71 88 172 -74 114 97 -77 -78 183 171 106 -82 -83 188 195 152 86 -88 -89 205 105 -92 216 137 -95 166 -97 231 -99 184 206 -102 102 185 165 -106 -107 179 131 198 -111 213 -113 181 -115 -116 139 -118 223 -120 -121 -122 -123 123 -125 -126 221 -128 209 142 138 -132 -133 214 -135 189 -137 193 190 -140 -141 141 -143 -144 -145 -146 -147 -148 148 -150 226 -152 -153 178 -155 200 -157 -158 -159 170 -161 -162 -163 192 -165 208 218 215 -169 -170 -171 -172 -173 -174 174 -176 -177 -178 -179 -180 -181 -182 -183 -184 204 -186 186 -188 -189 -190 -191 -192 -193 -194 -195 -196 -197 197 -199 -200 -201 -202 -203 -204 -205 -206 -207 -208 -209 -210 211 -212 -213 -214 -215 -216 -217 -218 -219 -220 -221 -222 222 -224 -225 -226 -227 -228 -229 -230 230 -232 -233
