tree
version=v4
num_class=1
num_tree_per_iteration=1
label_index=0
max_feature_idx=18
objective=regression
feature_names=temp humidity dewPoint appTemp precipitation pressure surfacePressure cloudCover windSpeed10m windSpeed100m windGusts10m cos_windDir10m cos_windDir100m year cos_month cos_day cos_hour unique_id lag1
feature_infos=[-17.699999999999999:31.300000000000001] [9:100] [-21.5:15.699999999999999] [-23.399999999999999:30.699999999999999] [0:7.4000000000000004] [996.10000000000002:1036] [812.79999999999995:845.79999999999995] [0:100] [0:54] [0.40000000000000002:77] [2.5:113.8] [-1:1] [-1:1] [2020:2022] [-1:1] [-0.99996295911626554:1] [-1:1] none [0:54.689999999999998]
tree_sizes=1904 1930 1934 1946 1927 1944 1945 1949 1940 1954 1950 1960 1958 1935 1946 1944 1947 1947 1949 1958 1937 1932 1949 1972 1946 1926 1951 1965 1962 1954 1943 1948 1960 1958 1972 1936 1944 1943 1963 1942 1970 1948 1919 1925 1920 1930 1953 1929 1959 1964 1953 1947 1921 1967 1972 1924 1918 1950 1963 1917 1909 1923 1918 1900 1944 1906 1932 1916 1945 1934 1913 1955 1912 1938 1934 1897 1937 1901 1896 1915 1909 1929 1918 1955 1902 1918 1916 1952 1908 1937 1896 1907 1894 1884 1928 1936 1925 1917 1922 1931

Tree=0
num_leaves=21
num_cat=0
split_feature=18 18 18 18 18 18 18 18 18 18 18 18 18 18 18 9 9 9 9 9
split_gain=4.16834e+06 469549 459046 66014.5 59199.1 48132.4 42554.2 8431.07 7760.51 7475.51 6807.63 6547.75 5210.35 4904.11 3555.57 1716.54 1691.22 1651.71 1635.1 1594.77
threshold=22.435000000000006 9.6450000000000014 38.905000000000008 3.8750000000000004 29.705000000000002 15.265000000000002 45.270000000000003 33.225000000000001 6.3950000000000005 18.285000000000004 49.215000000000011 0.96500000000000008 26.115000000000006 12.605000000000002 42.805000000000007 28.050000000000004 29.450000000000003 17.750000000000004 24.350000000000005 28.150000000000002
decision_type=2 2 2 2 2 2 2 2 2 2 2 2 2 2 2 2 2 2 2 2
left_child=1 3 4 11 12 13 14 18 -5 -7 16 -1 -2 17 19 -14 -8 -3 -6 -4
right_child=2 5 6 8 7 9 10 -9 -10 -11 -12 -13 15 -15 -16 -17 -18 -19 -20 -21
leaf_value=15.943440379126574 18.28661360611051 16.86494433915756 19.525011725299638 16.423318409105288 18.692411662133914 17.574693747136507 20.118266010352706 19.393347593887324 16.709150475864178 17.926582766733254 20.826806446982228 16.158250530365727 18.483265888807484 17.299044415943733 20.156535188042515 18.769222022408215 20.524867234135357 17.094524039172605 19.046078852492759 19.881654021110467
leaf_weight=3276 1036 464 163 1817 161 1119 118 1157 1991 1311 1336 2505 434 1126 462 407 796 966 699 550
leaf_count=3276 1036 464 163 1817 161 1119 118 1157 1991 1311 1336 2505 434 1126 462 407 796 966 699 550
internal_value=17.6376 16.6588 19.5837 16.2495 18.8409 17.4459 20.4281 19.2171 16.5728 17.7645 20.6829 16.0365 18.4367 17.1429 19.9403 18.6217 20.4724 17.02 18.9799 19.8001
internal_weight=0 14575 7319 9589 3894 4986 3425 2017 3808 2430 2250 5781 1877 2556 1175 841 914 1430 860 713
internal_count=21894 14575 7319 9589 3894 4986 3425 2017 3808 2430 2250 5781 1877 2556 1175 841 914 1430 860 713
is_linear=0
shrinkage=1


Tree=1
num_leaves=21
num_cat=0
split_feature=18 18 18 18 18 18 18 18 18 18 18 18 18 18 18 9 9 9 18 9
split_gain=3.37677e+06 391983 360404 53550.7 45705.3 41549.9 34662.4 7860.54 6305.56 6190.28 4325.11 4222.82 4084.95 3990.29 3792.42 2163.01 2058.25 1486.1 1422.79 1395.61
threshold=22.695000000000004 9.6450000000000014 38.905000000000008 4.535000000000001 30.925000000000004 16.315000000000001 46.305000000000007 1.4650000000000001 12.765000000000002 26.115000000000006 7.0050000000000008 42.805000000000007 49.215000000000011 35.805000000000007 20.695000000000004 29.950000000000003 24.750000000000004 19.450000000000003 50.640000000000008 19.650000000000002
decision_type=2 2 2 2 2 2 2 2 2 2 2 2 2 2 2 2 2 2 2 2
left_child=1 3 4 7 9 8 11 -1 17 -2 -5 -4 -8 15 -7 19 -11 -3 -14 -6
right_child=2 5 6 10 13 14 12 -9 -10 16 -12 -13 18 -15 -16 -17 -18 -19 -20 -21
leaf_value=-1.5113882332992992 0.59786399600401596 -0.66580045386458198 1.946278095350757 -1.0328358222569594 0.59907809508337695 0.088345799400205691 2.5794919605935966 -1.2825099073046184 -0.25516482943448848 0.72701122296027609 -0.80393285954420035 2.3037664789909296 2.8274625031065836 1.6861459583364546 0.38158839553640661 1.5024790849128662 1.0244322998384467 -0.46459754845012741 3.1205734677159618 1.2625071403400936
leaf_weight=3797 950 627 713 1734 34 1504 759 2482 1431 322 1576 617 1141 621 624 565 840 886 195 476
leaf_count=3797 950 627 713 1734 34 1504 759 2482 1431 322 1576 617 1141 621 624 565 840 886 195 476
internal_value=0 -0.87328 1.76714 -1.24934 1.09768 -0.162314 2.51145 -1.42092 -0.405652 0.787219 -0.92385 2.11214 2.76493 1.48429 0.174336 1.36767 0.942021 -0.547982 2.87027 1.21829
internal_weight=0 14661 7233 9589 3808 5072 3425 6279 2944 2112 3310 1330 2095 1696 2128 1075 1162 1513 1336 510
internal_count=21894 14661 7233 9589 3808 5072 3425 6279 2944 2112 3310 1330 2095 1696 2128 1075 1162 1513 1336 510
is_linear=0
shrinkage=0.1


Tree=2
num_leaves=21
num_cat=0
split_feature=18 18 18 18 18 18 18 18 18 18 18 18 18 18 18 9 9 8 9 9
split_gain=2.73519e+06 317689 291928 40755.5 37021.5 36737.9 28128.8 5676.98 5161.07 4742.79 4260.76 3950.39 3915.6 3237.51 2871.73 1680.51 1583.85 1467.29 1361.14 1301.19
threshold=22.695000000000004 9.3650000000000002 38.905000000000008 3.7750000000000004 30.925000000000004 15.265000000000002 46.635000000000012 18.285000000000004 28.125000000000004 6.3950000000000005 0.68500000000000016 11.915000000000001 42.805000000000007 35.345000000000006 49.565000000000005 30.150000000000002 24.750000000000004 17.350000000000005 24.250000000000004 20.950000000000003
decision_type=2 2 2 2 2 2 2 2 2 2 2 2 2 2 2 2 2 2 2 2
left_child=1 3 4 10 8 11 12 19 16 -5 -1 -3 -4 15 -8 -6 -2 -9 -10 -7
right_child=2 5 6 9 13 7 14 17 18 -11 -12 -13 -14 -15 -16 -17 -18 -19 -20 -21
leaf_value=-1.3850919498851049 0.4584855531895291 -0.54420277351794755 1.7516529483593684 -0.98634463195847089 1.0886125028999747 -0.21922756368145616 2.368154333102745 0.17231295587476669 0.68070294037093193 -0.76053160183417734 -1.2122038617307549 -0.30255306962409667 2.0860912839576389 1.501106658308605 2.607699851594881 1.3482776613800551 0.67855227909144544 0.38619479308628546 1.0106102464072011 0.016628291973453953
leaf_weight=2918 511 1276 713 1891 492 333 919 898 164 1831 2789 1440 689 698 1104 506 909 499 528 786
leaf_count=2918 511 1276 713 1891 492 333 919 898 164 1831 2789 1440 689 698 1104 506 909 499 528 786
internal_value=0 -0.785952 1.59042 -1.13271 0.987916 -0.161041 2.2603 0.114276 0.708498 -0.875261 -1.3006 -0.416084 1.91602 1.33586 2.49889 1.22028 0.599363 0.248712 0.932435 -0.0535606
internal_weight=0 14661 7233 9429 3808 5232 3425 2516 2112 3722 5707 2716 1402 1696 2023 998 1420 1397 692 1119
internal_count=21894 14661 7233 9429 3808 5232 3425 2516 2112 3722 5707 2716 1402 1696 2023 998 1420 1397 692 1119
is_linear=0
shrinkage=0.1


Tree=3
num_leaves=21
num_cat=0
split_feature=18 18 18 18 18 18 18 18 18 18 18 18 18 18 9 9 9 9 18 9
split_gain=2.21671e+06 255934 237321 35076.2 34049.9 23892 23033.9 5703.63 4718.59 4280.33 3768.21 3631.65 3213.91 2648.22 1998.09 1748.06 1295.57 1284.81 1282.62 1137.61
threshold=21.955000000000002 38.905000000000008 8.2050000000000018 29.705000000000002 15.035000000000002 3.2050000000000005 44.775000000000013 10.905000000000003 33.225000000000001 48.555000000000007 18.285000000000004 24.585000000000004 5.3150000000000004 0.13500000000000004 29.050000000000004 28.050000000000004 30.950000000000003 17.250000000000004 50.640000000000008 19.150000000000002
decision_type=2 2 2 2 2 2 2 2 2 2 2 2 2 2 2 2 2 2 2 2
left_child=2 3 5 11 7 13 14 -4 -5 -8 19 -2 -7 -1 -3 -13 -10 -9 -11 -6
right_child=1 6 4 8 10 12 9 17 16 18 -12 15 -14 -15 -16 -17 -18 -19 -20 -21
leaf_value=-1.2738176412417948 0.39625244635076451 1.42088776627436 -0.57545642350836201 0.97667031147521954 -0.24728149200217664 -0.95264560835925405 2.0185094685842322 -0.47590025375418687 1.1749312672893857 2.2730729304560469 0.19666903521483525 0.56340495747387864 -0.759471546723546 -1.1284063933276123 1.7339701261614104 0.80229354635601691 1.3869403063007804 -0.26839581875692037 2.5477746264507717 -0.0062316060839495788
leaf_weight=2043 784 271 1463 860 246 1576 765 375 551 1367 1167 678 1900 3241 827 559 606 1461 195 959
leaf_count=2043 784 271 1463 860 246 1576 765 375 551 1367 1167 678 1900 3241 827 559 606 1461 195 959
internal_value=0 1.39842 -0.724396 0.859085 -0.220382 -1.05068 2.03428 -0.428157 1.15411 2.21242 0.0685936 0.564643 -0.847058 -1.18463 1.65671 0.671364 1.28599 -0.310781 2.30738 -0.0554435
internal_weight=0 7463 14431 4038 5671 8760 3425 3299 2017 2327 2372 2021 3476 5284 1098 1237 1157 1836 1562 1205
internal_count=21894 7463 14431 4038 5671 8760 3425 3299 2017 2327 2372 2021 3476 5284 1098 1237 1157 1836 1562 1205
is_linear=0
shrinkage=0.1


Tree=4
num_leaves=21
num_cat=0
split_feature=18 18 18 18 18 18 18 18 18 18 18 9 18 18 9 9 9 18 9 18
split_gain=1.79554e+06 207689 192424 33869.9 25719.1 21282.2 13311.5 5607.34 3043.29 3003.94 2891.83 2858.53 2759.88 2510.24 1607.35 1460.11 1339.11 1281.38 1119.96 1107.15
threshold=21.955000000000002 40.195000000000007 9.1950000000000021 31.655000000000005 3.7750000000000004 15.265000000000002 48.285000000000004 26.115000000000006 5.9050000000000011 1.635 11.915000000000001 32.850000000000001 18.285000000000004 35.805000000000007 19.650000000000002 24.050000000000004 28.350000000000005 44.775000000000013 17.450000000000003 51.615000000000002
decision_type=2 2 2 2 2 2 2 2 2 2 2 2 2 2 2 2 2 2 2 2
left_child=2 3 4 7 9 10 11 15 -6 -1 -4 -3 -7 14 -5 -2 -9 -13 -10 -8
right_child=1 6 5 13 8 12 19 16 18 -11 -12 17 -14 -15 -16 -17 -18 -19 -20 -21
leaf_value=-1.1019763127627895 0.25600475731045513 1.4949699464619177 -0.44638876034917385 0.26131910536752789 -0.81924334405146348 -0.042799350094041524 2.0436817688890243 0.60591487517627096 -0.71312625250808148 -0.94450409828612991 -0.24304885328922962 1.650974239583179 0.17700229071778734 1.2590814937650794 1.0445770845534341 0.48923380996555832 0.80763295437811833 1.8868579841811011 -0.56598025772709548 2.3336884261080164
leaf_weight=3961 413 625 1360 27 1558 1119 1489 652 967 1746 1440 450 1167 863 893 767 665 474 1113 145
leaf_count=3961 413 625 1360 27 1558 1119 1489 652 967 1746 1440 450 1167 863 893 767 665 474 1113 145
internal_value=0 1.25858 -0.651957 0.803643 -0.921346 -0.156983 1.8703 0.565927 -0.713558 -1.0538 -0.341815 1.66023 0.0694093 1.13655 1.02159 0.407607 0.707775 1.772 -0.634392 2.06943
internal_weight=0 7463 14431 4280 9345 5086 3183 2497 3638 5707 2800 1549 2286 1783 920 1180 1317 924 2080 1634
internal_count=21894 7463 14431 4280 9345 5086 3183 2497 3638 5707 2800 1549 2286 1783 920 1180 1317 924 2080 1634
is_linear=0
shrinkage=0.1


Tree=5
num_leaves=21
num_cat=0
split_feature=18 18 18 18 18 18 18 18 18 18 18 18 9 9 8 9 8 18 18 18
split_gain=1.45447e+06 169811 155789 25930.7 24011.8 16092.2 10954.8 3931.9 3739.16 2614.15 2194.57 2067.09 1771.8 1693.08 1680.77 1219.4 1140.15 1087.49 1000.87 990.37
threshold=22.695000000000004 10.075000000000001 40.195000000000007 4.6250000000000009 31.655000000000005 16.915000000000003 46.635000000000012 2.0950000000000002 28.125000000000004 12.765000000000002 7.2750000000000012 36.215000000000011 31.050000000000004 29.050000000000004 17.450000000000003 19.250000000000004 6.5500000000000007 0.045000000000000005 24.325000000000003 50.640000000000008
decision_type=2 2 2 2 2 2 2 2 2 2 2 2 2 2 2 2 2 2 2 2
left_child=1 3 4 7 8 9 13 17 18 -3 -5 15 -8 -4 16 -6 -7 -1 -2 -14
right_child=2 5 6 10 11 14 12 -9 -10 -11 -12 -13 19 -15 -16 -17 -18 -19 -20 -21
leaf_value=-1.0457047815762754 0.31532699047638052 -0.34175132856835899 1.2003093816279997 -0.66765305374613293 0.2074740470881401 -0.62171315124789728 1.5569602310804282 -0.81470833664499009 0.69868272991030445 -0.15140756431661159 -0.50848611338515015 1.1441845708345808 1.8318049127812288 1.4996518731480153 0.27797813115432141 0.94425758633690371 0.088643930177212907 -0.94385482321903413 0.49300381931080151 2.0788579737180597
leaf_weight=1744 478 1267 238 1817 23 23 222 1984 847 1676 1656 786 1620 922 607 974 1253 2634 942 181
leaf_count=1744 478 1267 238 1817 23 23 222 1984 847 1676 1656 786 1620 922 607 974 1253 2634 942 181
internal_value=0 -0.573131 1.15977 -0.811532 0.748335 -0.0872897 1.68327 -0.931503 0.532391 -0.233354 -0.591761 1.02289 1.82377 1.43825 0.140999 0.927263 0.075835 -0.98443 0.433197 1.85664
internal_weight=0 14661 7233 9835 4050 4826 3183 6362 2267 2943 3473 1783 2023 1160 1883 997 1276 4378 1420 1801
internal_count=21894 14661 7233 9835 4050 4826 3183 6362 2267 2943 3473 1783 2023 1160 1883 997 1276 4378 1420 1801
is_linear=0
shrinkage=0.1


Tree=6
num_leaves=21
num_cat=0
split_feature=18 18 18 18 18 18 18 9 18 18 9 9 9 18 18 18 18 15 8 18
split_gain=1.18018e+06 154510 109870 18531.5 17633.5 14702 11411.4 2588.63 2588.46 2390.53 2011.83 1787.05 1780 1712.27 1268.71 1261.81 1172.97 1136.9 1084.92 900.496
threshold=20.695000000000004 37.32500000000001 7.8050000000000006 29.075000000000003 44.775000000000013 13.145000000000001 2.6950000000000007 24.050000000000004 16.915000000000003 49.365000000000002 25.550000000000004 27.850000000000005 19.250000000000004 5.3150000000000004 24.325000000000003 32.635000000000012 0.13500000000000004 0.3896304495307879 17.950000000000003 42.805000000000007
decision_type=2 2 2 2 2 2 2 2 2 2 2 2 2 2 2 2 2 2 2 2
left_child=2 3 6 7 11 12 16 -2 -7 18 17 -3 -4 -8 -9 -12 -1 -5 -6 -13
right_child=1 4 5 10 9 8 13 14 -10 -11 15 19 -14 -15 -16 -17 -18 -19 -20 -21
leaf_value=-0.93316002157194511 0.21614694907373888 0.95205078495439244 -0.45579264151117038 0.45265743841000766 1.2843187166626389 -0.12811446889197567 -0.70391009311831287 0.34074927664646321 0.065821461295040462 1.7089637779011448 0.74055012526274411 1.1680473372651183 -0.29385927108405402 -0.56635008361975359 0.5248534802973176 0.93101703819719583 -0.83363215379301525 0.78060312507674823 1.551540077703236 1.3665465167894202
leaf_weight=2043 756 303 1232 231 184 1518 1996 676 1259 1261 603 780 1512 1656 839 823 2821 195 882 324
leaf_count=2043 756 303 1232 231 184 1518 1996 676 1259 1261 603 780 1512 1656 839 823 2821 195 882 324
internal_value=0 0.980764 -0.549868 0.558744 1.44675 -0.202403 -0.775132 0.367289 -0.0401904 1.61573 0.79351 1.16726 -0.366565 -0.641535 0.442708 0.850482 -0.875438 0.602788 1.50543 1.22631
internal_weight=0 7857 14037 4123 3734 5521 8516 2271 2777 2327 1852 1407 2744 3652 1515 1426 4864 426 1066 1104
internal_count=21894 7857 14037 4123 3734 5521 8516 2271 2777 2327 1852 1407 2744 3652 1515 1426 4864 426 1066 1104
is_linear=0
shrinkage=0.1


Tree=7
num_leaves=21
num_cat=0
split_feature=18 18 18 18 18 18 18 18 9 18 18 9 9 9 15 18 8 18 18 9
split_gain=955947 125168 89070.4 15324.6 14063.8 11016.9 10059.1 2817.34 2096.79 1969.19 1916.19 1629.87 1480.32 1422.55 1203.8 1027.65 894.216 823.804 782.668 777.446
threshold=20.695000000000004 37.045000000000009 8.1150000000000002 44.775000000000013 29.075000000000003 15.035000000000002 2.2850000000000006 10.905000000000003 24.050000000000004 48.555000000000007 5.3150000000000004 27.850000000000005 29.850000000000005 19.150000000000002 0.50494235051780223 24.325000000000003 16.650000000000002 40.195000000000007 0.045000000000000005 14.350000000000003
decision_type=2 2 2 2 2 2 2 2 2 2 2 2 2 2 2 2 2 2 2 2
left_child=2 4 6 11 8 7 18 19 -2 -5 -8 -3 14 -7 -6 -10 -9 -13 -1 -4
right_child=1 3 5 9 12 13 10 16 15 -11 -12 17 -14 -15 -16 -17 -18 -19 -20 -21
leaf_value=-0.8478194133930661 0.19453252730936374 0.84367650569520825 -0.52028886819179465 1.3226361352401135 0.51972108765433223 -0.16781879216544926 -0.64025040553489998 -0.23648772374985261 0.30667484146430035 1.5185650731686995 -0.50323339182658822 0.99489335204309148 0.793204776361495 0.053169247376650255 0.76758065948364329 0.47236873619636077 -0.066020435607632488 1.166924757212336 -0.7624679952680451 -0.34665461947008969
leaf_weight=1744 756 322 328 765 536 355 2312 1445 676 1562 1828 465 931 1623 309 839 391 696 2804 1207
leaf_count=1744 756 322 328 765 536 355 2312 1445 676 1562 1828 465 931 1623 309 839 391 696 2804 1207
internal_value=0 0.882689 -0.494881 1.29405 0.495416 -0.173845 -0.692535 -0.283778 0.33056 1.45416 -0.579752 1.04281 0.706216 0.0135069 0.610366 0.398438 -0.200185 1.09803 -0.795199 -0.38376
internal_weight=0 7857 14037 3810 4047 5349 8688 3371 2271 2327 4140 1483 1776 1978 845 1515 1836 1161 4548 1535
internal_count=21894 7857 14037 3810 4047 5349 8688 3371 2271 2327 4140 1483 1776 1978 845 1515 1836 1161 4548 1535
is_linear=0
shrinkage=0.1


Tree=8
num_leaves=21
num_cat=0
split_feature=18 18 18 18 18 18 18 18 9 9 8 8 5 9 9 9 18 15 9 9
split_gain=774451 106517 68976.8 15189.8 10224.2 9058.03 5933.94 2109.61 1607 1526.26 1501.5 1386.32 1458.55 1352.54 1257.12 1231.08 993.099 858.223 1062.15 828.778
threshold=24.325000000000003 10.625000000000002 40.195000000000007 4.6250000000000009 16.915000000000003 31.655000000000005 48.285000000000004 1.7250000000000003 20.350000000000005 32.850000000000001 19.550000000000004 23.350000000000005 1006.6500000000002 17.650000000000002 9.7500000000000018 28.050000000000004 19.245000000000001 0.42887605137607676 25.250000000000004 28.750000000000004
decision_type=2 2 2 2 2 2 2 2 2 2 2 2 2 2 2 2 2 2 2 2
left_child=1 3 5 7 13 15 9 -1 -5 -4 14 12 -7 -3 -6 -2 -16 18 -14 -8
right_child=2 4 6 8 10 11 19 -9 -10 -11 -12 -13 17 -15 16 -17 -18 -19 -20 -21
leaf_value=-0.72331786586679359 0.34818798713820032 -0.29526608776508234 0.96741482183957117 -0.47074354470618074 -0.72159635914920572 -0.12816106513637562 0.99301897872380884 -0.60362647162370264 -0.33012987605803629 1.169822755953918 0.28456589988419662 0.90638863246984291 0.39000907108483451 -0.12055445434305888 -0.001085611275909154 0.51415152023344413 0.15104342052305458 0.80882822391650377 0.69775224309380235 1.3751596380946445
leaf_weight=4046 915 558 625 2502 19 21 59 2316 1204 924 487 421 135 2152 674 874 1181 542 664 1575
leaf_count=4046 915 558 625 2502 19 21 59 2316 1204 924 487 421 135 2152 674 874 1181 542 664 1575
internal_value=0 -0.397748 0.889902 -0.585999 -0.0239942 0.588251 1.22842 -0.679747 -0.425062 1.08816 0.128132 0.747763 0.698724 -0.156529 0.0874779 0.42927 0.0957687 0.711674 0.645761 1.36137
internal_weight=0 15139 6755 10068 5071 3572 3183 6362 3706 1549 2361 1783 1362 2710 1874 1789 1855 1341 799 1634
internal_count=21894 15139 6755 10068 5071 3572 3183 6362 3706 1549 2361 1783 1362 2710 1874 1789 1855 1341 799 1634
is_linear=0
shrinkage=0.1


Tree=9
num_leaves=21
num_cat=0
split_feature=18 18 18 18 18 18 18 18 18 9 9 9 9 9 16 9 14 8 18 18
split_gain=627992 82779.9 59008.8 11777.8 8084.06 7973 6022.43 1795.08 1527.54 1448.5 1271.25 1102.91 1087.9 984.006 964.302 883.63 777.834 769.078 724.764 692.98
threshold=20.695000000000004 36.215000000000011 7.8050000000000006 43.635000000000012 28.125000000000004 12.765000000000002 2.6950000000000007 49.565000000000005 16.505000000000006 23.750000000000004 16.950000000000003 28.150000000000002 24.050000000000004 19.450000000000003 0.91597561503675351 33.750000000000007 0.25000000000000017 16.350000000000005 0.045000000000000005 33.225000000000001
decision_type=2 2 2 2 2 2 2 2 2 2 2 2 2 2 2 2 2 2 2 2
left_child=2 4 6 11 12 13 18 15 17 16 -8 -3 -2 -4 -13 -5 -6 -7 -1 -11
right_child=1 3 5 7 9 8 10 -9 -10 19 -12 14 -14 -15 -16 -17 -18 -19 -20 -21
leaf_value=-0.6907065525910876 0.14997001707835533 0.64801848793982808 -0.34052694622675933 0.98777650097043201 0.17791450646860718 -0.14831871641516248 -0.52182311852130159 1.2610825289908041 0.040700630896491868 0.52823960888080046 -0.40305530744742035 0.88887945338073659 0.30345291944029257 -0.21686428320192919 0.59127731775303471 1.1504811498752019 0.50648441953887335 0.010221593482466682 -0.61019346686392284 0.6680124376637977
leaf_weight=1744 705 339 1205 523 152 1086 2032 1104 1423 1007 1620 954 1339 1381 123 926 137 426 3120 548
leaf_count=1744 705 339 1205 523 152 1086 2032 1104 1423 1007 1620 954 1339 1381 123 926 137 426 3120 548
internal_value=0 0.715432 -0.401107 1.03669 0.387477 -0.146465 -0.566194 1.16499 -0.0336638 0.539291 -0.46914 0.805374 0.250516 -0.274489 0.854897 1.09176 0.333685 -0.103651 -0.639063 0.577501
internal_weight=0 7857 14037 3969 3888 5521 8516 2553 2935 1844 3652 1416 2044 2586 1077 1449 289 1512 4864 1555
internal_count=21894 7857 14037 3969 3888 5521 8516 2553 2935 1844 3652 1416 2044 2586 1077 1449 289 1512 4864 1555
is_linear=0
shrinkage=0.1


Tree=10
num_leaves=21
num_cat=0
split_feature=18 18 18 18 18 18 18 9 9 8 8 8 9 5 9 9 8 18 18 1
split_gain=509331 70194.9 45467.6 9093.37 7452.63 7312.95 2490.65 1302.84 1196.9 1136.49 1133.77 1128.66 1076.54 1038.01 1008.23 714.505 661.837 659.024 652.493 640.208
threshold=24.325000000000003 10.075000000000001 41.925000000000004 4.3250000000000011 33.225000000000001 16.915000000000003 48.555000000000007 14.350000000000003 27.350000000000005 23.350000000000005 19.550000000000004 16.350000000000005 16.150000000000002 1006.9500000000002 9.7500000000000018 16.350000000000005 6.0500000000000007 19.245000000000001 51.615000000000002 82.500000000000014
decision_type=2 2 2 2 2 2 2 2 2 2 2 2 2 2 2 2 2 2 2 2
left_child=1 3 4 7 8 11 -4 -1 15 13 14 16 -5 -6 -7 -2 -3 -16 -8 -12
right_child=2 5 6 12 9 10 18 -9 -10 -11 19 -13 -14 -15 17 -17 -18 -19 -20 -21
leaf_value=-0.58656994038567178 -0.18923519451057896 -0.44150119201705867 0.92181222806324925 -0.42367948905889224 -0.090090913972379533 -0.65814008262455592 1.0883137378343051 -0.48652292568084682 0.44069629230752039 0.79397006739781606 0.32241071848051606 -0.024891296759386602 -0.31383849522349655 0.61877173548771058 -0.0050470584027039155 0.30671762613491133 -0.1585906309195195 0.11888002804386473 1.3112350323270954 0.082518902716838816
leaf_weight=4229 30 86 1305 1482 21 19 1417 1881 1233 437 315 712 2243 1257 674 910 2145 1181 145 172
leaf_count=4229 30 86 1305 1482 21 19 1417 1881 1233 437 315 712 2243 1257 674 910 2145 1181 145 172
internal_value=0 -0.32256 0.721682 -0.480691 0.498893 -0.0293424 1.02381 -0.555771 0.375893 0.654738 0.101754 -0.134514 -0.35754 0.607123 0.0664273 0.290887 -0.169498 0.0738522 1.10902 0.237689
internal_weight=0 15139 6755 9835 3888 5304 2867 6110 2173 1715 2361 2943 3725 1278 1874 940 2231 1855 1562 487
internal_count=21894 15139 6755 9835 3888 5304 2867 6110 2173 1715 2361 2943 3725 1278 1874 940 2231 1855 1562 487
is_linear=0
shrinkage=0.1


Tree=11
num_leaves=21
num_cat=0
split_feature=18 18 18 18 18 18 18 9 9 9 18 8 15 8 9 16 18 12 11 11
split_gain=412930 47998.2 44870.8 6745.54 6571.23 4580.05 4446.8 1202.49 1132.38 1056.64 991.31 971.349 962.415 962.019 809.25 763.606 699.012 651.087 843.716 624.905
threshold=21.955000000000002 38.905000000000008 8.1150000000000002 29.355000000000004 15.035000000000002 45.270000000000003 2.2850000000000006 21.650000000000002 29.450000000000003 19.150000000000002 34.195000000000007 19.950000000000003 -0.030120304846908235 13.350000000000003 24.450000000000003 0.91597561503675351 52.555000000000007 -0.82409480842201666 0.85260769842926909 -0.77159520228797418
decision_type=2 2 2 2 2 2 2 2 2 2 2 2 2 2 2 2 2 2 2 2
left_child=2 3 6 11 7 14 -1 -4 -7 -6 -5 12 -2 -8 -3 -16 -10 -11 -19 -9
right_child=1 5 4 10 9 8 13 19 16 17 -12 -13 -14 -15 15 -17 -18 18 -20 -21
leaf_value=-0.52427250593434349 0.11476211090480506 0.39869443375124841 -0.23861954145969749 0.4329432819924387 -0.11577353529715005 0.71345926788402236 -0.40735160058247893 0.011984953465528386 0.97017056234061383 0.14788031014762848 0.57145958660652685 0.35422627539382434 0.27871854071557323 -0.2927459088477577 0.76940365482915118 0.50109241359548873 1.2508463394484368 -0.18776545324934407 0.052836926269451578 -0.15054705349712538
leaf_weight=4548 743 74 1882 1160 403 169 3189 295 1988 609 932 512 691 951 982 119 93 166 1194 1194
leaf_count=4548 743 74 1882 1160 403 169 3189 295 1988 609 932 512 691 951 982 119 93 166 1194 1194
internal_value=0 0.603563 -0.312648 0.369999 -0.0957658 0.878928 -0.456013 -0.185494 0.962499 0.0317535 0.494656 0.235988 0.193769 -0.381026 0.718891 0.740408 0.98272 0.0619486 0.0234681 -0.118346
internal_weight=0 7463 14431 4038 5743 3425 8688 3371 2250 2372 2092 1946 1434 4140 1175 1101 2081 1969 1360 1489
internal_count=21894 7463 14431 4038 5743 3425 8688 3371 2250 2372 2092 1946 1434 4140 1175 1101 2081 1969 1360 1489
is_linear=0
shrinkage=0.1


Tree=12
num_leaves=21
num_cat=0
split_feature=18 18 18 18 18 18 18 18 9 9 9 16 5 9 12 8 8 18 8 10
split_gain=334960 46573.6 30032.9 7185.06 5418.16 3831.68 1362.03 1268.71 1181.57 981.405 908.304 872.124 789.45 764.641 707.828 766.436 702.896 602.017 589.309 585.902
threshold=24.325000000000003 10.905000000000003 42.805000000000007 5.3150000000000004 31.655000000000005 18.285000000000004 0.68500000000000016 49.215000000000011 24.350000000000005 17.250000000000004 10.750000000000002 0.60355339059327384 1013.5500000000001 13.950000000000001 -0.8910065241883679 12.950000000000001 20.550000000000004 35.805000000000007 17.950000000000003 30.800000000000004
decision_type=2 2 2 2 2 2 2 2 2 2 2 2 2 2 2 2 2 2 2 2
left_child=1 3 4 6 16 9 -1 18 12 -3 -7 17 -6 -5 -11 -16 -2 -10 -4 -14
right_child=2 5 7 13 8 10 -8 -9 11 14 -12 -13 19 -15 15 -17 -18 -19 -20 -21
leaf_value=-0.49370186547405637 0.24497527515258397 -0.20497395039018218 0.64058716751125211 -0.35083078781330512 0.03978808789566754 -0.56635816914581261 -0.40356851698038715 0.91213151169524276 0.50193376417200664 0.027808989889345007 0.11101328239377824 0.43703791476677534 0.57455443623689761 -0.23744245149082946 -0.18167976994942017 -0.041402075149628154 0.38701857349946223 0.63546938824077703 0.80710843240054886 0.21884694689779641
leaf_weight=2918 1315 507 263 772 74 20 3942 1336 551 765 1855 566 110 2591 579 1190 474 873 1113 80
leaf_count=2918 1315 507 263 772 74 20 3942 1336 551 765 1855 566 110 2591 579 1190 474 873 1113 80
internal_value=0 -0.261581 0.585252 -0.38321 0.412556 -0.00864826 -0.441909 0.842702 0.51569 -0.0779718 0.103785 0.542062 0.316887 -0.263473 -0.0525606 -0.0873163 0.282612 0.583803 0.775285 0.424802
internal_weight=0 15139 6755 10223 4043 4916 6860 2712 2254 3041 1875 1990 264 3363 2534 1769 1789 1424 1376 190
internal_count=21894 15139 6755 10223 4043 4916 6860 2712 2254 3041 1875 1990 264 3363 2534 1769 1789 1424 1376 190
is_linear=0
shrinkage=0.1


Tree=13
num_leaves=21
num_cat=0
split_feature=18 18 18 18 18 18 18 9 9 15 8 8 3 9 9 8 9 15 15 18
split_gain=271581 35812.4 26002.4 4430.6 4310.42 4179.3 2029.02 940.437 878.09 833.833 809.557 756.676 754.425 706.141 637.382 620.45 588.884 584.407 577.065 557.475
threshold=20.695000000000004 37.32500000000001 7.0050000000000008 28.395000000000003 12.605000000000002 44.775000000000013 2.2850000000000006 29.850000000000005 29.450000000000003 0.50494235051780223 16.450000000000003 16.750000000000004 -7.5499999999999989 17.650000000000002 14.350000000000003 6.5500000000000007 24.450000000000003 0.76663042157996963 0.36570897681179731 52.555000000000007
decision_type=2 2 2 2 2 2 2 2 2 2 2 2 2 2 2 2 2 2 2 2
left_child=2 3 6 10 14 16 -1 9 18 13 17 15 -11 -5 -4 -6 -3 -2 -7 -10
right_child=1 5 4 7 11 8 -8 -9 19 12 -12 -13 -14 -15 -16 -17 -18 -19 -20 -21
leaf_value=-0.42570565234145213 0.060488174739282488 0.32851143165128388 -0.28415515895160359 -0.335041501809627 -0.3693870348979556 0.29895716515141996 -0.32412884599336361 0.43988743875202369 0.78412163190885886 -0.0099351356138923184 0.22704129868580988 0.054191882415831109 0.48041388286336489 0.25462118953529073 -0.16865751702059467 -0.045782739573757794 0.5769400427247301 0.23479052490894736 0.68484313827372223 1.0345711469092891
leaf_weight=4548 783 103 596 21 61 56 3465 1038 2052 35 1078 904 303 610 2410 2053 1304 255 126 93
leaf_count=4548 783 103 596 21 61 56 3465 1038 2052 35 1078 904 303 610 2410 2053 1304 255 126 93
internal_value=0 0.47048 -0.263773 0.267305 -0.1068 0.694821 -0.381782 0.373746 0.777088 0.302891 0.166346 -0.0223785 0.429639 0.234992 -0.191558 -0.0551221 0.558756 0.10331 0.566132 0.794985
internal_weight=0 7857 14037 4123 6024 3734 8013 2007 2327 969 2116 3018 338 631 3006 2114 1407 1038 182 2145
internal_count=21894 7857 14037 4123 6024 3734 8013 2007 2327 969 2116 3018 338 631 3006 2114 1407 1038 182 2145
is_linear=0
shrinkage=0.1


Tree=14
num_leaves=21
num_cat=0
split_feature=18 18 18 18 18 18 9 9 9 9 5 2 9 15 8 3 16 9 13 9
split_gain=220425 31339.9 19195.9 4813.44 3320 2691.86 932.079 881.876 848.745 741.903 1012.92 803.534 700.946 684.269 649.11 662.684 641.88 600.059 584.759 567.541
threshold=24.585000000000004 10.905000000000003 42.805000000000007 4.8450000000000006 32.32500000000001 17.365000000000006 35.050000000000004 14.350000000000003 25.650000000000002 32.350000000000001 1006.9500000000002 -9.5499999999999989 63.45000000000001 0.44436171794418394 15.350000000000003 -4.3499999999999988 0.78656609248549303 10.050000000000002 2020.5000000000002 23.750000000000004
decision_type=2 2 2 2 2 2 2 2 2 2 2 2 2 2 2 2 2 2 2 2
left_child=1 3 4 7 -2 19 -4 -1 17 10 -6 -12 -8 -13 -5 -16 18 -7 -11 -3
right_child=2 5 6 14 9 8 12 -9 -10 16 11 13 -14 -15 15 -17 -18 -19 -20 -21
leaf_value=-0.38778153119053083 0.2411617692818375 -0.1091949348540201 0.60415467573312931 -0.23848762336092652 -0.23470442558284166 -0.53968874560854518 0.73435743218221616 -0.30926031321160324 0.13997283480124084 0.6708702118941704 -0.14392855747693267 0.32763392624970072 0.19010526680267106 0.48645658826930954 -0.29425559186514411 -0.06397777290188307 0.32473403231165543 0.026601161813739393 0.47600047577953775 -0.015477771642706771
leaf_weight=4416 1861 1648 955 3062 27 19 1733 2116 1068 214 28 608 24 490 172 457 189 1194 550 1063
leaf_count=4416 1861 1648 955 3062 27 19 1733 2116 1068 214 28 608 24 490 172 457 189 1194 550 1063
internal_value=0 -0.210474 0.478656 -0.310765 0.338482 -0.00509059 0.683695 -0.362346 0.0749646 0.42448 0.370511 0.385025 0.726924 0.398515 -0.219481 -0.126951 0.48977 0.0177267 0.530592 -0.0724481
internal_weight=0 15215 6679 10223 3967 4992 2712 6532 2281 2106 1153 1126 1757 1098 3691 629 953 1213 764 2711
internal_count=21894 15215 6679 10223 3967 4992 2712 6532 2281 2106 1153 1126 1757 1098 3691 629 953 1213 764 2711
is_linear=0
shrinkage=0.1


Tree=15
num_leaves=21
num_cat=0
split_feature=18 18 18 18 18 18 18 9 5 8 5 3 9 11 8 9 9 16 4 8
split_gain=178761 22291.9 18791.1 4075.49 3344.74 1779.35 1627.12 753.057 659.545 557.882 819.33 754.857 553.868 570.92 544.333 538.287 531.837 474.316 430.486 451.118
threshold=21.665000000000003 40.195000000000007 7.5650000000000004 29.705000000000002 13.865 48.785000000000004 2.6950000000000007 20.950000000000003 1006.2500000000001 23.350000000000005 1009.2500000000001 1.2500000000000002 13.250000000000002 0.49240481012316867 14.750000000000002 33.550000000000004 23.750000000000004 -0.60355339059327384 0.95000000000000007 19.850000000000005
decision_type=2 2 2 2 2 2 2 2 2 2 2 2 2 2 2 2 2 2 2 2
left_child=2 3 6 18 12 8 -1 -6 -3 10 -5 -11 -4 -14 -8 -10 -15 -9 19 -2
right_child=1 5 4 9 7 -7 14 17 15 11 -12 -13 13 16 -16 -17 -18 -19 -20 -21
leaf_value=-0.34373337861226738 0.12350803749293258 0.0504942416926418 -0.25041155969466272 0.093184116789106541 -0.078814715366839525 0.67269529007166806 -0.27020962451165415 0.12782733480413794 0.46775281651045097 0.3150231719480342 0.33418033699739719 0.55907631086978149 -0.068691776051188966 -0.20197532652714406 -0.15772362442945143 0.58175956098192749 -0.087592366348260481 0.01183983216945288 -0.25072859844174855 0.22948021878267297
leaf_weight=4825 1544 29 420 155 762 1496 2940 454 741 265 1571 243 1046 1156 504 940 627 1578 27 543
leaf_count=4825 1544 29 420 155 762 1496 2940 454 741 265 1571 243 1046 1156 504 940 627 1578 27 543
internal_value=0 0.392986 -0.208301 0.245475 -0.0742633 0.59304 -0.306256 0.00596299 0.52335 0.339654 0.312539 0.431774 -0.143254 -0.127345 -0.253749 0.531507 -0.161753 0.0377549 0.145948 0.151081
internal_weight=0 7554 14312 4348 6043 3206 8269 2794 1710 2234 1726 508 3249 2829 3444 1681 1783 2032 2114 2087
internal_count=21866 7554 14312 4348 6043 3206 8269 2794 1710 2234 1726 508 3249 2829 3444 1681 1783 2032 2114 2087
is_linear=0
shrinkage=0.1


Tree=16
num_leaves=21
num_cat=0
split_feature=18 18 18 18 18 18 18 10 18 9 9 11 9 15 3 5 5 9 6 10
split_gain=144948 20027.1 13626.2 2590.34 2421.42 2386.57 1165.07 562.86 547.238 544.435 525.092 527.424 484.968 530.739 469.7 453.39 453.32 449.583 523.184 418.318
threshold=20.695000000000004 37.045000000000009 7.0050000000000008 46.305000000000007 13.865 29.705000000000002 0.96500000000000008 32.95000000000001 50.640000000000008 25.250000000000004 19.050000000000004 -0.81408451933196935 27.350000000000005 0.78298010367706283 -4.9499999999999993 1012.6500000000002 1008.0500000000001 29.050000000000004 825.55000000000007 47.70000000000001
decision_type=2 2 2 2 2 2 2 2 2 2 2 2 2 2 2 2 2 2 2 2
left_child=2 5 6 17 10 12 -1 -8 -5 -6 -4 -12 13 -2 -9 19 -7 18 -3 -11
right_child=1 3 4 8 9 16 7 14 -10 15 11 -13 -14 -15 -16 -17 -18 -19 -20 -21
leaf_value=-0.32556728690255859 0.050868276178616438 -0.17313785910442556 -0.17724679961409159 0.56439033640400249 -0.04317204254389137 0.07677842745703839 -0.26218628119665799 -0.29099112818980183 0.73750128724693509 0.10175990576578067 -0.012370723473080304 -0.12950479917154298 0.173233072202292 0.20788712230216319 -0.11127758135752226 0.0041611632675580632 0.29558842954612191 0.44483824567684538 0.35075665852814569 0.42311306479409966
leaf_weight=3259 1032 20 1539 1914 1476 101 3993 207 202 293 515 1516 1125 272 489 663 1516 1283 404 47
leaf_count=3259 1032 20 1539 1914 1476 101 3993 207 202 293 515 1516 1125 272 489 663 1516 1283 404 47
internal_value=0 0.342865 -0.193565 0.506985 -0.0804665 0.187791 -0.279642 -0.247721 0.580919 -0.00454056 -0.133189 -0.0998034 0.125126 0.0836221 -0.16473 0.0523087 0.281922 0.415332 0.326041 0.146193
internal_weight=0 7869 13997 3823 6049 4046 7948 4689 2116 2479 3570 2031 2429 1304 696 1003 1617 1707 424 340
internal_count=21866 7869 13997 3823 6049 4046 7948 4689 2116 2479 3570 2031 2429 1304 696 1003 1617 1707 424 340
is_linear=0
shrinkage=0.1


Tree=17
num_leaves=21
num_cat=0
split_feature=18 18 18 18 18 18 18 9 8 3 15 18 11 9 11 9 18 6 9 10
split_gain=117408 16222 11059.3 2098.18 1958.7 1752.44 1130.93 468.04 453.016 705.11 501.221 446.665 432.623 414.073 414.211 420.878 388.259 386.159 800.609 379.141
threshold=20.695000000000004 37.045000000000009 7.5650000000000004 46.305000000000007 29.075000000000003 13.865 3.3350000000000004 16.950000000000003 20.350000000000005 -4.5499999999999989 0.78298010367706283 52.555000000000007 -0.95878322595067689 12.850000000000003 0.49240481012316867 23.750000000000004 0.045000000000000005 824.35000000000002 33.250000000000007 29.000000000000004
decision_type=2 2 2 2 2 2 2 2 2 2 2 2 2 2 2 2 2 2 2 2
left_child=2 4 6 17 8 13 16 -7 10 -10 -2 -5 -11 -4 -15 -16 -1 18 -3 -18
right_child=1 3 5 11 -6 7 -8 -9 9 12 -12 -13 -14 14 15 -17 19 -19 -20 -21
leaf_value=-0.31453981435395351 0.058540092335653576 -0.33498549922463805 -0.21338047615054451 0.51253579364617829 0.24818867088439439 -0.13325399483175587 -0.19826684216355026 0.010530366510375255 0.015308996698650754 0.4557281968602494 0.19239735747761103 0.72809415810205291 0.20336378300474758 -0.053381713116598978 -0.16742192478278206 -0.065882987098637671 -0.27099557403487445 0.38553819101963949 0.33932451260595703 -0.18229996313239266
leaf_weight=1730 1443 23 383 2015 1763 252 2930 2227 154 94 347 101 245 1069 1170 627 3036 1609 75 573
leaf_count=1730 1443 23 383 2015 1763 252 2930 2227 154 94 347 101 245 1069 1170 627 3036 1609 75 573
internal_value=0 0.308579 -0.174209 0.456287 0.169012 -0.0674086 -0.24819 -0.0040863 0.107868 0.192749 0.0844899 0.522828 0.273352 -0.115724 -0.102672 -0.131994 -0.275587 0.3738 0.181049 -0.256914
internal_weight=0 7869 13997 3823 4046 5728 8269 2479 2283 493 1790 2116 339 3249 2866 1797 5339 1707 98 3609
internal_count=21866 7869 13997 3823 4046 5728 8269 2479 2283 493 1790 2116 339 3249 2866 1797 5339 1707 98 3609
is_linear=0
shrinkage=0.1


Tree=18
num_leaves=21
num_cat=0
split_feature=18 18 18 18 18 18 8 9 4 16 18 9 2 15 8 0 9 9 11 16
split_gain=95273.8 13886.5 8541.24 2207.76 1646.8 1179.05 641.073 627.157 823.42 662.379 624.292 523.473 503.368 530.574 485.52 485.106 539.141 473.433 528.878 524.807
threshold=24.875000000000004 11.395000000000001 43.215000000000011 3.3350000000000004 30.925000000000004 18.285000000000004 13.250000000000002 31.050000000000004 0.65000000000000002 -0.5 49.645000000000003 19.150000000000002 -10.149999999999997 0.70860043010605911 31.450000000000003 -3.1499999999999999 31.250000000000004 21.350000000000005 -0.77159520228797418 -0.12940952255126037
decision_type=2 2 2 2 2 2 2 2 2 2 2 2 2 2 2 2 2 2 2 2
left_child=1 3 4 -1 11 17 -5 8 12 -9 -4 -2 -6 -14 -11 -8 -17 -3 19 -19
right_child=2 5 10 6 7 -7 15 9 -10 14 -12 -13 13 -15 -16 16 -18 18 -20 -21
leaf_value=-0.24802850058416911 -0.10413275264475846 -0.09118403546598762 0.41649598675733829 -0.1789413790029144 -0.27869194941916847 0.058859377468328339 -0.22037933611888724 0.43750690370849404 -0.43181135742167043 0.28940284899743635 0.51589538624702058 0.15431418420341084 0.19476295014698383 0.34215068572033336 -0.14902562601885555 -0.084164921807179646 0.35215212434885346 0.21143921684725792 -0.037777681051847999 -0.021158775215550076
leaf_weight=5339 83 1119 1654 3542 19 2060 277 358 19 879 1023 1403 793 353 26 1192 29 194 1310 194
leaf_count=5339 83 1119 1654 3542 19 2060 277 358 19 879 1023 1403 793 353 26 1192 29 194 1310 194
internal_value=0 -0.137818 0.316699 -0.203217 0.222915 0.0013619 -0.155748 0.273341 0.22105 0.32236 0.454483 0.139878 0.231701 0.240165 0.276806 -0.100905 -0.0737991 -0.0406846 -0.00740448 0.0951423
internal_weight=0 15256 6610 10379 3933 4877 5040 2447 1184 1263 2677 1486 1165 1146 905 1498 1221 2817 1698 388
internal_count=21866 15256 6610 10379 3933 4877 5040 2447 1184 1263 2677 1486 1165 1146 905 1498 1221 2817 1698 388
is_linear=0
shrinkage=0.1


Tree=19
num_leaves=21
num_cat=0
split_feature=18 18 18 18 18 9 18 11 5 9 16 0 0 5 9 12 8 8 6 16
split_gain=77188.2 9834.62 8221.28 1717.29 1393.12 909.095 829.324 566.438 524.784 477.676 429.025 495.074 602.65 381.616 377.22 371.253 366.798 351.845 512.4 469.457
threshold=21.665000000000003 40.195000000000007 7.6850000000000014 30.925000000000004 15.035000000000002 12.850000000000003 48.785000000000004 -0.41467745240824966 1006.2500000000001 21.650000000000002 0.91597561503675351 12.550000000000002 -2.1499999999999999 1009.4500000000002 9.7500000000000018 -0.91702515554752051 8.9500000000000011 23.350000000000005 824.35000000000002 -0.78656609248549325
decision_type=2 2 2 2 2 2 2 2 2 2 2 2 2 2 2 2 2 2 2 2
left_child=2 3 5 13 9 -1 8 -7 -3 15 -10 12 -12 16 -6 -4 -2 18 -5 -19
right_child=1 6 4 17 14 7 -8 -9 10 -11 11 -13 -14 -15 -16 -17 -18 19 -20 -21
leaf_value=-0.23292845440704923 -0.42307275426918239 -0.078207092195920619 -0.072531223016597118 -0.071470478500199594 -0.33900621378076917 -0.11433644614051133 0.44549510219745114 -0.19349196484819858 0.36858009139126763 -0.043878417331135219 -0.1947735683294527 -0.051023951538595562 0.40107351637625038 0.11991188227246403 0.017842128682556774 -0.15717793047104159 0.029760221497962303 0.46720757982638628 0.21999704911577334 0.2420046757761054
leaf_weight=4299 19 29 982 63 30 1361 1496 2693 1496 1552 20 53 112 2108 2298 1097 303 132 1413 310
leaf_count=4299 19 29 982 63 30 1361 1496 2693 1496 1552 20 53 112 2108 2298 1097 303 132 1413 310
internal_value=0 0.258237 -0.136876 0.160258 -0.0471428 -0.200892 0.391115 -0.166918 0.343537 -0.0858582 0.350814 0.207134 0.310785 0.104424 0.0132421 -0.117196 0.00302797 0.230997 0.207556 0.309269
internal_weight=0 7554 14312 4348 5959 8353 3206 4054 1710 3631 1681 185 132 2430 2328 2079 322 1918 1476 442
internal_count=21866 7554 14312 4348 5959 8353 3206 4054 1710 3631 1681 185 132 2430 2328 2079 322 1918 1476 442
is_linear=0
shrinkage=0.1


Tree=20
num_leaves=21
num_cat=0
split_feature=18 18 18 18 18 18 9 9 9 6 16 0 15 9 8 18 9 11 16 10
split_gain=62727.1 9152.14 5628.22 1598.26 1026.36 731.327 604.618 519.855 480.709 512.155 474.89 462.856 548.409 424.198 406.789 385.08 372.677 403.52 409.001 657.176
threshold=24.875000000000004 11.575000000000001 43.215000000000011 4.6250000000000009 30.925000000000004 18.285000000000004 63.45000000000001 37.45000000000001 31.950000000000003 824.75000000000011 -0.5 -5.4499999999999993 0.53435276464917691 16.350000000000005 31.450000000000003 0.045000000000000005 21.350000000000005 -0.77159520228797418 -0.12940952255126037 29.000000000000004
decision_type=2 2 2 2 2 2 2 2 2 2 2 2 2 2 2 2 2 2 2 2
left_child=1 3 4 15 13 16 7 -4 9 -6 -10 -11 -13 -2 -12 -1 -3 18 -18 -20
right_child=2 5 6 -5 8 -7 -8 -9 10 11 14 12 -14 -15 -16 -17 17 -19 19 -21
leaf_value=-0.23613404958336226 -0.32046583093621533 -0.077307266533225144 0.32846319191507661 -0.1160045057550923 -0.15591972950980137 0.047560955584734568 -0.16557832357646543 0.4169599750232269 0.37292734598447108 -0.18435943767502933 0.2410424949011683 0.15089042140387943 0.28963230495366105 0.12183995840351686 -0.16087820990611967 -0.18076513838902566 0.1925220792611548 -0.028583456751135258 0.20213650408589467 -0.17246039455787335
leaf_weight=1730 22 1072 1318 4143 44 2060 21 1338 314 32 794 792 445 1464 26 4587 190 1282 81 111
leaf_count=1730 22 1072 1318 4143 44 2060 21 1338 314 32 794 792 445 1464 26 4587 190 1282 81 111
internal_value=0 -0.111826 0.256974 -0.164273 0.180844 0.00255813 0.36882 0.373046 0.220653 0.17946 0.268347 0.19109 0.200804 0.11529 0.228297 -0.195929 -0.0313256 -0.00170243 0.088509 -0.0144246
internal_weight=0 15256 6610 10460 3933 4796 2677 2656 2447 1313 1134 1269 1237 1486 820 6317 2736 1664 382 192
internal_count=21866 15256 6610 10460 3933 4796 2677 2656 2447 1313 1134 1269 1237 1486 820 6317 2736 1664 382 192
is_linear=0
shrinkage=0.1


Tree=21
num_leaves=21
num_cat=0
split_feature=18 18 18 9 0 9 8 18 9 10 12 11 3 16 8 9 11 5 8 12
split_gain=50809 7419.72 4606.09 1425 810.112 1067.21 645.728 615.106 603.976 740.077 726.899 610.268 565.222 541.694 474.662 438.163 473.93 433.431 424.184 394.758
threshold=24.875000000000004 11.915000000000001 40.195000000000007 16.650000000000002 1.0000000180025095e-35 31.250000000000004 19.550000000000004 49.695000000000007 24.950000000000003 29.000000000000004 -0.95368063612909437 0.82409480842201666 -2.2499999999999996 -0.78656609248549325 5.9500000000000011 29.850000000000005 0.55191596924288688 1011.35 15.15 -0.94828754594723497
decision_type=2 2 2 2 2 2 2 2 2 2 2 2 2 2 2 2 2 2 2 2
left_child=1 3 8 -1 -5 18 14 -4 10 -10 17 -12 -8 -11 -3 -14 -17 -2 -6 -16
right_child=2 6 7 4 5 -7 12 -9 9 13 11 -13 15 -15 19 16 -18 -19 -20 -21
leaf_value=-0.17512453773608827 -0.071458197557198053 -0.31172270915208244 0.28911978890758872 -0.17193023340729202 -0.10077654404203618 0.52181516018800145 -0.018328836998719868 0.38540706623608462 0.55388916451555603 0.26043247297568634 -0.32916504758799586 0.023454862408357886 0.099068986056899011 0.14350101004458826 0.036500479110390213 0.69808562046309142 0.21836624202196916 0.19634964013622541 -0.013083552997205603 -0.030990860107324821
leaf_weight=6634 72 52 2268 1112 2093 30 298 938 50 488 61 251 338 2106 1327 26 99 376 749 2498
leaf_count=6634 72 52 2268 1112 2093 30 298 938 50 488 61 251 338 2106 1327 26 99 376 749 2498
internal_value=0 -0.100644 0.231276 -0.146735 -0.0994613 -0.0714017 0.00487492 0.317292 0.150263 0.172847 0.0716948 -0.0454946 0.0890943 0.1655 -0.0116563 0.158234 0.318195 0.153308 -0.0776655 -0.00757616
internal_weight=0 15256 6610 10618 3984 2872 4638 3206 3404 2644 760 312 761 2594 3877 463 125 448 2842 3825
internal_count=21866 15256 6610 10618 3984 2872 4638 3206 3404 2644 760 312 761 2594 3877 463 125 448 2842 3825
is_linear=0
shrinkage=0.1


Tree=22
num_leaves=21
num_cat=0
split_feature=18 18 18 9 9 12 18 6 15 9 5 10 8 10 8 12 5 10 7 8
split_gain=41390.9 5851.3 4196.48 891.239 800.564 778.584 574.374 569.837 596.54 562.798 489.32 509.785 445.08 427.199 423.978 385.26 380.529 357.15 421.515 368.725
threshold=20.695000000000004 36.215000000000011 6.3950000000000005 32.850000000000001 23.750000000000004 -0.89490028524376741 29.075000000000003 825.25000000000011 0.44436171794418394 15.850000000000003 1012.6500000000002 47.70000000000001 8.4500000000000011 90.000000000000014 16.650000000000002 -0.6560590289905075 1006.6500000000002 28.600000000000005 90.500000000000014 15.050000000000002
decision_type=2 2 2 2 2 2 2 2 2 2 2 2 2 2 2 2 2 2 2 2
left_child=2 6 12 7 5 9 -2 14 -9 -4 11 -6 -1 -5 -3 -14 -8 18 -11 -19
right_child=1 3 4 13 10 -7 16 8 -10 17 -12 -13 15 -15 -16 -17 -18 19 -20 -21
leaf_value=-0.17610678244603695 0.063784562251464588 -0.47818721657694091 -0.094109487941069422 0.30538252271551564 0.047028124496164114 -0.1075298729028495 -0.14486296914731417 0.14432633094876632 0.28269346398376682 0.096484155584729323 -0.027888717920072931 0.34505955450888082 -0.082252620756012029 -0.11838030170369968 0.090528031581016577 -0.15261013149013489 0.15006422325542521 -0.13411328822793719 -0.12911250356680759 0.032108968655579918
leaf_weight=4154 2283 20 695 2649 644 2380 45 610 637 603 1449 63 1218 24 38 2156 1563 243 96 296
leaf_count=4154 2283 20 695 2649 644 2380 45 610 637 603 1449 63 1218 24 38 2156 1563 243 96 296
internal_value=0 0.18322 -0.103435 0.268504 -0.0443674 -0.0692395 0.0960297 0.200758 0.21501 -0.0220943 0.0053885 0.0735899 -0.154193 0.301577 -0.105626 -0.127212 0.14181 0.0183346 0.0654994 -0.0428307
internal_weight=0 7869 13997 3978 6469 4313 3891 1305 1247 1933 2156 707 7528 2673 58 3374 1608 1238 699 539
internal_count=21866 7869 13997 3978 6469 4313 3891 1305 1247 1933 2156 707 7528 2673 58 3374 1608 1238 699 539
is_linear=0
shrinkage=0.1


Tree=23
num_leaves=21
num_cat=0
split_feature=18 18 18 18 9 10 9 15 4 8 12 12 12 8 6 12 9 10 0 3
split_gain=33526.6 4739.56 3399.15 802.376 690.811 635.696 533.014 500.217 478.027 438.848 435.193 444.675 424.435 408.973 499.512 531.495 552.839 381.95 420.017 374.247
threshold=20.695000000000004 36.215000000000011 6.3950000000000005 48.555000000000007 21.650000000000002 85.500000000000014 26.350000000000005 0.84750952922804634 1.0000000180025095e-35 16.250000000000004 0.98624804680367306 -0.99961926108774335 -0.89490028524376741 27.050000000000004 825.05000000000007 -0.99353402350479747 30.550000000000004 28.600000000000005 1.0000000180025095e-35 -2.7499999999999996
decision_type=2 2 2 2 2 2 2 2 2 2 2 2 2 2 2 2 2 2 2 2
left_child=2 6 17 5 12 13 7 8 -2 -10 11 -8 -4 14 15 -3 -17 -1 -19 -6
right_child=1 3 4 -5 19 -7 10 -9 9 -11 -12 -13 -14 -15 -16 16 -18 18 -20 -21
leaf_value=-0.14980823884296418 0.027567350952430982 -0.49362863706455223 -0.035433515740824574 0.29724605161190637 -0.060929117528727789 -0.37063937007812531 0.3714098137107737 0.15918809176545065 -0.46448441500630749 0.044203258237699675 0.17826744394181721 0.076900276157827477 -0.10653174224824975 0.31083281559577047 0.20493193449146194 -0.3279457632570475 0.22813473629685244 -0.17701701828194216 -0.058564761876785734 0.015926020983182389
leaf_weight=6071 1160 19 1661 1571 886 19 53 286 39 30 762 1561 1698 344 1931 24 70 421 1036 2224
leaf_count=6071 1160 19 1661 1571 886 19 53 286 39 30 762 1561 1698 344 1931 24 70 421 1036 2224
internal_value=0 0.164898 -0.0930912 0.241653 -0.0399306 0.205368 0.0864267 0.0400756 0.0123559 -0.243339 0.115981 0.0865735 -0.0713744 0.209953 0.192973 -0.0113794 0.0861364 -0.138773 -0.0927926 -0.00596913
internal_weight=0 7869 13997 3978 6469 2407 3891 1515 1229 69 2376 1614 3359 2388 2044 113 94 7528 1457 3110
internal_count=21866 7869 13997 3978 6469 2407 3891 1515 1229 69 2376 1614 3359 2388 2044 113 94 7528 1457 3110
is_linear=0
shrinkage=0.1


Tree=24
num_leaves=21
num_cat=0
split_feature=18 18 18 9 8 9 5 10 9 10 16 0 9 12 8 13 9 6 15 8
split_gain=27229 4077.52 2615.11 873.309 749.144 580.144 486.626 483.716 772.333 513.392 495.422 421.021 515.385 418.466 415.8 413.276 409.461 389.178 402.75 351.484
threshold=24.875000000000004 11.915000000000001 43.215000000000011 13.050000000000002 30.050000000000004 19.150000000000002 1018.9500000000002 26.100000000000005 25.250000000000004 29.000000000000004 -0.78656609248549325 0.65000000000000002 21.950000000000003 0.98624804680367306 19.550000000000004 2021.5000000000002 63.45000000000001 825.85000000000002 0.93834263341299773 5.9500000000000011
decision_type=2 2 2 2 2 2 2 2 2 2 2 2 2 2 2 2 2 2 2 2
left_child=1 3 5 -1 11 6 -2 -7 17 -10 -11 -5 -13 -12 19 -16 -4 -9 -19 -3
right_child=2 14 16 4 -6 7 -8 8 9 10 13 12 -14 -15 15 -17 -18 18 -20 -21
leaf_value=-0.1398052701637702 -0.23466534811587231 -0.26693154677728315 0.24902641370797612 -0.12919053561414315 0.528724753510592 0.26427252487942066 0.18638840325696499 -0.43050929229828339 0.49476850001752287 0.21400261410333302 0.082176520102203401 -0.084820264740408879 0.0035726687945829057 0.17091902946759918 0.14287712212117484 -0.0046305045350580904 -0.19420980012283418 -0.016727316635355659 0.24532898787610335 -0.0052077096983428562
leaf_weight=4736 83 52 2656 1535 20 232 41 20 39 566 1681 3515 812 777 396 365 21 426 68 3825
leaf_count=4736 83 52 2656 1535 20 232 41 20 39 566 1681 3515 812 777 396 365 21 426 68 3825
internal_value=0 -0.0736761 0.169309 -0.107844 -0.08211 0.117416 -0.0954414 0.124345 0.115269 0.134304 0.129653 -0.084195 -0.0682326 0.11023 0.00454671 0.0721284 0.245549 0.00183689 0.0193491 -0.00871875
internal_weight=0 15256 6610 10618 5882 3933 124 3809 3577 3063 3024 5862 4327 2458 4638 761 2677 514 494 3877
internal_count=21866 15256 6610 10618 5882 3933 124 3809 3577 3063 3024 5862 4327 2458 4638 761 2677 514 494 3877
is_linear=0
shrinkage=0.1


Tree=25
num_leaves=21
num_cat=0
split_feature=18 18 18 9 9 6 9 12 6 11 9 6 3 8 15 4 12 15 8 6
split_gain=22235.1 3701.07 1808.74 618.78 560.518 453.908 451.947 614.176 621.184 557.465 725.734 394.078 380.145 744.014 562.27 494.296 427.113 379.583 369.655 366.465
threshold=18.765000000000004 36.215000000000011 6.3950000000000005 31.050000000000004 9.7500000000000018 825.25000000000011 26.350000000000005 -0.94828754594723497 840.05000000000007 -0.98321746822993583 25.250000000000004 826.75000000000011 -3.5499999999999994 25.950000000000003 0.51972456038539816 1.0000000180025095e-35 -0.99140711019144601 0.74982640120456845 17.150000000000002 828.1500000000002
decision_type=2 2 2 2 2 2 2 2 2 2 2 2 2 2 2 2 2 2 2 2
left_child=2 4 -1 5 -2 18 7 9 -9 -6 11 -11 16 14 15 -14 -8 -7 -3 -13
right_child=1 3 -4 -5 6 17 12 8 -10 10 -12 19 13 -15 -16 -17 -18 -19 -20 -21
leaf_value=-0.11306737768031012 -0.47752379338186696 -0.50645605261894866 -0.038866918233419867 0.21855896222095017 0.020689842921633332 0.091125874396788306 -0.22759812271140484 -0.052872718883323878 0.24914556595444715 0.48982440347728418 0.72058466974950419 -0.31477722735178759 0.077117870277946476 0.5625366018568716 0.26200226891700695 0.3567035844008537 0.056341690991960902 0.22529922769394287 0.087446440863976169 0.13679929701354801
leaf_weight=7528 19 20 5829 3032 557 569 57 853 74 30 23 19 1505 37 213 66 749 335 22 329
leaf_count=7528 19 20 5829 3032 557 569 57 853 74 30 23 19 1505 37 213 66 749 335 22 329
internal_value=0 0.126142 -0.0806863 0.196529 0.0643461 0.125918 0.0666289 0.0292663 -0.0287609 0.0854157 0.175319 0.142123 0.0934381 0.118746 0.109539 0.0888659 0.0362589 0.140849 -0.195414 0.112136
internal_weight=0 8509 13357 3978 4531 946 4512 1885 927 958 401 378 2627 1821 1784 1571 806 904 42 348
internal_count=21866 8509 13357 3978 4531 946 4512 1885 927 958 401 378 2627 1821 1784 1571 806 904 42 348
is_linear=0
shrinkage=0.1


Tree=26
num_leaves=21
num_cat=0
split_feature=18 18 9 3 8 18 8 8 10 18 7 8 13 15 11 9 12 11 16 1
split_gain=18010.5 3008.91 1539.82 590.981 847.944 482.129 464.232 419.578 418.352 406.336 383.808 346.547 329.526 517.931 347.946 473.646 459.12 401.277 353.054 626.831
threshold=18.765000000000004 37.045000000000009 16.850000000000005 -3.1499999999999999 19.450000000000003 49.645000000000003 6.1500000000000012 40.350000000000001 50.600000000000001 29.075000000000003 10.500000000000002 26.350000000000005 2021.5000000000002 -0.20089055513063514 -0.89490028524376741 32.45000000000001 -0.99140711019144601 0.92384435400961407 0.78656609248549303 49.500000000000007
decision_type=2 2 2 2 2 2 2 2 2 2 2 2 2 2 2 2 2 2 2 2
left_child=2 6 -1 -4 10 7 -2 11 -6 -8 -5 -3 14 -14 16 17 -11 -16 -17 -20
right_child=1 5 3 4 8 -7 9 -9 -10 12 -12 -13 13 -15 15 18 -18 -19 19 -21
leaf_value=-0.10453947612283372 -0.43335482542938752 0.14238182840953026 -0.086795458983324178 -0.049942357448694311 0.11865223748156786 0.23811731577645087 0.038855365341151929 -0.29839090415406216 0.60482559487360843 0.12546860733213896 0.013412665776733676 0.22749660842526087 0.17185449970291508 -0.017322457571477375 -0.13469241112627822 0.25472305241648069 0.36304184109487536 0.084299490215933956 -0.36509573711704779 0.27373130241208865
leaf_weight=7090 19 2166 1702 2850 257 1023 2906 20 19 212 1439 614 214 447 109 225 132 360 28 34
leaf_count=7090 19 2166 1702 2850 257 1023 2906 20 19 212 1439 614 214 447 109 225 132 360 28 34
internal_value=0 0.113528 -0.0726177 -0.0365038 -0.017753 0.179364 0.0598167 0.157898 0.152141 0.0618254 -0.0286861 0.161181 0.0997299 0.0439254 0.133263 0.0953219 0.216638 0.0334018 0.196504 -0.0147816
internal_weight=0 8509 13357 6267 4565 3823 4686 2800 276 4667 4289 2780 1761 661 1100 756 344 469 287 62
internal_count=21866 8509 13357 6267 4565 3823 4686 2800 276 4667 4289 2780 1761 661 1100 756 344 469 287 62
is_linear=0
shrinkage=0.1


Tree=27
num_leaves=21
num_cat=0
split_feature=18 18 18 18 9 12 10 11 12 11 5 18 11 11 16 4 9 15 6 13
split_gain=14593.6 2557.51 1304.93 560.323 343.836 419.334 474.577 567.472 460.192 401.959 389.061 342.836 322.577 448.634 317.454 498.158 595.34 361.236 314.619 305.108
threshold=26.115000000000006 11.395000000000001 43.215000000000011 1.4650000000000001 27.850000000000005 -0.89490028524376741 17.450000000000006 -0.98624804680367273 0.90992662233962551 -0.99901018088683469 1022.85 53.875000000000007 -0.14780378300014815 0.8869770585236475 -0.70710678118654757 0.75000000000000011 33.550000000000004 0.91925191855388755 830.1500000000002 2021.5000000000002
decision_type=2 2 2 2 2 2 2 2 2 2 2 2 2 2 2 2 2 2 2 2
left_child=1 3 14 -1 5 6 -3 18 -7 -6 -9 -4 -5 -14 -2 -16 -17 -18 -8 -11
right_child=2 4 11 12 9 8 7 10 -10 19 -12 -13 13 -15 15 16 17 -19 -20 -21
leaf_value=-0.11163418093523043 0.14146261247925404 -0.1478139349860538 0.1764114386151947 -0.036663652617648153 0.45501049246864844 -0.10421633324507483 -0.14935594920106773 0.081470209481894151 -0.006867661204062534 0.084538143841279501 0.32255290641661322 0.44336580285958382 -0.11895495465678184 -0.051010116088256389 0.079546969736955797 -0.66530595314394148 0.21878746286951045 -0.29038623004750319 0.014351612201982018 -0.014043006994992866
leaf_weight=3752 879 140 2628 2700 24 714 146 701 1518 728 74 49 1766 2161 2660 19 30 26 599 552
leaf_count=3752 879 140 2628 2700 24 714 146 701 1518 728 74 49 1766 2161 2660 19 30 26 599 552
internal_value=0 -0.0520832 0.128381 -0.0807547 0.00518822 -0.00970173 0.0283597 0.0445871 -0.0380091 0.0496295 0.104494 0.181299 -0.0632716 -0.0815656 0.089183 0.0723804 -0.181768 -0.0176222 -0.0177321 0.0420252
internal_weight=0 15575 6291 10379 5196 3892 1660 1520 2232 1304 775 2677 6627 3927 3614 2735 75 56 745 1280
internal_count=21866 15575 6291 10379 5196 3892 1660 1520 2232 1304 775 2677 6627 3927 3614 2735 75 56 745 1280
is_linear=0
shrinkage=0.1


Tree=28
num_leaves=21
num_cat=0
split_feature=18 18 9 0 10 18 9 6 15 8 9 12 12 11 0 9 13 16 14 5
split_gain=11879.3 2088.85 1047.14 527.492 625.943 392.667 379.625 419.473 442.543 371.421 317.828 526.86 567.402 543.096 401.698 375.936 334.332 489.837 407.439 541.206
threshold=18.285000000000004 37.045000000000009 17.450000000000003 -1.3499999999999999 50.600000000000001 17.365000000000006 32.850000000000001 825.25000000000011 0.44436171794418394 6.0500000000000007 29.650000000000002 -0.94828754594723497 -0.98624804680367273 0.85260769842926909 15.050000000000002 23.850000000000005 2021.5000000000002 0.60355339059327384 -0.24999999999999994 1016.5500000000001
decision_type=2 2 2 2 2 2 2 2 2 2 2 2 2 2 2 2 2 2 2 2
left_child=2 9 -1 5 -5 -4 7 -3 -9 -2 11 12 -11 -13 15 -14 17 -12 19 -18
right_child=1 6 3 4 -6 -7 -8 8 -10 10 16 13 14 -15 -16 -17 18 -19 -20 -21
leaf_value=-0.084466242733362937 -0.39396168615473942 -0.16991303275409358 -0.095421241612644953 -0.015278171744844887 0.36372846181464369 0.22302122979208561 0.16757730320663042 0.048515711459891579 0.1720881559954078 0.040110718222459672 0.16835957664820944 -0.13869463029248244 0.14836229662423858 0.017200944255501841 -0.017376197975793938 0.39755853561201082 0.096968699312813544 0.020053647077803733 -0.011639891930938576 0.62328574401615677
leaf_weight=7493 19 55 1204 4415 44 40 2607 558 603 963 685 262 143 1519 70 105 174 330 555 22
leaf_count=7493 19 55 1204 4415 44 40 2607 558 603 963 685 262 143 1519 70 105 174 330 555 22
internal_value=0 0.0907871 -0.0598906 -0.0276013 -0.0115374 -0.0851802 0.146056 0.0999138 0.112698 0.0471947 0.0489316 0.0294462 0.0783565 -0.00573317 0.194171 0.253881 0.0827162 0.120143 0.0321322 0.156074
internal_weight=0 8670 13196 5703 4459 1244 3823 1216 1161 4847 4828 3062 1281 1781 318 248 1766 1015 751 196
internal_count=21866 8670 13196 5703 4459 1244 3823 1216 1161 4847 4828 3062 1281 1781 318 248 1766 1015 751 196
is_linear=0
shrinkage=0.1


Tree=29
num_leaves=21
num_cat=0
split_feature=18 18 18 18 16 6 1 0 11 2 9 12 5 12 11 6 4 11 9 10
split_gain=9671.31 1951.33 708.77 373.69 329.179 479.21 336.967 496.997 580.507 313.348 313.228 414.463 692.151 512.881 454.942 380.106 334.61 461.699 298.514 371.195
threshold=28.125000000000004 10.075000000000001 46.635000000000012 0.045000000000000005 0.78656609248549303 836.05000000000007 52.500000000000007 -1.7499999999999998 0.98897820466835418 -6.7499999999999991 19.150000000000002 -0.89490028524376741 1006.9500000000002 0.94260559819261258 -0.98321746822993583 823.6500000000002 0.25000000000000006 0.68832836526074759 26.050000000000004 26.100000000000005
decision_type=2 2 2 2 2 2 2 2 2 2 2 2 2 2 2 2 2 2 2 2
left_child=1 3 4 -1 18 6 9 -8 -9 -6 -3 12 -12 16 15 -14 -13 -18 19 -2
right_child=2 10 -4 -5 5 -7 7 8 -10 -11 11 13 14 -15 -16 -17 17 -19 -20 -21
leaf_value=-0.11039780850124939 0.18147543305635899 -0.040669969038143697 0.15771763629285482 -0.059146694624026254 0.26832213939779848 -0.17331629475578531 -0.077383198459437655 0.10002473759170026 0.43033956688505043 -0.11296061117580036 -0.24180551862202626 -0.06376634062257508 -0.30971158627422291 0.02524941692890428 0.14411783706154033 0.041436272740002056 -0.18811676059372701 0.43781669903957321 0.11525688390452192 -0.011779020928721261
leaf_weight=1730 130 1296 2044 8009 25 103 124 342 63 156 73 1264 32 2197 560 834 19 31 2412 422
leaf_count=1730 130 1296 2044 8009 25 103 124 342 63 156 73 1264 32 2197 560 834 19 31 2412 422
internal_value=0 -0.0401891 0.110284 -0.0682509 0.0846137 0.0282445 0.0574872 0.0977841 0.151416 -0.0602851 0.00314958 0.014485 0.0585037 -0.00430857 0.0738788 0.0284574 -0.0537292 0.19997 0.100075 0.033736
internal_weight=0 16045 5821 9739 3777 813 710 529 405 181 6306 5010 1499 3511 1426 866 1314 50 2964 552
internal_count=21866 16045 5821 9739 3777 813 710 529 405 181 6306 5010 1499 3511 1426 866 1314 50 2964 552
is_linear=0
shrinkage=0.1


Tree=30
num_leaves=21
num_cat=0
split_feature=18 9 9 5 10 0 7 9 10 16 11 6 16 1 13 11 0 18 6 9
split_gain=7836.81 1569.18 606.26 650.676 597.169 555.953 524.121 862.808 422.716 442.952 404.674 382.078 379.407 422.017 357.582 347.194 341.567 372.306 324.27 323.677
threshold=27.145000000000003 19.050000000000004 26.250000000000004 1012.35 29.000000000000004 0.65000000000000002 35.500000000000007 33.750000000000007 20.700000000000003 -0.5 0.9482875459472353 830.95000000000016 0.78656609248549303 42.500000000000007 2021.5000000000002 -0.18222858652173754 2.2500000000000004 44.415000000000006 831.35000000000002 9.2500000000000018
decision_type=2 2 2 2 2 2 2 2 2 2 2 2 2 2 2 2 2 2 2 2
left_child=1 15 3 -2 -4 18 7 8 11 -10 -11 -7 -6 -14 -9 19 17 -15 -3 -1
right_child=2 5 4 -5 12 6 -8 14 9 10 -12 -13 13 16 -16 -17 -18 -19 -20 -21
leaf_value=-0.086301804303316507 -0.13638424299064067 -0.076195494805871844 0.46959106359203073 0.067353259238450189 0.12166730871351771 0.56039828873590491 0.082713259658260346 0.47302959538096767 0.040253233030275948 -0.060318997360304084 0.019208843988753915 0.071773242549287505 -0.084672002149171227 -0.077416330824917362 -0.0052356384614870985 -0.082578498521156452 0.13677573226162271 0.12470047619924018 0.014923091801036577 -0.024566124375302006
leaf_weight=1206 201 1265 46 712 4031 24 961 54 1229 1786 997 48 181 210 22 4766 503 161 565 2871
leaf_count=1206 201 1265 46 712 4031 24 961 54 1229 1786 997 48 181 210 22 4766 503 161 565 2871
internal_value=0 -0.0363063 0.0975817 0.0224987 0.110939 -0.000754006 0.0161521 0.000775646 -0.00543732 -0.00974751 -0.0318284 0.234703 0.107694 0.0543054 0.3346 -0.0642519 0.0830876 0.0102954 -0.0480633 -0.0428281
internal_weight=0 15794 6045 913 5132 6951 5121 4160 4084 4012 2783 72 5086 1055 76 8843 874 371 1830 4077
internal_count=21839 15794 6045 913 5132 6951 5121 4160 4084 4012 2783 72 5086 1055 76 8843 874 371 1830 4077
is_linear=0
shrinkage=0.1


Tree=31
num_leaves=21
num_cat=0
split_feature=18 18 9 0 6 10 11 0 5 9 12 18 1 9 15 11 9 12 3 0
split_gain=6371.95 1097.03 763.224 530.427 507.96 397.109 376.741 422.919 346.46 430.794 368.011 445.045 331.47 509.258 414.488 402.242 391.988 586.678 375.178 368.581
threshold=19.485000000000003 35.345000000000006 21.650000000000002 3.7500000000000004 828.1500000000002 49.150000000000006 -0.46173103126271869 7.1500000000000012 1010.35 61.45000000000001 -0.98897820466835384 42.390000000000008 95.500000000000014 19.650000000000002 0.34157076916785584 0.99140711019144623 32.350000000000001 0.87878364999916159 -2.9499999999999997 -2.9499999999999997
decision_type=2 2 2 2 2 2 2 2 2 2 2 2 2 2 2 2 2 2 2 2
left_child=2 12 6 -4 -5 -6 7 -1 10 -10 11 -3 14 -14 16 18 -2 -18 -16 -17
right_child=1 8 3 4 5 -7 -8 -9 9 -11 -12 -13 13 -15 15 19 17 -19 -20 -21
leaf_value=0.010562546984968862 0.0025630198055959512 -0.39897553624225057 -0.048416057927879945 0.31208845305637478 0.017902248593625814 0.38451960978107036 -0.070469953253457215 -0.056337511280214136 0.12335743112624105 -0.25721761918829333 0.086808422229896293 -0.003500409212493367 -0.47628363617726327 -0.020578743350154471 0.010644586346510257 0.068936017349985806 0.5364947119053316 0.073743108683096414 0.13246959384325441 0.45975056176305834
leaf_weight=1514 2085 35 1352 63 1908 30 6202 2514 3360 30 502 152 26 429 470 43 29 493 547 55
leaf_count=1514 2085 35 1352 63 1908 30 6202 2514 3360 30 502 152 26 429 470 43 29 493 547 55
internal_value=0 0.0699624 -0.0414337 -2.8951e-05 0.0326644 0.0235794 -0.0550045 -0.0311919 0.10685 0.119989 0.0422031 -0.0775373 0.0339402 -0.0466289 0.0437895 0.0948164 0.0219653 0.0994612 0.0761697 0.288296
internal_weight=0 8256 13583 3353 2001 1938 10230 4028 4079 3390 689 187 4177 455 3722 1115 2607 522 1017 98
internal_count=21839 8256 13583 3353 2001 1938 10230 4028 4079 3390 689 187 4177 455 3722 1115 2607 522 1017 98
is_linear=0
shrinkage=0.1


Tree=32
num_leaves=21
num_cat=0
split_feature=9 18 12 0 10 18 10 11 10 16 12 2 10 18 8 10 6 16 3 6
split_gain=5216.6 1223.92 751.275 602.763 627.881 587.549 432.427 431.528 419.148 879.809 517.608 419.065 396.563 498.552 375.056 678.203 366.032 340.47 441.45 344.689
threshold=24.350000000000005 31.655000000000005 -0.89490028524376741 1.0500000000000003 57.400000000000013 9.6450000000000014 29.000000000000004 0.87878364999916159 27.200000000000003 -0.37940952255126015 -0.97233289553061575 0.75000000000000011 35.45000000000001 33.515000000000008 13.050000000000002 33.650000000000006 836.55000000000007 0.37940952255126048 15.550000000000002 834.1500000000002
decision_type=2 2 2 2 2 2 2 2 2 2 2 2 2 2 2 2 2 2 2 2
left_child=2 3 5 16 -5 -1 -3 -4 11 10 -10 -7 13 -11 15 -8 -2 -9 -19 -20
right_child=1 6 7 4 -6 8 14 17 9 12 -12 -13 -14 -15 -16 -17 -18 18 19 -21
leaf_value=-0.039354419718821559 -0.042566967670743798 0.32570469027381632 -0.077689809860779155 0.041093891447372216 0.39860973977929143 0.12337070587109307 0.067783812561027071 -0.048311937364039131 0.018876024455780516 -0.12507319851125617 0.30512409505060356 0.010196860313554856 -0.2940040747916145 0.30474283064683638 0.096501138701005018 -0.40513817974673905 0.23563251882194575 -0.0019139361567847187 0.38104883903832037 0.0048964922068201848
leaf_weight=2700 1351 80 4759 2772 50 645 109 2625 374 208 76 664 117 31 4406 42 49 681 58 42
leaf_count=2700 1351 80 4759 2772 50 645 109 2625 374 208 76 664 117 31 4406 42 49 681 58 42
internal_value=0 0.0597698 -0.0397662 0.0208164 0.0474297 -0.00843746 0.0952368 -0.0582411 0.0310309 -0.0257011 0.0672259 0.065963 -0.143164 -0.0693124 0.0911901 -0.0637743 -0.0328283 -0.0310664 0.026897 0.223082
internal_weight=0 8859 12980 4222 2822 4815 4637 8165 2115 806 450 1309 356 239 4557 151 1400 3406 781 100
internal_count=21839 8859 12980 4222 2822 4815 4637 8165 2115 806 450 1309 356 239 4557 151 1400 3406 781 100
is_linear=0
shrinkage=0.1


Tree=33
num_leaves=21
num_cat=0
split_feature=9 12 18 9 10 16 11 9 10 1 15 9 18 10 13 11 18 8 18 10
split_gain=4279.31 790.343 774.42 736.894 589.836 599.174 572.026 555.234 547.259 522.422 711.433 586.969 507.452 378.425 389.945 358.942 356.702 356.502 354.185 353.206
threshold=26.250000000000004 -0.91702515554752051 35.805000000000007 19.150000000000002 26.800000000000004 -0.37940952255126015 0.87878364999916159 24.850000000000005 35.45000000000001 74.500000000000014 0.59818091440591625 33.750000000000007 33.515000000000008 20.700000000000003 2020.5000000000002 0.85260769842926909 29.355000000000004 9.6500000000000004 27.825000000000003 33.650000000000006
decision_type=2 2 2 2 2 2 2 2 2 2 2 2 2 2 2 2 2 2 2 2
left_child=1 3 9 -1 7 -6 16 13 12 10 11 -2 17 -5 -15 -13 -3 -7 -10 -4
right_child=2 6 19 4 5 8 -8 -9 18 -11 -12 15 -14 14 -16 -17 -18 -19 -20 -21
leaf_value=-0.029869787864401698 0.026417178914929597 -0.068916873145369581 0.25279962949435919 0.28443161276186218 0.073075976142333923 -0.35607734264922059 -0.021333521761730274 0.50338459893362453 -0.1292651079666306 -0.0096621760100099284 0.27830701081832093 0.59264747890587277 0.23322857323837801 0.19562568383091955 0.016962562221330021 0.15246472076848425 -0.34000320416517676 -0.016239900196726338 -0.4464462579258312 0.088006744981227764
leaf_weight=3128 1707 5063 135 96 631 35 4088 36 150 1788 144 20 76 174 410 250 49 261 46 3552
leaf_count=3128 1707 5063 135 96 631 35 4088 36 150 1788 144 20 76 174 410 250 49 261 46 3552
internal_value=0 -0.0317771 0.0611644 3.96586e-05 0.0488943 0.00600675 -0.0492176 0.120712 -0.0685013 0.0301544 0.0637196 0.0480883 0.00274856 0.100446 0.0701969 0.185091 -0.071516 -0.0564341 -0.203725 0.0940413
internal_weight=0 14243 7596 5043 1915 1199 9200 716 568 3909 2121 1977 372 680 584 270 5112 296 196 3687
internal_count=21839 14243 7596 5043 1915 1199 9200 716 568 3909 2121 1977 372 680 584 270 5112 296 196 3687
is_linear=0
shrinkage=0.1


Tree=34
num_leaves=21
num_cat=0
split_feature=9 18 11 8 0 10 15 10 10 8 10 6 1 0 6 11 18 12 12 16
split_gain=3484.87 825.509 478.212 414.127 369.184 364.943 510.96 360.523 354.958 463.697 648.887 314.568 313.15 436.963 324.959 312.911 300.171 276.328 274.779 271.707
threshold=23.850000000000005 28.125000000000004 -0.49240481012316833 7.1500000000000012 1.0500000000000003 26.100000000000005 0.18399153619612912 61.750000000000007 29.000000000000004 12.850000000000003 33.650000000000006 836.55000000000007 99.500000000000014 5.7500000000000009 828.05000000000007 0.87032255546191739 41.045000000000009 -0.96811077628253239 -0.8910065241883679 -0.12940952255126037
decision_type=2 2 2 2 2 2 2 2 2 2 2 2 2 2 2 2 2 2 2 2
left_child=2 4 3 -1 11 6 -6 -7 17 10 16 -2 13 18 -15 -4 -10 -3 -5 -17
right_child=1 8 15 12 5 7 -8 -9 9 -11 -12 -13 -14 14 -16 19 -18 -19 -20 -21
leaf_value=-0.060916533782931104 -0.041023520376431283 0.30625481901274737 -0.068088563003147445 0.073870667267363632 0.072154319143743789 0.024281652570832382 0.70720101608159747 0.40585472710017756 -0.090653171935440022 0.074043999082635967 -0.42428969252051296 0.24388389941341337 -0.13268185143216629 -0.23789511533672744 -0.0061642281584583531 -0.047848840555980501 0.23240502501474802 -0.057516679760709115 -0.12383713310739125 0.012058706295430124
leaf_weight=1225 1234 106 4149 1119 38 2496 19 25 83 5055 44 40 157 62 2510 2169 44 26 75 1163
leaf_count=1225 1234 106 4149 1119 38 2496 19 25 83 5055 44 40 157 62 2510 2169 44 26 75 1163
internal_value=0 0.0472716 -0.0336184 -0.0101606 0.0119622 0.0337253 0.283923 0.0280672 0.0726563 0.0685653 -0.0933858 -0.0320764 0.00568853 0.0114574 -0.0117512 -0.0497607 0.0212809 0.234603 0.0614508 -0.0269387
internal_weight=0 9210 12629 5148 3852 2578 57 2521 5358 5226 171 1274 3923 3766 2572 7481 127 132 1194 3332
internal_count=21839 9210 12629 5148 3852 2578 57 2521 5358 5226 171 1274 3923 3766 2572 7481 127 132 1194 3332
is_linear=0
shrinkage=0.1


Tree=35
num_leaves=21
num_cat=0
split_feature=9 12 9 18 10 16 9 13 11 10 10 6 16 3 18 2 11 8 6 10
split_gain=2888.44 535.334 537.72 506.181 499.013 657.542 577.372 449.691 438.973 422.42 404.518 382.607 370.857 754.349 364.275 358.905 352.891 340.935 474.813 326.691
threshold=26.750000000000004 -0.91702515554752051 19.250000000000004 35.345000000000006 26.800000000000004 -0.37940952255126015 24.850000000000005 2021.5000000000002 0.96359376111369366 61.400000000000013 34.750000000000007 830.95000000000016 0.60355339059327384 15.750000000000002 33.515000000000008 3.4500000000000006 -0.99961926108774335 15.65 831.05000000000007 20.700000000000003
decision_type=2 2 2 2 2 2 2 2 2 2 2 2 2 2 2 2 2 2 2 2
left_child=1 2 -1 7 6 15 19 9 -3 -2 14 -11 -10 -14 16 -6 -7 18 -12 -4
right_child=3 8 4 -5 5 10 -8 -9 12 11 17 -13 13 -15 -16 -17 -18 -19 -20 -21
leaf_value=-0.02505730729959867 0.046424936360469488 -0.051954106660380354 0.25823830787552443 0.078105638820786319 0.02529976879834589 -0.40164312474757291 0.44705797888440374 -0.018105374100598176 -0.017875876438085251 0.13570329805262762 -0.61216460716631449 0.64271051317800454 0.041320407937418757 0.51578860202643173 0.1775519780854791 0.18410637551147871 -0.022968883332570546 -0.079584228949232505 -0.14100826725964058 0.056157299165956201
leaf_weight=3159 2022 7014 93 3692 476 27 47 1430 2108 46 35 22 283 38 85 203 277 155 55 572
leaf_count=3159 2022 7014 93 3692 476 27 47 1430 2108 46 35 22 283 38 85 203 277 155 55 572
internal_value=0 -0.0250914 0.000728608 0.0522375 0.0409546 0.00439899 0.108366 0.0251052 -0.0392661 0.0546703 -0.0688355 0.299805 -0.00262793 0.0975022 -0.00544261 0.0727801 -0.0566132 -0.169483 -0.324283 0.0844218
internal_weight=0 14627 5184 7212 2025 1313 712 3520 9443 2090 634 68 2429 321 389 679 304 245 90 665
internal_count=21839 14627 5184 7212 2025 1313 712 3520 9443 2090 634 68 2429 321 389 679 304 245 90 665
is_linear=0
shrinkage=0.1


Tree=36
num_leaves=21
num_cat=0
split_feature=18 9 15 8 12 8 6 11 12 4 7 15 2 11 12 10 9 3 11 11
split_gain=2353.83 592.2 491.439 465.577 412.504 347.07 334.525 300.763 320.034 343.393 318.064 327.5 316.489 293.204 755.991 515.023 541.793 434.563 374.904 369.76
threshold=15.035000000000002 32.350000000000001 0.34963450400049079 30.250000000000004 0.99901018088683491 42.050000000000004 840.75000000000011 -0.78257835753184624 -0.99353402350479747 1.1500000000000001 2.5000000000000004 0.91586428826728705 5.0500000000000007 0.9482875459472353 -0.89490028524376741 51.300000000000004 19.250000000000004 -3.8499999999999992 -0.44618082326431219 -0.95878322595067689
decision_type=2 2 2 2 2 2 2 2 2 2 2 2 2 2 2 2 2 2 2 2
left_child=3 2 13 -1 6 -3 7 8 10 -10 11 -4 -12 14 15 16 19 -18 -16 -2
right_child=1 5 4 -5 -6 -7 -8 -9 9 -11 12 -13 -14 -15 18 -17 17 -19 -20 -21
leaf_value=-0.030136433426546285 -0.21609722281372884 0.070045686230763501 0.32549396294490157 0.46514545595603818 0.40478322463838395 -0.24625132612948961 0.4198972017731295 -0.00034086899357384416 0.13909929633386875 -0.27199525226786797 0.013096489297874922 -0.066286558151476313 -0.37366012167223539 0.023318812354653159 -0.387435517676051 -0.33929952991425533 0.53310018934438985 0.050119203467589572 -0.097417412884560531 0.029459319176694317
leaf_weight=11972 137 3824 64 19 33 35 24 887 619 21 547 32 22 1831 48 40 19 931 623 111
leaf_count=11972 137 3824 64 19 33 35 24 887 619 21 547 32 22 1831 48 40 19 931 623 111
internal_value=0 0.0366272 0.0169428 -0.0293513 0.0538828 0.0671763 0.0486555 0.044589 0.0751273 0.125606 0.0265449 0.194906 -0.00186314 -0.0052707 -0.0326921 0.0136373 0.0254243 0.0597843 -0.118169 -0.106194
internal_weight=0 9848 5989 11991 2249 3859 2216 2192 1305 640 665 96 569 3740 1909 1238 1198 950 671 248
internal_count=21839 9848 5989 11991 2249 3859 2216 2192 1305 640 665 96 569 3740 1909 1238 1198 950 671 248
is_linear=0
shrinkage=0.1


Tree=37
num_leaves=21
num_cat=0
split_feature=9 8 12 0 1 16 18 10 11 10 1 0 18 13 10 5 6 18 0 15
split_gain=1960.26 411.253 355.718 375.134 523.359 392.908 359.121 346.301 345.313 445.455 437.468 397.586 341.187 375.574 322.973 301.579 294.291 291.886 285.233 354.817
threshold=26.750000000000004 16.850000000000005 -0.91702515554752051 7.1500000000000012 96.500000000000014 -0.12940952255126037 39.755000000000003 36.550000000000004 -0.88697705852364717 29.000000000000004 80.500000000000014 5.0500000000000007 35.345000000000006 2021.5000000000002 61.400000000000013 1012.85 830.95000000000016 8.7650000000000023 1.2500000000000002 0.76663042157996963
decision_type=2 2 2 2 2 2 2 2 2 2 2 2 2 2 2 2 2 2 2 2
left_child=1 2 3 4 5 15 -4 -3 9 10 -7 -11 13 14 -2 17 -16 -1 -15 -20
right_child=12 7 6 -5 -6 8 -8 -9 -10 11 -12 -13 -14 18 16 -17 -18 -19 19 -21
leaf_value=-0.025828439433269391 0.040561184354643204 0.21198818649411832 -0.036853439266597614 -0.031151836515473288 -0.071490757602587982 0.2689970910912533 -0.37777688827254652 0.017690776683517168 0.024565513146554217 0.051236972229085145 0.087588448985532918 -0.46015220652345445 0.064265283132547091 -0.062105470627395215 0.11819556449903289 0.013532307027048968 0.56285379028552629 -0.42119145733187735 0.0073296898020077375 0.28384239627391467
leaf_weight=43 2022 99 8573 2421 446 240 31 1248 500 55 298 21 3692 736 46 619 22 33 644 50
leaf_count=43 2022 99 8573 2421 446 240 31 1248 500 55 298 21 3692 736 46 619 22 33 644 50
internal_value=0 -0.0206766 -0.0260168 -0.00381608 0.0255319 0.0494527 -0.0380822 0.0319725 0.0862633 0.136504 0.168518 -0.0901074 0.0430275 0.0207519 0.0477709 -0.00955045 0.262117 -0.197533 -0.0187375 0.0272552
internal_weight=0 14627 13280 4676 2255 1809 8604 1347 1114 614 538 76 7212 3520 2090 695 68 76 1430 694
internal_count=21839 14627 13280 4676 2255 1809 8604 1347 1114 614 538 76 7212 3520 2090 695 68 76 1430 694
is_linear=0
shrinkage=0.1


Tree=38
num_leaves=21
num_cat=0
split_feature=9 18 5 10 10 16 1 0 7 11 1 9 0 12 10 11 0 0 6 11
split_gain=1610.5 361.634 331.089 322.605 506.68 342.699 412.047 425.827 388.476 268.835 305.266 313.746 272.401 282.076 266.635 255.733 241.924 630.027 361.51 315.154
threshold=23.850000000000005 40.195000000000007 1010.85 26.100000000000005 24.650000000000002 -0.78656609248549325 63.500000000000007 12.550000000000002 15.500000000000002 -0.18222858652173754 98.500000000000014 9.2500000000000018 5.8500000000000005 -0.28400453026986777 91.250000000000014 0.87032255546191739 1.1500000000000001 4.7500000000000009 836.25000000000011 0.9482875459472353
decision_type=2 2 2 2 2 2 2 2 2 2 2 2 2 2 2 2 2 2 2 2
left_child=9 3 -3 4 -2 6 7 8 -5 10 11 -1 -13 -14 16 -11 18 -18 -7 -19
right_child=1 2 -4 5 -6 14 -8 -9 -10 15 -12 12 13 -15 -16 -17 17 19 -20 -21
leaf_value=-0.047056643185292124 -0.0038734512755419859 -0.0045483580345639972 0.076743632426959529 0.11958161928939258 0.44051480767577361 -0.037764288531190293 -0.0013314517637143131 0.072773295719572681 0.44216945486089854 -0.054916992247083962 -0.10230638886984 0.047664703237459 -0.0091754554506877726 0.3350254482546875 -0.35998500586592774 -0.016325428336331365 0.11650439880597024 -0.037208038344535364 0.18870994862284504 0.029901366656668222
leaf_weight=1177 58 630 2447 80 46 1479 466 403 70 3543 317 1387 2849 24 20 3332 571 1214 74 1652
leaf_count=1177 58 630 2447 80 46 1479 466 403 70 3543 317 1387 2849 24 20 3332 571 1214 74 1652
internal_value=0 0.0321241 0.0600995 0.0180884 0.192705 0.0150759 0.0679403 0.126313 0.270142 -0.0228658 -0.0069176 -0.00135584 0.0112709 -0.00629897 0.00432352 -0.0362135 0.0057844 0.0205852 -0.0269717 0.00147464
internal_weight=0 9210 3077 6133 104 6029 1019 553 150 12629 5754 5437 4260 2873 5010 6875 4990 3437 1553 2866
internal_count=21839 9210 3077 6133 104 6029 1019 553 150 12629 5754 5437 4260 2873 5010 6875 4990 3437 1553 2866
is_linear=0
shrinkage=0.1


Tree=39
num_leaves=21
num_cat=0
split_feature=9 8 10 16 11 11 9 6 12 6 10 12 13 8 5 12 5 4 0 11
split_gain=1343.82 355.873 399.057 396.529 387.855 370.774 500.137 409.417 387.836 353.935 342.831 345.478 320.674 317.408 616.404 473.647 309.255 303.475 295.286 376.4
threshold=28.050000000000004 17.450000000000003 37.250000000000007 -0.5 -0.55191596924288666 -0.49240481012316833 22.450000000000003 828.55000000000007 -0.99809679250719896 835.75000000000011 35.800000000000004 -0.97988739209073472 2021.5000000000002 24.850000000000005 1007.85 -0.98897820466835384 1007.7500000000001 1.0000000180025095e-35 21.550000000000004 0.80382625221112025
decision_type=2 2 2 2 2 2 2 2 2 2 2 2 2 2 2 2 2 2 2 2
left_child=1 2 5 -4 -5 6 -1 8 -8 -9 11 -2 -10 14 15 17 18 -12 19 -7
right_child=10 -3 3 4 -6 16 7 9 12 -11 13 -13 -14 -15 -16 -17 -18 -19 -20 -21
leaf_value=-0.0084806305128183532 0.26383847411658679 0.032927104857237599 -0.033604034255000491 -0.30924183124806798 -0.079985429258180266 -0.034656740130167979 -0.48380951862291988 0.14642821016821067 0.10002731524574493 -0.084400658085650559 -0.22853289186515255 0.069108514577278291 -0.20611111519351485 0.065397086910920291 0.024497393867095103 -0.068438649500010981 -0.034259242399400515 -0.75024101336534754 -0.059875363352139083 0.21420030921618605
leaf_weight=4457 125 1373 481 131 169 98 19 527 100 76 27 336 52 1954 3809 124 7660 19 142 160
leaf_count=4457 125 1373 481 131 169 98 19 527 100 76 27 336 52 1954 3809 124 7660 19 142 160
internal_value=0 -0.0156683 -0.0204097 -0.0898786 -0.180101 -0.0163275 0.0044049 0.0786042 -0.0579684 0.117334 0.0388456 0.121914 -0.00471006 0.0323909 0.0161822 -0.170118 -0.0297831 -0.444136 0.0559345 0.119675
internal_weight=0 15445 14072 781 300 13291 5231 774 171 603 6394 461 152 5933 3979 170 8060 46 400 258
internal_count=21839 15445 14072 781 300 13291 5231 774 171 603 6394 461 152 5933 3979 170 8060 46 400 258
is_linear=0
shrinkage=0.1


Tree=40
num_leaves=21
num_cat=0
split_feature=9 9 12 11 9 10 0 7 16 6 13 11 10 12 1 16 9 11 10 8
split_gain=1088.5 316.649 348.038 404.971 384.875 329.366 320.456 420.717 440.115 315.176 312.074 294.612 277.699 279.843 277.922 387.332 375.667 348.597 439.843 366.51
threshold=28.050000000000004 13.450000000000001 -0.91354545764260087 -0.97625883275952041 24.750000000000004 26.100000000000005 5.0500000000000007 88.500000000000014 -0.37940952255126015 828.05000000000007 2021.5000000000002 0.9482875459472353 35.800000000000004 -0.97988739209073472 74.500000000000014 -0.78656609248549325 33.750000000000007 0.9482875459472353 51.300000000000004 23.850000000000005
decision_type=2 2 2 2 2 2 2 2 2 2 2 2 2 2 2 2 2 2 2 2
left_child=1 -1 3 6 -5 -6 7 8 -3 -8 -10 -4 13 -2 15 -14 17 18 -17 -20
right_child=12 2 11 4 5 -7 9 -9 10 -11 -12 -13 14 -15 -16 16 -18 -19 19 -21
leaf_value=-0.034310526916500959 0.2374566795744352 -0.011872702378218396 -0.036572418555461998 0.039503580376245288 0.58468337698578987 0.14638656700790462 -0.26217781744849428 -0.053940806145429288 0.25243142766597237 -0.024534036504956187 -0.044905570661238556 0.0067082989270768976 0.11593529927638363 0.06219786514327489 0.0059689177962989537 -0.047087819571566804 0.067443440932066875 0.033298561345043019 -0.69621220373203008 -0.11089863622190105
leaf_weight=5162 125 168 3701 1473 19 175 58 243 197 1471 43 2735 685 336 2763 410 1323 709 20 23
leaf_count=5162 125 168 3701 1473 19 175 58 243 197 1471 43 2735 685 336 2763 410 1323 709 20 23
internal_value=0 -0.0141015 -0.00395664 0.0198391 0.0569421 0.18934 -0.00853289 0.0502249 0.112265 -0.0335503 0.199158 -0.0181801 0.034961 0.109723 0.0291517 0.0493578 0.0310051 -0.0104821 -0.0790037 -0.383236
internal_weight=0 15445 10283 3847 1667 194 2180 651 408 1529 240 6436 6394 461 5933 3170 2485 1162 453 43
internal_count=21839 15445 10283 3847 1667 194 2180 651 408 1529 240 6436 6394 461 5933 3170 2485 1162 453 43
is_linear=0
shrinkage=0.1


Tree=41
num_leaves=21
num_cat=0
split_feature=8 18 16 10 11 9 11 12 12 11 5 6 7 14 10 8 1 18 12 15
split_gain=918.484 267.279 247.27 398.743 695.139 391.582 370.279 350.83 266.233 319.747 450.008 357.172 400.698 296.694 375.99 469.01 258.589 252.62 241.574 248.343
threshold=15.350000000000003 53.875000000000007 -0.37940952255126015 35.800000000000004 -0.33379414889141262 28.350000000000005 -0.96811077628253239 0.82409480842201666 0.99809679250719918 -0.88697705852364717 1015.1500000000002 836.25000000000011 90.500000000000014 0.6830127018922193 26.100000000000005 13.750000000000002 52.500000000000007 38.545000000000009 -0.97988739209073472 0.57727023316007786
decision_type=2 2 2 2 2 2 2 2 2 2 2 2 2 2 2 2 2 2 2 2
left_child=2 -2 17 5 6 8 -5 -6 9 10 13 12 16 -4 -15 -16 -12 -1 -7 -20
right_child=1 -3 3 4 7 18 -8 -9 -10 -11 11 -13 -14 14 15 -17 -18 -19 19 -21
leaf_value=-0.038437526937390686 0.02483069810688722 0.27475636058489056 -0.0053089213837719017 -0.18748521515768515 0.38223661667546099 0.28370477710101066 -0.55780913750557681 -0.042058412923202393 0.10620659517160741 -0.020458208443756388 0.3428495576162558 -0.065748856945387471 -0.04256464418288463 0.020370704749095966 -0.68690795779971214 -0.037240383251888103 0.11140758865819562 0.24805476206836211 0.0091201582944301293 0.2836017978565829
leaf_weight=4121 8385 43 1023 108 21 65 36 269 206 6179 52 162 170 41 25 20 673 31 168 41
leaf_count=4121 8385 43 1023 108 21 65 36 269 206 6179 52 162 170 41 25 20 673 31 168 41
internal_value=0 0.0261062 -0.0160207 -0.00692779 -0.100505 -0.00232567 -0.280098 -0.0113215 -0.00609643 -0.00886882 0.0241924 0.0708806 0.0956118 -0.0203067 -0.198689 -0.39824 0.128012 -0.0362979 0.115348 0.062977
internal_weight=0 8428 13411 9259 434 8825 144 290 8551 8345 2166 1057 895 1109 86 45 725 4152 274 209
internal_count=21839 8428 13411 9259 434 8825 144 290 8551 8345 2166 1057 895 1109 86 45 725 4152 274 209
is_linear=0
shrinkage=0.1


Tree=42
num_leaves=21
num_cat=0
split_feature=8 10 9 12 12 0 6 2 3 10 10 18 18 16 5 3 10 11 5 3
split_gain=767.594 302.295 343.25 295.046 266.043 241.823 239.592 263.962 388.382 358.423 257.061 327.116 522.066 459.061 257.702 231.415 222.481 227.632 231.208 254.981
threshold=17.350000000000005 41.95000000000001 28.350000000000005 -0.99140711019144601 -0.96359376111369344 20.850000000000005 832.25000000000011 0.35000000000000003 10.050000000000002 91.250000000000014 41.95000000000001 27.485000000000003 32.635000000000012 1.0000000180025095e-35 1012.4500000000002 19.750000000000004 35.800000000000004 0.99140711019144623 1011.5500000000001 10.450000000000001
decision_type=2 2 2 2 2 2 2 2 2 2 2 2 2 2 2 2 2 2 2 2
left_child=1 2 -1 -3 -5 16 7 8 9 -2 11 13 -13 14 -9 -8 17 18 19 -4
right_child=6 3 5 4 -6 -7 15 10 -10 -11 -12 12 -14 -15 -16 -17 -18 -19 -20 -21
leaf_value=-0.014349194941870589 -0.010826759355295798 -0.3818905732684546 0.61513655710409498 0.2304400593876971 -0.11684075164199957 -0.22917726856547382 0.053851783971938898 0.326421210852191 -0.46051889915109973 -0.42691159042809268 0.022453884538298066 -0.39914300691868732 0.18356103173686952 0.65601511920628841 -0.10699753198344485 -0.016075558184430978 0.018532623615894705 -0.14175716839423644 0.10525344020342496 0.15996605193296851
leaf_weight=14002 1418 37 20 25 187 31 3430 32 20 21 978 22 51 25 24 549 628 31 276 32
leaf_count=14002 1418 37 20 25 187 31 3430 32 20 21 978 22 51 25 24 549 628 31 276 32
internal_value=0 -0.0120847 -0.010273 -0.121364 -0.0758786 0.0457917 0.0287937 0.00512854 -0.022986 -0.0169018 0.0413645 0.16145 0.00792041 0.299796 0.140682 0.0442036 0.0544302 0.117224 0.141704 0.335116
internal_weight=0 15269 15020 249 212 1018 6570 2591 1459 1439 1132 154 73 81 56 3979 987 359 328 52
internal_count=21839 15269 15020 249 212 1018 6570 2591 1459 1439 1132 154 73 81 56 3979 987 359 328 52
is_linear=0
shrinkage=0.1


Tree=43
num_leaves=21
num_cat=0
split_feature=8 1 18 9 18 10 9 5 12 5 10 3 5 16 6 1 15 2 15 18
split_gain=633.452 318.384 317.924 333.488 280.678 304.771 384.265 244.265 232.427 487.507 223.778 222.471 214.283 247.003 374.389 375.074 803.574 248.35 223.555 298.337
threshold=19.850000000000005 74.500000000000014 44.775000000000013 63.45000000000001 1.4650000000000001 42.300000000000004 28.350000000000005 1022.0500000000001 -0.99353402350479747 1012.2500000000001 76.850000000000009 15.15 1016.85 0.1294095225512602 830.6500000000002 86.500000000000014 0.20088311396693925 0.45000000000000007 0.047319635496388741 16.105000000000004
decision_type=2 2 2 2 2 2 2 2 2 2 2 2 2 2 2 2 2 2 2 2
left_child=4 -2 3 8 -1 6 -6 -7 9 -3 -10 12 13 17 15 16 -15 -8 -14 -20
right_child=1 2 -4 -5 5 7 11 -9 10 -11 -12 -13 18 14 -16 -17 -18 -19 19 -21
leaf_value=-0.032944833748174404 0.056565958050424629 -0.5409651154129469 0.054295494328179122 -0.44269375149085372 -0.0039485626952787956 -0.072195061132067223 0.19269907075964332 0.070503814278964003 -0.016995405634959136 0.0051356547391749607 0.26905599825890841 -0.082796261884031566 -0.087353076650863545 0.23750073537777069 0.081429973985764056 0.1044763715451609 0.98836738402170354 -0.096200433157156096 -0.1260078429084695 0.082818464688612356
leaf_weight=3720 2566 26 773 19 10992 917 42 138 1158 44 28 115 144 57 357 70 19 102 80 472
leaf_count=3720 2566 26 773 19 10992 917 42 138 1158 44 28 115 144 57 357 70 19 102 80 472
internal_value=0 0.0330982 0.00369449 -0.0269837 -0.0086228 -0.00192319 0.00244984 -0.0535287 -0.0206916 -0.197747 -0.0102398 0.0506878 0.0621185 0.103548 0.136607 0.271509 0.425321 -0.01193 0.0236051 0.0525519
internal_weight=0 4614 2048 1275 17225 13505 12450 1055 1256 70 1186 1458 1343 647 503 146 76 144 696 552
internal_count=21839 4614 2048 1275 17225 13505 12450 1055 1256 70 1186 1458 1343 647 503 146 76 144 696 552
is_linear=0
shrinkage=0.1


Tree=44
num_leaves=21
num_cat=0
split_feature=8 10 8 9 6 8 2 10 5 15 7 0 18 16 10 6 9 9 18 14
split_gain=539.103 200.832 307.388 275.021 265.11 228.934 235.071 200.587 280.037 216.639 192.051 569.431 214.075 185.557 366.404 541.138 570.709 338.353 527.666 567.762
threshold=15.350000000000003 36.550000000000004 17.350000000000005 32.45000000000001 822.95000000000016 15.550000000000002 -3.5499999999999994 41.600000000000001 1015.85 0.25118075958286767 45.500000000000007 11.050000000000002 10.455000000000002 -0.37940952255126015 34.400000000000013 825.05000000000007 24.450000000000003 29.250000000000004 26.415000000000003 0.25000000000000017
decision_type=2 2 2 2 2 2 2 2 2 2 2 2 2 2 2 2 2 2 2 2
left_child=13 4 3 7 -2 6 -6 -3 9 -9 -7 12 -12 -1 -15 16 -16 18 -17 -20
right_child=1 2 -4 -5 5 10 -8 8 -10 -11 11 -13 -14 14 15 17 -18 -19 19 -21
leaf_value=-0.029848144781471155 0.38096818401955046 -0.03128463024624574 0.023279468667104879 0.092217968964140209 -0.084333865024958349 -0.018247106556754877 0.23395104819129184 -0.12953075987707832 -0.35804276189894851 0.22065647517614179 -0.060303259251392904 0.62001137462237355 0.12064206291713653 0.0012038032165318669 -0.061137423139761261 -0.030728904930743123 -0.75818087272966939 0.050241535340266 -0.45518703203181232 -0.017782511735662886
leaf_weight=4152 26 795 6475 151 29 356 116 111 47 21 103 19 179 8577 24 294 23 218 73 50
leaf_count=4152 26 795 6475 151 29 356 116 111 47 21 103 19 179 8577 24 294 23 218 73 50
internal_value=0 0.0199919 0.0148966 -0.0333513 0.0667593 0.0565684 0.170292 -0.0528192 -0.148454 -0.0738062 0.0314672 0.0902646 0.0545519 -0.0122826 -0.0044057 -0.0749514 -0.402332 -0.0507141 -0.103492 -0.277397
internal_weight=0 8428 7600 1125 828 802 145 974 179 132 657 301 282 13411 9259 682 47 635 417 123
internal_count=21839 8428 7600 1125 828 802 145 974 179 132 657 301 282 13411 9259 682 47 635 417 123
is_linear=0
shrinkage=0.1


Tree=45
num_leaves=21
num_cat=0
split_feature=18 16 3 4 12 4 0 18 8 16 6 16 2 6 6 9 1 15 12 8
split_gain=602.545 284.693 379.442 388.942 398.597 336.774 327.182 284.215 214.589 245.796 254.612 215.758 206.971 186.476 329.092 277.019 229.82 220.278 215.08 210.674
threshold=18.765000000000004 -0.78656609248549325 12.250000000000002 1.0500000000000003 -0.93038214053199442 1.8500000000000003 15.250000000000002 43.215000000000011 9.8500000000000032 0.91597561503675351 835.75000000000011 0.60355339059327384 -9.5499999999999989 839.95000000000016 838.25000000000011 19.650000000000002 38.500000000000007 -0.99862982478704421 0.9681107762825325 21.350000000000005
decision_type=2 2 2 2 2 2 2 2 2 2 2 2 2 2 2 2 2 2 2 2
left_child=-1 -2 3 12 5 7 -4 -5 11 13 -11 -8 -3 14 15 -10 19 -18 -16 -17
right_child=1 2 6 4 -6 -7 8 -9 9 10 -12 -13 -14 -15 18 16 17 -19 -20 -21
leaf_value=-0.015408274243423642 0.055144898621530603 -0.04176957765823653 -0.29016989001632504 -0.71282277880298561 0.065197493294275835 -0.028229418044492319 -0.10315066218488329 -0.19503024287499732 -0.36530905386866747 -0.082403017229079931 -0.38563654742528519 0.24850672842429608 0.031588828775436027 0.13321827136276596 -0.40537911548816274 -0.11053722957633515 0.32587267098989192 0.03049424847566632 -0.096204450719945572 0.013242772382147154
leaf_weight=13377 1708 418 49 24 47 26 26 19 22 110 37 53 4812 73 35 276 27 387 63 274
leaf_count=13377 1708 418 49 24 47 26 26 19 22 110 37 53 4812 73 35 276 27 387 63 274
internal_value=0 0.0186575 0.00946292 0.0217085 -0.159397 -0.31237 -0.0362525 -0.484129 -0.0272541 -0.0369499 -0.158748 0.132772 0.0257257 -0.0214738 -0.0318925 -0.0145207 -0.00651144 0.0497655 -0.206654 -0.048873
internal_weight=0 8486 6778 5346 116 69 1432 43 1383 1304 147 79 5230 1157 1084 986 964 414 98 550
internal_count=21863 8486 6778 5346 116 69 1432 43 1383 1304 147 79 5230 1157 1084 986 964 414 98 550
is_linear=0
shrinkage=0.1


Tree=46
num_leaves=21
num_cat=0
split_feature=8 3 0 9 3 13 10 9 18 8 16 4 2 8 0 10 16 6 8 7
split_gain=491.999 263.217 533.717 393.888 249.636 249.186 228.065 291.359 242.945 430.653 407.286 221.43 219.821 212.593 197.955 213.756 271.252 211.012 186.712 188.633
threshold=20.050000000000004 -5.5499999999999989 0.55000000000000016 63.45000000000001 20.750000000000004 2021.5000000000002 45.550000000000004 32.650000000000013 27.825000000000003 18.150000000000002 0.25881904510252057 1.9500000000000002 2.8500000000000001 6.9500000000000011 -3.9499999999999997 34.750000000000007 0.78656609248549303 836.35000000000002 36.350000000000001 45.500000000000007
decision_type=2 2 2 2 2 2 2 2 2 2 2 2 2 2 2 2 2 2 2 2
left_child=6 2 5 4 11 -2 7 13 10 12 -8 18 -10 -1 15 17 -17 -15 -3 -20
right_child=1 3 -4 -5 -6 -7 8 -9 9 -11 -12 -13 -14 14 -16 16 -18 -19 19 -21
leaf_value=-0.03243265861931062 0.04043930033400029 0.051761664705133027 -0.39645936234474277 0.37146808034401069 -0.071064308400210441 -0.050910368184372515 -0.087967912099137124 0.06357516298215575 -0.24170619437582552 -0.071762543225204187 0.33968911164162302 -0.25650532707253121 -0.65525566820852976 -0.033824246568514016 -0.00087935350477066118 -0.066731059163394016 -0.3116062500215438 0.19638983903439552 -0.38988358173034277 0.003444937195272944
leaf_weight=3447 668 2933 35 36 194 540 79 551 36 179 31 24 20 762 11997 175 61 42 19 34
leaf_count=3447 668 2933 35 36 194 540 79 551 36 179 31 24 20 762 11997 175 61 42 19 34
internal_value=0 0.0275697 -0.0115511 0.0425781 0.0388816 -0.000395813 -0.00958613 -0.00795589 -0.0900795 -0.14749 0.0325721 0.0459681 -0.389492 -0.010347 -0.00450744 -0.046359 -0.130036 -0.0217958 0.0484001 -0.137603
internal_weight=0 4483 1243 3240 3204 1208 17380 17035 345 235 110 3010 56 16484 13037 1040 236 804 2986 53
internal_count=21863 4483 1243 3240 3204 1208 17380 17035 345 235 110 3010 56 16484 13037 1040 236 804 2986 53
is_linear=0
shrinkage=0.1


Tree=47
num_leaves=21
num_cat=0
split_feature=18 18 3 16 1 6 18 16 3 3 2 10 6 2 2 8 11 5 6 8
split_gain=415.27 247.616 227.662 301.941 307.171 342.217 397.322 233.122 248.541 292.811 484.349 523.218 223.453 276.942 408.483 392.714 274.057 211.856 232.166 210.058
threshold=18.765000000000004 53.875000000000007 20.250000000000004 -0.60355339059327384 60.500000000000007 830.6500000000002 41.925000000000004 -0.12940952255126037 12.250000000000002 16.350000000000005 3.5500000000000003 36.20000000000001 832.1500000000002 -2.3499999999999992 1.2500000000000002 15.750000000000002 -0.96359376111369344 1006.2500000000001 819.55000000000007 23.350000000000005
decision_type=2 2 2 2 2 2 2 2 2 2 2 2 2 2 2 2 2 2 2 2
left_child=-1 2 3 4 5 6 -2 12 17 19 -11 -12 13 -5 15 -15 -14 18 -9 -10
right_child=1 -3 -4 7 -6 -7 -8 8 9 10 11 -13 16 14 -16 -17 -18 -19 -20 -21
leaf_value=-0.01274764589377852 0.56756294996140022 0.23519477535323136 -0.064172254168564327 0.019724286734777472 0.010342126632447686 0.071975778846628188 0.087943706758105283 0.013243890445687008 -0.09088427523367805 -0.12224407303246483 0.54899533754410246 0.076512003730110231 0.10150501548411067 -0.55047949172814925 -0.035914154788294399 -0.16869296718985247 -0.030275622715428011 0.030698060991368889 -0.43002158351589809 0.07354503749505667
leaf_weight=13377 31 51 355 176 1019 1039 39 27 531 80 31 96 207 35 187 117 664 3689 21 91
leaf_count=13377 31 51 355 176 1019 1039 39 27 531 80 31 96 207 35 187 117 664 3689 21 91
internal_value=0 0.015533 0.0142046 0.0176482 0.0499778 0.0863963 0.300397 0.00608944 0.0169931 -0.0325419 0.0704768 0.191877 -0.0298312 -0.0820481 -0.134885 -0.256635 0.00104375 0.0279819 -0.18073 -0.066827
internal_weight=0 8486 8435 8080 2128 1109 70 5952 4566 829 207 127 1386 515 339 152 871 3737 48 622
internal_count=21863 8486 8435 8080 2128 1109 70 5952 4566 829 207 127 1386 515 339 152 871 3737 48 622
is_linear=0
shrinkage=0.1


Tree=48
num_leaves=21
num_cat=0
split_feature=9 18 5 12 0 10 10 18 2 16 16 11 11 18 16 12 12 18 3 15
split_gain=347.727 240.656 239.324 327.356 274.912 200.876 194.572 187.16 207.065 365.249 275.34 360.939 323.527 404.618 339.894 234.678 329.676 331.329 298.133 409.423
threshold=32.350000000000001 17.365000000000006 1016.0500000000001 -0.95368063612909437 8.3500000000000032 55.600000000000001 97.000000000000014 2.0950000000000002 5.4500000000000011 0.25881904510252057 -0.5 -0.98897820466835384 -0.96811077628253239 28.755000000000006 -0.12940952255126037 -0.91702515554752051 0.9482875459472353 24.585000000000004 -12.449999999999998 0.53435276464917691
decision_type=2 2 2 2 2 2 2 2 2 2 2 2 2 2 2 2 2 2 2 2
left_child=5 2 3 -2 -5 7 -3 -1 15 10 11 -10 13 14 -12 -9 17 -17 -19 -20
right_child=1 6 -4 4 -6 -7 -8 8 9 -11 12 -13 -14 -15 -16 16 -18 18 19 -21
leaf_value=-0.025399729968335061 -0.25127688490369748 0.030248160365709861 -0.097108864770596784 0.382591105933834 -0.028587750092919185 -0.28540073110419167 0.32844433717383276 0.024136408894394418 0.17353571427473394 0.017007748645245773 0.04128681830903249 -0.037814132910479699 -0.056192439974543387 -0.53147384812931531 -0.23195571991729708 -0.015499544994850709 0.018634351091180817 -0.36487547315431845 -0.17263364630303232 0.031144689292874873
leaf_weight=4315 21 3760 283 37 29 26 22 4002 90 1205 67 790 576 31 142 3161 2866 41 221 178
leaf_count=4315 21 3760 283 37 29 26 22 4002 90 1205 67 790 576 31 142 3161 2866 41 221 178
internal_value=0 0.0244533 -0.0525171 0.0925277 0.201942 -0.0076998 0.0319836 -0.00729136 -0.00144709 -0.0250881 -0.0549969 -0.016197 -0.0968392 -0.194385 -0.144363 0.00510392 -0.00667404 -0.0268168 -0.108118 -0.0817262
internal_weight=0 4152 370 87 66 17711 3782 17685 13370 2901 1696 880 816 240 209 10469 6467 3601 440 399
internal_count=21863 4152 370 87 66 17711 3782 17685 13370 2901 1696 880 816 240 209 10469 6467 3601 440 399
is_linear=0
shrinkage=0.1


Tree=49
num_leaves=21
num_cat=0
split_feature=8 10 9 5 3 0 10 13 15 3 4 5 2 10 8 0 6 6 12 10
split_gain=295.299 211.449 313.779 219.645 199.711 432.919 293.746 186.179 178.536 167.37 168.655 163.741 163.416 166.011 154.981 157.639 238.407 184.15 232.416 245.643
threshold=20.050000000000004 44.100000000000001 32.650000000000013 1008.6500000000002 -5.5499999999999989 0.55000000000000016 95.200000000000017 2021.5000000000002 -0.99862982478704421 20.750000000000004 1.9500000000000002 1012.5500000000001 0.55000000000000016 41.95000000000001 6.9500000000000011 1.1500000000000001 833.75000000000011 836.1500000000002 -0.92384435400961373 23.600000000000005
decision_type=2 2 2 2 2 2 2 2 2 2 2 2 2 2 2 2 2 2 2 2
left_child=1 2 14 -4 5 7 9 -2 -3 10 -6 12 -5 -14 -1 17 -17 18 19 -16
right_child=4 8 3 11 6 -7 -8 -9 -10 -11 -12 -13 13 -15 15 16 -18 -19 -20 -21
leaf_value=-0.026327445408353009 0.032716487816748074 -0.3588971019298966 -0.25518830856530272 0.45017301026487416 0.039814418872637751 -0.35928860704396426 0.38300227813265947 -0.04624410692492173 -0.055173133511958052 -0.058115941997039504 -0.22628221231688742 0.060952369269486877 -0.0041616901740761814 0.31853710342337799 0.070278667340446632 0.022089095378553532 -0.0093691290289346068 0.06801721833167354 -0.049183131925475521 -0.038944968061970155
leaf_weight=3447 668 20 19 22 2998 35 24 540 591 194 24 341 37 28 403 4085 5872 207 1887 421
leaf_count=3447 668 20 19 22 2998 35 24 540 591 194 24 341 37 28 403 4085 5872 207 1887 421
internal_value=0 -0.00733678 -0.0052313 0.0774269 0.0214489 -0.0126274 0.034522 -0.00258047 -0.0651207 0.0319202 0.0377004 0.0921983 0.214646 0.134872 -0.00749506 -0.00245308 0.00353705 -0.022893 -0.0298347 0.0144739
internal_weight=0 17380 16769 447 4483 1243 3240 1208 611 3216 3022 428 87 65 16322 12875 9957 2918 2711 824
internal_count=21863 17380 16769 447 4483 1243 3240 1208 611 3216 3022 428 87 65 16322 12875 9957 2918 2711 824
is_linear=0
shrinkage=0.1


Tree=50
num_leaves=21
num_cat=0
split_feature=8 18 6 18 2 2 5 3 12 6 0 12 4 3 15 10 5 12 9 0
split_gain=262.712 169.401 164.89 161.583 168.192 155.26 258.686 153.569 264.466 325.178 372.547 280.651 476.456 464.55 442.281 300.069 271.671 283.067 338.693 310.537
threshold=25.650000000000002 2.8050000000000002 841.1500000000002 11.915000000000001 0.15000000000000005 1.6500000000000001 1022.1500000000002 12.250000000000002 0.98624804680367306 824.35000000000002 -3.3499999999999992 -0.92384435400961373 0.95000000000000007 -0.14999999999999999 0.92589048012183106 46.600000000000001 1005.6500000000002 -0.98897820466835384 16.350000000000005 1.6500000000000001
decision_type=2 2 2 2 2 2 2 2 2 2 2 2 2 2 2 2 2 2 2 2
left_child=1 -1 7 -4 -5 -6 -7 8 11 -10 -11 12 16 14 -14 -16 -3 -18 -19 -20
right_child=-2 2 3 4 5 6 -8 -9 9 10 -12 -13 13 -15 15 -17 17 18 19 -21
leaf_value=-0.020543048733450781 0.037202361690269234 -0.27601588771368057 -0.020791687389210438 -0.069569527584166069 0.44203338729037545 0.064458866472780291 0.44960600983473697 -0.016346140561810042 0.34940138829109008 -0.056952127434359928 0.062341501429428542 -0.016821512873788063 -0.36980501822119727 -0.61618315701446047 0.39241549589025931 -0.1250894747558379 0.0050678419689959772 -0.016949267696663602 0.014985518813989046 0.1261030958949193
leaf_weight=4925 1640 30 97 30 21 84 22 4375 34 333 1224 4929 32 21 21 24 2480 420 381 740
leaf_count=4925 1640 30 97 30 21 84 22 4375 34 333 1224 4929 32 21 21 24 2480 420 381 740
